const GENERATED_EVALUATION_PROFILE={"version":1,"format":"compact-v1","name":"trained-phase-linear-v1","phaseBuckets":[{"key":"opening-a","minEmpties":52,"maxEmpties":60,"weights":{"bias":-1739.970763,"mobility":253.50357,"potentialMobility":486.698783,"corners":244.088907,"cornerAccess":-1.22501,"cornerMoveBalance":-7.361699,"cornerAdjacency":17.796626,"cornerOrthAdjacency":32.902561,"cornerDiagonalAdjacency":237.896852,"frontier":273.873192,"positional":383.281001,"edgePattern":883.572215,"cornerPattern":3327.041732,"stability":-460.911093,"stableDiscDifferential":137.500279,"discDifferential":67.605069,"discDifferentialRaw":-1329.972723,"parity":48.911905,"parityGlobal":0,"parityRegion":0}},{"key":"opening-b","minEmpties":44,"maxEmpties":51,"weights":{"bias":-6970.527084,"mobility":342.750349,"potentialMobility":546.905066,"corners":21.444108,"cornerAccess":28.34277,"cornerMoveBalance":-2140.140015,"cornerAdjacency":34.996655,"cornerOrthAdjacency":127.39043,"cornerDiagonalAdjacency":239.630336,"frontier":688.707998,"positional":341.053585,"edgePattern":-1248.263101,"cornerPattern":2273.279516,"stability":113.340613,"stableDiscDifferential":13065.188336,"discDifferential":544.750823,"discDifferentialRaw":-3576.35819,"parity":55.255791,"parityGlobal":0,"parityRegion":0}},{"key":"midgame-a","minEmpties":36,"maxEmpties":43,"weights":{"bias":-10620.59312,"mobility":386.914734,"potentialMobility":473.60683,"corners":197.025032,"cornerAccess":34.835398,"cornerMoveBalance":3770.351265,"cornerAdjacency":38.122815,"cornerOrthAdjacency":120.979005,"cornerDiagonalAdjacency":205.519344,"frontier":891.223071,"positional":241.619925,"edgePattern":-1267.978715,"cornerPattern":1131.273716,"stability":86.117868,"stableDiscDifferential":11368.425158,"discDifferential":322.054831,"discDifferentialRaw":-2281.349562,"parity":53.295666,"parityGlobal":0,"parityRegion":0}},{"key":"midgame-b","minEmpties":28,"maxEmpties":35,"weights":{"bias":-9886.319403,"mobility":440.324455,"potentialMobility":280.93806,"corners":118.912255,"cornerAccess":80.214499,"cornerMoveBalance":6596.880526,"cornerAdjacency":-0.670305,"cornerOrthAdjacency":71.60991,"cornerDiagonalAdjacency":90.883635,"frontier":969.574147,"positional":163.329483,"edgePattern":-661.559118,"cornerPattern":922.626759,"stability":87.292518,"stableDiscDifferential":7320.04035,"discDifferential":-262.012503,"discDifferentialRaw":-71.453156,"parity":53.256162,"parityGlobal":0,"parityRegion":0}},{"key":"midgame-c","minEmpties":20,"maxEmpties":27,"weights":{"bias":-8253.301721,"mobility":576.683718,"potentialMobility":-22.143095,"corners":101.94498,"cornerAccess":31.203645,"cornerMoveBalance":9337.338511,"cornerAdjacency":-31.308693,"cornerOrthAdjacency":54.941931,"cornerDiagonalAdjacency":30.469095,"frontier":821.537569,"positional":89.796401,"edgePattern":-266.349837,"cornerPattern":759.96795,"stability":62.475848,"stableDiscDifferential":4139.506131,"discDifferential":-731.568976,"discDifferentialRaw":978.002909,"parity":55.536395,"parityGlobal":0,"parityRegion":0}},{"key":"late-a","minEmpties":13,"maxEmpties":19,"weights":{"bias":-6825.848836,"mobility":606.374909,"potentialMobility":-279.864079,"corners":101.594705,"cornerAccess":18.311727,"cornerMoveBalance":8495.171914,"cornerAdjacency":-16.632546,"cornerOrthAdjacency":42.507997,"cornerDiagonalAdjacency":-9.982257,"frontier":642.127863,"positional":35.080366,"edgePattern":-135.716739,"cornerPattern":662.878263,"stability":13.965033,"stableDiscDifferential":3425.838517,"discDifferential":-579.967179,"discDifferentialRaw":645.114544,"parity":50.653864,"parityGlobal":16.607626,"parityRegion":47.73836}},{"key":"late-b","minEmpties":7,"maxEmpties":12,"weights":{"bias":-3999.164761,"mobility":506.24405,"potentialMobility":-319.476161,"corners":98.03629,"cornerAccess":15.447669,"cornerMoveBalance":7104.794629,"cornerAdjacency":-12.880264,"cornerOrthAdjacency":42.412662,"cornerDiagonalAdjacency":-30.408282,"frontier":455.061453,"positional":5.922032,"edgePattern":-95.564593,"cornerPattern":504.72778,"stability":-34.715014,"stableDiscDifferential":3024.178614,"discDifferential":-150.766709,"discDifferentialRaw":119.948168,"parity":40.003793,"parityGlobal":24.241676,"parityRegion":83.201252}},{"key":"endgame","minEmpties":0,"maxEmpties":6,"weights":{"bias":-3258.142531,"mobility":195.705442,"potentialMobility":-146.372944,"corners":71.703505,"cornerAccess":-92.887277,"cornerMoveBalance":13007.356571,"cornerAdjacency":16.942444,"cornerOrthAdjacency":12.064035,"cornerDiagonalAdjacency":-31.405703,"frontier":220.454457,"positional":0.42053,"edgePattern":-105.94683,"cornerPattern":274.726347,"stability":-207.201367,"stableDiscDifferential":3625.402184,"discDifferential":4495.427394,"discDifferentialRaw":-7652.907556,"parity":-10906.176659,"parityGlobal":2176.323488,"parityRegion":8825.866746}}]};
const GENERATED_MOVE_ORDERING_PROFILE={"version":1,"format":"compact-v1","name":"stage44-candidateH2-edgePattern125-cornerPattern125-11-12","stage":{"number":38,"tag":"stage38","file":"stage-info.json","label":"Stage 38","updatedAt":"2026-03-30T16:54:58+09:00","kind":"move-ordering-profile","status":"active-adopted-candidateH2","adoptedFrom":"tools/evaluator-training/out/stage44_candidateH2_edgePattern125_cornerPattern125_11_12.json"},"trainedBuckets":[{"key":"child-11-12","minEmpties":11,"maxEmpties":12,"weights":{"mobility":0,"corners":6.411028,"cornerAdjacency":-28.093532,"edgePattern":-183.444529,"cornerPattern":461.787356,"discDifferential":0,"parity":2.261603}},{"key":"child-15-16","minEmpties":15,"maxEmpties":16,"weights":{"mobility":30.294982,"corners":-3.826455,"cornerAdjacency":-1.419264,"edgePattern":-28.068467,"cornerPattern":87.712837,"discDifferential":8.814233,"parity":0}},{"key":"child-17-18","minEmpties":17,"maxEmpties":18,"weights":{"mobility":28.839259,"corners":-0.772686,"cornerAdjacency":2.923797,"edgePattern":-46.615311,"cornerPattern":115.962661,"discDifferential":5.858417,"parity":0}}]};
const GENERATED_TUPLE_RESIDUAL_PROFILE={"version":1,"format":"compact-v1","name":"top16-latea095-patched","stage":{"number":63,"tag":"stage63","file":"stage-info.json","label":"Stage 63","updatedAt":"2026-04-06T13:30:00+09:00","kind":"tuple-residual-profile"},"featureEncoding":"ternary-side-to-move","layout":{"name":"diagonal-adjacent-pairs-full-v1-patched-patched","tuples":[[0,9],[1,10],[5,14],[8,17],[14,23],[38,47],[40,49],[46,55],[49,58],[53,62],[54,63],[2,9],[9,16],[47,54],[49,56],[54,61]]},"trainedBuckets":[{"key":"midgame-c","minEmpties":20,"maxEmpties":27,"scale":1,"bias":1268.3506494523394,"tupleWeights":[[-99.863761,-90.584759,333.622373,130.302945,399.905147,-112.641603,-128.291683,-136.354484,-420.459836],[-62.098969,-279.210754,299.602662,-58.452406,233.614646,-246.391368,26.521824,200.536559,-176.136744],[-93.361893,188.784694,-33.568794,150.106157,-268.943278,-575.962112,-146.138877,452.151943,298.264642],[-99.293091,-236.604921,293.024674,1.023374,132.4842,-73.115087,34.612582,180.171175,-241.882727],[-89.167447,171.424395,-248.371743,146.597875,-243.988889,523.061998,-76.210761,-546.609893,308.692076],[-107.084975,-26.457229,160.24868,-149.73296,-294.991342,138.441291,181.33989,-222.025143,240.973721],[-77.922694,156.451567,-39.717641,138.061314,-219.624,-568.003016,-250.699379,571.862216,267.912255],[-53.806884,-30.901957,16.591859,-219.281534,141.038394,198.845618,292.507639,-190.594884,-243.862961],[-126.327063,142.12396,-151.501717,173.761741,-287.76149,589.073056,-61.333893,-484.223083,220.218062],[-77.077894,-55.091396,91.09749,-369.864898,214.094916,288.254749,276.021176,-126.693012,-200.875655],[-54.580848,160.541812,-75.738882,-227.044026,469.492454,-55.821245,355.669264,-169.191012,-441.771623],[-106.67113,174.092726,-15.652418,170.237822,-420.043545,-615.725143,-247.076368,545.938338,404.720984],[-100.13782,164.664254,-209.955961,188.090936,-348.959179,473.229397,-25.145456,-579.415663,357.04914],[-125.348542,89.80487,14.987532,218.807713,-340.359114,-614.906489,-156.853855,524.947658,296.941686],[-89.165863,160.305921,-179.053708,146.596893,264.883572,42.937052,20.470733,-281.760787,-128.201098],[-85.591955,214.912811,-149.0423,15.144141,-318.122677,607.873396,-10.280528,-615.025593,344.219287]]},{"key":"late-a","minEmpties":13,"maxEmpties":19,"scale":1,"bias":191.96760990923312,"tupleWeights":[[-86.58605615,-67.03523,177.1694482,310.70370065,342.5087459,108.38354014999999,-217.8169006,-292.97649069999994,-283.88949085],[-124.36585565,-340.63025485,413.4930157,57.82416965,162.19716035,-311.8182321,-36.7357457,319.6004326,-151.961449],[-131.95001915,150.2818433,-82.372486,69.16334305,-240.01087945,-258.3093928,-97.37762579999999,326.63460975,274.90031059999995],[-114.97090379999999,-345.23503595,346.82752855,57.559626949999995,114.6067061,-217.16948984999996,8.971458,344.49476365,-170.81083315],[-116.89394415,113.3451745,-147.50782049999998,109.10700125,-201.34067629999998,344.4166841,-31.837924749999996,-362.2330943,313.5155838],[-112.07659484999999,0.5900013,121.7146821,-122.7763641,-152.2748958,313.8012963,131.98639179999998,-334.0013743,163.1602181],[-158.54591324999998,179.03253975,-36.1191026,78.1655326,-179.52280055,-360.83144624999994,-105.7589742,302.64425405,273.33823129999996],[-110.74933845,51.55453255,30.689073599999997,-349.7669131,162.75292555,303.68286435,329.1006435,-215.61063295,-147.70622325],[-215.72414654999997,113.30204069999999,-83.84192035,161.59217754999997,-165.00510194999998,311.11349455,-88.13410964999998,-331.24154259999995,285.2087682],[-140.863264,26.45098775,69.81308225,-290.91216349999996,130.37152575,251.92903034999998,339.7714843,-196.3559598,-150.47124384999998],[-124.91113094999999,383.12960019999997,-210.67940049999999,0.54357765,351.2923338,-422.08564694999995,187.30114975,137.57592104999998,-295.51977939999995],[-166.02421445,235.01496719999997,-137.68098915,189.17261269999997,-351.48258365,-322.29319239999995,-111.27099485,349.55182645,346.9435226],[-129.98623139999998,141.5302058,-112.74152455,118.6641922,-265.4602081,368.5047074,-106.34503204999999,-280.59973299999996,281.95470185],[-150.94734015,175.90616194999998,-72.49052995,73.89541655,-287.4560825,-335.14289714999995,-58.105207199999995,332.7912624,304.6533834],[-149.2951391,477.2040532,-298.6976092,117.45793635,244.46087134999996,-231.9704205,46.11033905,-50.8663041,-76.2064255],[-115.92568134999999,102.6934667,-117.79062635,141.34576995,-238.7320398,345.11395275,-85.16500624999999,-363.6776206,322.8972214]]},{"key":"late-b","minEmpties":7,"maxEmpties":12,"scale":1,"bias":319.0107058145191,"tupleWeights":[[-15.518429,9.556938,70.0880955,303.296019,100.1144715,67.0461435,-187.9508005,-208.511204,-102.9674045],[-30.396767,-140.169474,251.0420115,35.7375285,42.389153,-200.9905095,15.7479715,94.7435915,-63.1058685],[-52.3659065,92.877262,-6.6044245,75.0405355,-165.1337835,-114.268649,7.6187755,102.1101295,83.3312835],[-30.895081,-140.826637,195.1627725,43.015796,32.1419945,-169.029058,26.017873,107.740047,-51.7447075],[-24.8250645,60.316144,3.518636,85.774807,-155.9667095,91.7263425,-11.681213,-139.2277045,109.00709],[-37.17196,60.697635,-52.9477405,-34.648203,-51.210476,179.3946165,94.6180665,-242.0819255,57.348422],[-33.4239045,117.0779605,-23.1955815,59.452412,-162.085429,-98.903409,6.0820265,87.4522525,75.6648105],[6.665249,27.132321,-11.795596,-157.046764,56.7440405,71.6930745,253.1746745,-167.24746,-80.2782315],[-41.799922,80.617967,-4.020941,113.8228345,-165.115419,90.5756695,-37.992902,-113.7512135,103.575471],[-39.210442,37.7971975,7.681994,-169.8407725,59.1035295,101.645074,250.4103985,-181.0650945,-66.745934],[-31.559519,236.687749,-95.539318,15.5510185,94.993387,-200.451582,69.710855,79.4530415,-110.4946455],[-61.5446065,83.6375815,-25.056044,96.362457,-168.717068,-141.909573,-7.356775,130.3270265,115.657762],[-40.5069415,59.5759345,6.7094705,103.6426135,-172.554377,110.155688,-34.989749,-120.561226,105.9039805],[-49.3480835,111.802269,-11.260536,23.380815,-173.2271125,-114.0446365,38.274401,108.0432115,85.505728],[-4.000431,271.845527,-150.620265,43.772926,38.2254275,-148.8185785,19.2004345,3.2926145,-39.292837],[-36.666503,32.7381185,13.561431,88.0087545,-143.1162275,99.1061735,-26.3060795,-125.5219825,107.3093025]]},{"key":"endgame","minEmpties":0,"maxEmpties":6,"scale":1,"bias":3456.868814179849,"tupleWeights":[[216.20573,13.877072,158.111075,797.59849,-112.606666,82.423493,-286.944251,-182.104681,-177.110093],[48.549893,-368.789064,927.423435,296.654151,-41.118167,-321.150425,27.768235,87.142636,-189.094962],[31.602119,178.799961,266.051271,322.976031,-362.28593,-187.429967,231.938385,132.224881,9.912093],[115.740234,-336.131522,875.84474,242.712567,4.35081,-279.225029,-23.867939,82.477414,-228.665805],[18.806416,352.765719,202.613141,268.63707,-365.634897,111.896441,297.737642,-196.796203,8.16483],[127.567732,286.958101,-38.843191,-212.432796,-56.212176,163.923066,591.18115,-380.707098,-9.417636],[52.369559,156.801289,286.749926,302.17803,-384.712183,-163.317827,279.912893,111.732813,-0.873581],[77.385147,274.42549,38.261845,-336.065816,-4.521203,54.26634,872.551591,-295.645375,-210.937017],[142.414916,336.982826,189.226346,172.280669,-361.620407,117.635449,193.592345,-124.060326,19.622503],[72.055426,277.281618,61.164425,-331.585711,0.140979,46.016026,897.8784,-321.865172,-193.758163],[225.619711,742.366964,-206.07098,-62.355849,-95.562371,-124.985893,138.884538,89.905402,-158.812556],[95.568266,162.329497,332.763594,283.952752,-361.861184,-174.469052,234.226357,156.156872,-16.450929],[110.018653,353.200277,175.089843,194.956107,-336.796689,135.970426,244.011133,-106.795755,-38.176364],[74.734065,211.987509,264.125054,286.01197,-324.971401,-121.286293,276.473188,78.601373,-21.003529],[237.28064,796.953373,-304.933788,63.279037,-163.12259,-162.320552,100.526298,24.619848,-89.343134],[64.759415,349.558322,224.571101,180.222798,-356.677293,143.280605,224.410779,-132.499458,3.725776]]}]};
const GENERATED_MPC_PROFILE=null;
export{GENERATED_EVALUATION_PROFILE,GENERATED_MOVE_ORDERING_PROFILE,GENERATED_TUPLE_RESIDUAL_PROFILE,GENERATED_MPC_PROFILE};
export default GENERATED_EVALUATION_PROFILE;
