const GENERATED_EVALUATION_PROFILE={"version":1,"format":"compact-v1","name":"trained-phase-linear-v1","phaseBuckets":[{"key":"opening-a","minEmpties":52,"maxEmpties":60,"weights":{"bias":-1739.970763,"mobility":253.50357,"potentialMobility":486.698783,"corners":244.088907,"cornerAccess":-1.22501,"cornerMoveBalance":-7.361699,"cornerAdjacency":17.796626,"cornerOrthAdjacency":32.902561,"cornerDiagonalAdjacency":237.896852,"frontier":273.873192,"positional":383.281001,"edgePattern":883.572215,"cornerPattern":3327.041732,"stability":-460.911093,"stableDiscDifferential":137.500279,"discDifferential":67.605069,"discDifferentialRaw":-1329.972723,"parity":48.911905,"parityGlobal":0,"parityRegion":0}},{"key":"opening-b","minEmpties":44,"maxEmpties":51,"weights":{"bias":-6970.527084,"mobility":342.750349,"potentialMobility":546.905066,"corners":21.444108,"cornerAccess":28.34277,"cornerMoveBalance":-2140.140015,"cornerAdjacency":34.996655,"cornerOrthAdjacency":127.39043,"cornerDiagonalAdjacency":239.630336,"frontier":688.707998,"positional":341.053585,"edgePattern":-1248.263101,"cornerPattern":2273.279516,"stability":113.340613,"stableDiscDifferential":13065.188336,"discDifferential":544.750823,"discDifferentialRaw":-3576.35819,"parity":55.255791,"parityGlobal":0,"parityRegion":0}},{"key":"midgame-a","minEmpties":36,"maxEmpties":43,"weights":{"bias":-10620.59312,"mobility":386.914734,"potentialMobility":473.60683,"corners":197.025032,"cornerAccess":34.835398,"cornerMoveBalance":3770.351265,"cornerAdjacency":38.122815,"cornerOrthAdjacency":120.979005,"cornerDiagonalAdjacency":205.519344,"frontier":891.223071,"positional":241.619925,"edgePattern":-1267.978715,"cornerPattern":1131.273716,"stability":86.117868,"stableDiscDifferential":11368.425158,"discDifferential":322.054831,"discDifferentialRaw":-2281.349562,"parity":53.295666,"parityGlobal":0,"parityRegion":0}},{"key":"midgame-b","minEmpties":28,"maxEmpties":35,"weights":{"bias":-9886.319403,"mobility":440.324455,"potentialMobility":280.93806,"corners":118.912255,"cornerAccess":80.214499,"cornerMoveBalance":6596.880526,"cornerAdjacency":-0.670305,"cornerOrthAdjacency":71.60991,"cornerDiagonalAdjacency":90.883635,"frontier":969.574147,"positional":163.329483,"edgePattern":-661.559118,"cornerPattern":922.626759,"stability":87.292518,"stableDiscDifferential":7320.04035,"discDifferential":-262.012503,"discDifferentialRaw":-71.453156,"parity":53.256162,"parityGlobal":0,"parityRegion":0}},{"key":"midgame-c","minEmpties":20,"maxEmpties":27,"weights":{"bias":-8253.301721,"mobility":576.683718,"potentialMobility":-22.143095,"corners":101.94498,"cornerAccess":31.203645,"cornerMoveBalance":9337.338511,"cornerAdjacency":-31.308693,"cornerOrthAdjacency":54.941931,"cornerDiagonalAdjacency":30.469095,"frontier":821.537569,"positional":89.796401,"edgePattern":-266.349837,"cornerPattern":759.96795,"stability":62.475848,"stableDiscDifferential":4139.506131,"discDifferential":-731.568976,"discDifferentialRaw":978.002909,"parity":55.536395,"parityGlobal":0,"parityRegion":0}},{"key":"late-a","minEmpties":13,"maxEmpties":19,"weights":{"bias":-6825.848836,"mobility":606.374909,"potentialMobility":-279.864079,"corners":101.594705,"cornerAccess":18.311727,"cornerMoveBalance":8495.171914,"cornerAdjacency":-16.632546,"cornerOrthAdjacency":42.507997,"cornerDiagonalAdjacency":-9.982257,"frontier":642.127863,"positional":35.080366,"edgePattern":-135.716739,"cornerPattern":662.878263,"stability":13.965033,"stableDiscDifferential":3425.838517,"discDifferential":-579.967179,"discDifferentialRaw":645.114544,"parity":50.653864,"parityGlobal":16.607626,"parityRegion":47.73836}},{"key":"late-b","minEmpties":7,"maxEmpties":12,"weights":{"bias":-3999.164761,"mobility":506.24405,"potentialMobility":-319.476161,"corners":98.03629,"cornerAccess":15.447669,"cornerMoveBalance":7104.794629,"cornerAdjacency":-12.880264,"cornerOrthAdjacency":42.412662,"cornerDiagonalAdjacency":-30.408282,"frontier":455.061453,"positional":5.922032,"edgePattern":-95.564593,"cornerPattern":504.72778,"stability":-34.715014,"stableDiscDifferential":3024.178614,"discDifferential":-150.766709,"discDifferentialRaw":119.948168,"parity":40.003793,"parityGlobal":24.241676,"parityRegion":83.201252}},{"key":"endgame","minEmpties":0,"maxEmpties":6,"weights":{"bias":-3258.142531,"mobility":195.705442,"potentialMobility":-146.372944,"corners":71.703505,"cornerAccess":-92.887277,"cornerMoveBalance":13007.356571,"cornerAdjacency":16.942444,"cornerOrthAdjacency":12.064035,"cornerDiagonalAdjacency":-31.405703,"frontier":220.454457,"positional":0.42053,"edgePattern":-105.94683,"cornerPattern":274.726347,"stability":-207.201367,"stableDiscDifferential":3625.402184,"discDifferential":4495.427394,"discDifferentialRaw":-7652.907556,"parity":-10906.176659,"parityGlobal":2176.323488,"parityRegion":8825.866746}}]};
const GENERATED_MOVE_ORDERING_PROFILE={"version":1,"format":"compact-v1","name":"stage44-candidateH2-edgePattern125-cornerPattern125-11-12","stage":{"number":38,"tag":"stage38","file":"stage-info.json","label":"Stage 38","updatedAt":"2026-03-30T16:54:58+09:00","kind":"move-ordering-profile","status":"active-adopted-candidateH2","adoptedFrom":"tools/evaluator-training/out/stage44_candidateH2_edgePattern125_cornerPattern125_11_12.json"},"trainedBuckets":[{"key":"child-11-12","minEmpties":11,"maxEmpties":12,"weights":{"mobility":0,"corners":6.411028,"cornerAdjacency":-28.093532,"edgePattern":-183.444529,"cornerPattern":461.787356,"discDifferential":0,"parity":2.261603}},{"key":"child-15-16","minEmpties":15,"maxEmpties":16,"weights":{"mobility":30.294982,"corners":-3.826455,"cornerAdjacency":-1.419264,"edgePattern":-28.068467,"cornerPattern":87.712837,"discDifferential":8.814233,"parity":0}},{"key":"child-17-18","minEmpties":17,"maxEmpties":18,"weights":{"mobility":28.839259,"corners":-0.772686,"cornerAdjacency":2.923797,"edgePattern":-46.615311,"cornerPattern":115.962661,"discDifferential":5.858417,"parity":0}}]};
const GENERATED_TUPLE_RESIDUAL_PROFILE={"version":1,"format":"compact-v1","name":"trained-tuple-residual-stage60","stage":{"number":60,"tag":"stage60","file":"stage-info.json","label":"Stage 60","updatedAt":"2026-04-05T18:00:00+09:00","kind":"tuple-residual-profile"},"featureEncoding":"ternary-side-to-move","layoutName":"diagonal-adjacent-pairs-full-v1","trainedBuckets":[{"key":"midgame-c","minEmpties":20,"maxEmpties":27,"scale":1,"bias":-834.661191,"tupleWeights":[[-99.863761,-90.584759,333.622373,130.302945,399.905147,-112.641603,-128.291683,-136.354484,-420.459836],[-62.098969,-279.210754,299.602662,-58.452406,233.614646,-246.391368,26.521824,200.536559,-176.136744],[-105.0866,-104.409448,180.743736,-161.038879,-290.308234,-272.459161,138.267593,117.584809,291.081972],[-176.68062,-209.337,289.822568,261.173022,31.481613,19.265078,-143.307431,-156.281197,6.427455],[-57.807782,-197.148362,230.546696,12.930976,69.611634,-77.699807,-32.869049,85.09898,-92.151146],[-93.361893,188.784694,-33.568794,150.106157,-268.943278,-575.962112,-146.138877,452.151943,298.264642],[-0.653709,-135.905292,0.632101,-102.046687,-155.088291,25.187078,85.479657,111.770838,-8.934043],[-99.293091,-236.604921,293.024674,1.023374,132.4842,-73.115087,34.612582,180.171175,-241.882727],[-78.811645,298.203607,-388.854798,-164.478692,32.392545,282.227018,101.18917,-276.919861,82.731648],[7.865386,47.124264,-164.579124,-163.701068,69.535114,-32.352496,178.43726,78.794445,-33.605484],[-96.361796,217.307133,-294.730794,-65.50745,-110.978838,-101.280636,101.945329,117.930105,120.39859],[-102.258886,158.766131,-214.32248,-94.72294,-111.045311,-140.478979,181.233216,202.00049,57.445841],[-80.540884,-174.898745,155.527295,-178.334654,-21.638388,101.779574,155.326624,60.006525,-92.677728],[-89.167447,171.424395,-248.371743,146.597875,-243.988889,523.061998,-76.210761,-546.609893,308.692076],[-126.706719,-95.399512,222.389178,-94.02027,-280.374333,-232.043284,189.470561,20.371775,263.508342],[-110.491569,-1.951457,-73.954725,-64.868114,8.077464,-69.836151,183.387727,121.779202,-66.609295],[0,-159.140444,21.644773,0,221.943229,-92.275969,0,46.159435,-144.134515],[0,93.133004,-105.658979,0,83.415189,79.408699,0,6.744784,-180.255732],[-99.555105,-6.3693,-11.075296,32.703492,156.439537,-55.499101,-55.336253,-8.980905,-105.469434],[-90.02483,-92.097248,168.04725,138.290981,-112.061633,212.747775,-158.685888,-146.371317,21.022085],[-72.256213,95.125854,-80.98104,-211.760758,15.323635,111.63372,300.846964,-123.802769,-113.008551],[-109.340205,-158.901094,295.804123,175.957287,-8.434335,41.257804,-106.349032,-148.711674,-42.131403],[-63.196294,151.984146,-210.451621,-24.943958,-97.445678,-183.949401,4.013922,185.636705,119.059317],[0,95.903436,-76.554825,0,107.996848,3.554155,0,7.189891,-166.799068],[0,0,0,0,241.382312,-36.776887,0,-67.271837,-154.364363],[0,0,0,91.805034,107.95156,-13.282149,-59.574884,54.547798,-165.171272],[-30.775511,-48.440002,38.899289,196.586231,-103.532542,143.968378,-200.035338,-150.40443,93.938395],[-114.938518,168.302885,-56.403089,-228.514406,-20.949781,-70.484288,326.113369,-14.709705,-36.463475],[-112.593187,-174.467165,297.869793,3.226417,78.511358,-142.957879,58.760593,2.568035,-106.531604],[-113.414019,207.694563,-218.605325,-138.787173,-84.83382,-115.180152,126.363158,186.457096,67.042963],[0.043997,-123.115602,31.138863,-10.041482,169.068985,-17.126451,-72.028823,-33.179796,-118.337934],[0,0,0,77.43914,132.648584,6.511306,-78.061914,23.95501,-201.978777],[0,0,0,-73.111826,154.987124,60.461898,36.392631,-85.795989,-139.513381],[-15.617489,-86.403551,128.442566,2.248678,59.818263,138.937042,-75.254772,-80.490898,-82.20995],[-107.084975,-26.457229,160.24868,-149.73296,-294.991342,138.441291,181.33989,-222.025143,240.973721],[-77.922694,156.451567,-39.717641,138.061314,-219.624,-568.003016,-250.699379,571.862216,267.912255],[-55.726737,-118.628583,71.068057,-246.228125,-16.801627,102.261589,160.340293,22.336472,-54.321713],[-177.807413,-116.733196,108.285089,198.102677,-91.795001,193.470723,-211.165396,-123.371848,21.004681],[-75.167145,-14.784727,-13.604344,151.110259,-97.977763,141.048155,-191.730889,-153.069961,87.907427],[-17.029605,-178.107311,184.345141,34.747984,46.407381,105.918594,-120.893902,-95.40063,-56.270239],[28.865116,-163.008976,101.33109,324.698952,-21.160776,-334.464876,-398.284151,278.086466,101.907952],[-53.806884,-30.901957,16.591859,-219.281534,141.038394,198.845618,292.507639,-190.594884,-243.862961],[-6.043791,-108.75339,109.440323,-38.89085,-311.35913,-53.219677,124.955231,84.381259,39.687239],[-126.327063,142.12396,-151.501717,173.761741,-287.76149,589.073056,-61.333893,-484.223083,220.218062],[-57.618318,-24.530277,5.175454,-181.435222,-20.686328,127.273258,280.190207,-104.299355,-138.08647],[-73.498592,91.824342,-123.264425,-223.125821,85.991108,-137.168071,209.369353,34.259904,15.743186],[-106.825725,-78.036528,208.250027,-158.258043,-208.419369,128.941218,129.180011,-276.020408,285.736401],[-77.077894,-55.091396,91.09749,-369.864898,214.094916,288.254749,276.021176,-126.693012,-200.875655],[-54.580848,160.541812,-75.738882,-227.044026,469.492454,-55.821245,355.669264,-169.191012,-441.771623],[-34.077985,-30.728347,17.13565,-27.200284,65.08152,6.59039,27.83194,121.234971,-258.874483],[-106.67113,174.092726,-15.652418,170.237822,-420.043545,-615.725143,-247.076368,545.938338,404.720984],[-40.057914,-282.865918,268.030631,-7.252509,220.369621,-57.271063,-84.253143,81.193084,-186.831454],[-94.975319,-200.8461,235.327753,61.312783,-35.181434,47.207507,-70.697155,-37.135511,15.948035],[-126.059794,-126.303254,221.042509,-139.694657,-197.18504,-189.923986,184.454958,34.602091,227.086231],[-93.618148,-132.565427,149.364364,63.07562,-54.678334,-224.764011,100.789508,251.915572,-23.326429],[-76.500467,142.956446,8.272954,254.728147,195.655443,-226.019292,-173.594028,-45.892871,-168.483677],[-100.13782,164.664254,-209.955961,188.090936,-348.959179,473.229397,-25.145456,-579.415663,357.04914],[-129.852428,-168.26133,154.70826,-172.002822,46.638555,73.312751,170.582072,-1.662553,-66.001228],[-158.144942,161.135802,-201.509211,-138.49704,-73.84857,-151.285042,127.856565,129.954388,102.596503],[-19.831822,178.789103,-280.981006,-102.611471,-78.836121,-162.867789,122.698313,157.875912,122.543116],[-63.577631,142.780595,-168.200003,-79.387986,8.026064,-40.158996,105.119191,22.026353,23.630771],[-31.030223,309.874651,-389.241477,-174.150555,78.85015,324.274725,197.687098,-388.888508,14.574904],[-50.320924,-94.747709,166.176008,10.390156,-34.683426,-174.825518,3.588804,137.59389,-31.059295],[-87.712651,20.310938,-7.634974,-159.909742,136.961774,-39.531396,275.248188,-66.941521,-138.465375],[-126.974934,-192.830837,172.531718,161.30487,-99.599178,156.650189,-181.435009,-120.890188,73.346026],[-43.852875,-33.27074,25.222636,59.1923,129.129454,-8.374045,-38.858097,-16.037189,-181.319536],[0,80.085364,-124.417556,0,139.750708,-18.872304,0,22.92462,-148.594986],[0,-116.00106,95.335562,0,187.412545,-26.14663,0,5.332031,-179.289907],[-44.696307,118.807213,-160.659826,-52.459155,-9.568907,-70.215043,50.328596,69.532357,46.783634],[-108.878979,-147.598208,172.915041,-32.630564,-216.355664,-133.480978,108.413381,38.521405,227.764375],[-89.156183,39.810718,-8.833801,-231.543244,-52.46529,-63.674894,319.691716,7.122758,-31.495057],[-57.765794,-99.717313,158.508641,216.70382,-125.656672,111.559756,-266.369093,-126.636533,104.369548],[0,0,0,80.702673,119.642266,68.016966,-144.114753,41.697017,-190.048809],[0,0,0,0,147.176575,-17.803426,0,14.443956,-161.054446],[0,37.819022,-89.202111,0,133.607084,2.373676,0,46.95924,-181.339382],[-11.802986,179.000558,-257.130647,-54.578043,-78.192678,-173.087162,86.02051,161.144445,100.159343],[-75.6359,-146.258719,207.988608,127.059202,-74.101854,17.839557,-41.793264,-144.035357,39.862805],[-95.580966,11.153455,87.128783,-147.852322,-213.462916,75.218075,231.290186,-212.572925,212.54698],[-41.503638,-140.697315,77.133418,97.63752,-5.311609,107.080752,-160.920553,-69.260732,-7.821737],[0,0,0,-103.24636,228.456083,8.940895,4.768481,-37.16657,-148.447614],[0,0,0,98.020499,95.928222,52.246564,-146.205005,18.270092,-149.883432],[-1.365324,17.816075,6.340857,-35.589632,160.410667,-12.461392,39.495906,-12.19858,-185.046313],[-16.508368,128.134771,-167.35694,-128.406561,-120.684988,-130.648805,91.537224,130.111795,78.448092],[-87.527362,-187.665146,277.868245,67.038958,96.289757,-103.060651,-22.156293,66.331903,-157.544497],[-20.820379,-60.147397,-21.52468,-154.060094,-48.557841,253.892988,143.355882,-229.912782,31.673715],[-103.841275,-184.079106,228.16484,357.447978,117.214788,-417.219468,-420.280698,379.020719,28.521878],[-64.971454,-66.65193,82.045768,105.048836,15.167547,29.064688,-131.294242,-86.905039,41.615351],[-46.068478,1.274286,36.051477,189.095329,-118.797796,177.086944,-275.396813,-162.366009,74.277006],[15.16117,-144.553649,87.211077,114.374701,-119.695067,152.898605,-175.800651,-80.855495,41.778362],[-61.309234,-224.196777,178.563805,-179.202308,63.395252,25.268678,101.739283,43.162746,-50.316181],[-125.348542,89.80487,14.987532,218.807713,-340.359114,-614.906489,-156.853855,524.947658,296.941686],[-89.165863,160.305921,-179.053708,146.596893,264.883572,42.937052,20.470733,-281.760787,-128.201098],[-27.435386,-83.352942,68.652204,-116.336505,-36.978157,203.482012,164.938158,-248.158862,-34.85069],[-104.046342,-75.143678,111.707031,-157.433204,-113.641635,15.375537,163.407975,-257.660136,298.686448],[-77.230025,91.930326,-43.043626,-134.132668,-84.343292,-81.705816,241.806683,-44.710083,18.253885],[-87.018552,26.458155,-34.056117,-261.67221,140.830642,47.905578,279.357431,-40.421348,-151.675175],[-85.591955,214.912811,-149.0423,15.144141,-318.122677,607.873396,-10.280528,-615.025593,344.219287],[-20.386681,46.084226,47.635188,-113.148912,90.271664,52.99174,-58.064313,3.812082,-119.250696]]},{"key":"late-a","minEmpties":13,"maxEmpties":19,"scale":1,"bias":1261.906338,"tupleWeights":[[-91.143217,-70.5634,186.494156,327.056527,360.535522,114.087937,-229.280948,-308.396306,-298.831043],[-130.911427,-358.558163,435.255806,60.867547,170.733853,-328.229718,-38.669206,336.421508,-159.95942],[-116.684689,-137.499104,101.904066,-37.410679,-109.675103,-364.310899,1.623339,333.2227,229.051135],[-123.583682,-107.986049,151.158701,52.456487,107.583745,-159.118886,-54.554873,48.693971,10.598287],[-161.774649,-141.61391,148.25658,29.106405,55.322159,-137.8159,-10.192724,115.115104,49.10041],[-138.894757,158.191414,-86.70788,72.803519,-252.643031,-271.904624,-102.502764,343.825905,289.368748],[-88.113793,44.092781,72.785601,48.534014,-301.820967,21.94305,27.077836,71.951832,123.180174],[-121.022004,-363.405301,365.081609,60.589081,120.638638,-228.599463,9.44364,362.626067,-179.800877],[-76.801176,146.870496,-211.984998,-138.370384,49.852075,134.039719,155.739545,-156.370179,48.992252],[-168.382388,-3.518778,-92.45266,-111.550346,117.29431,-71.100556,100.634699,176.477306,-102.049206],[-66.417777,106.846713,-242.634744,-48.599145,74.930184,-33.700117,53.305092,125.010157,-58.962117],[-82.509962,89.131264,-193.193977,-133.508265,21.386326,85.249203,105.888021,-12.52389,-25.977645],[-156.891029,-208.392165,149.363604,-154.906123,32.985546,92.454654,112.380293,128.548346,-93.540785],[-123.046257,119.31071,-155.27139,114.849475,-211.937554,362.543878,-33.513605,-381.297994,330.016404],[-211.112164,-96.083221,102.595469,-56.785253,-94.082267,-275.477243,79.440092,249.830984,204.339865],[-50.172245,-6.397992,-91.57376,-141.963585,123.320103,-104.421851,109.452874,180.203113,-99.967607],[0,-93.845334,42.455328,0,175.277828,-128.244735,0,105.923128,-113.70783],[0,-44.065197,-93.611865,0,192.51122,90.628708,0,-38.51299,-152.617777],[-64.790097,-14.037426,-3.704318,-163.554455,238.598583,36.103482,26.538768,9.887315,-203.260462],[-5.006476,-162.79933,98.637153,56.361697,29.267934,-16.088818,-227.624698,82.71552,6.69185],[-158.454956,10.172977,-10.306726,-71.358354,21.223305,84.063383,159.078087,-173.923533,64.788997],[-159.624993,-124.947553,118.406209,163.884607,29.666397,-60.490586,-71.268036,87.219516,-42.154883],[-76.914516,23.182732,-195.839216,-23.850912,84.314782,-93.653269,26.996953,162.132658,-44.92231],[0,-18.531893,-41.068601,0,182.222327,74.260553,0,12.089717,-218.913133],[0,0,0,0,274.301601,-47.513917,0,-23.706923,-186.686888],[0,0,0,-23.362221,169.96719,-28.836161,-75.888799,68.412029,-147.596318],[-85.943645,-81.387619,-27.407831,64.489887,89.276404,147.193553,-73.600426,-94.791763,-71.290425],[-182.672386,108.528726,-96.116717,-108.073011,77.999542,91.852076,134.10281,-160.278792,45.058531],[-226.388435,-145.661523,169.135876,-13.398183,-5.236813,-119.735633,52.016495,167.668832,65.298488],[-73.066724,104.23212,-158.945224,-232.086754,-5.072335,99.227695,110.409979,-5.439763,-27.391718],[-20.634295,-92.333578,51.170334,-57.670163,244.923485,-2.943568,42.4809,7.054427,-216.240587],[0,0,0,-6.725334,141.544578,45.46994,-57.449612,53.096638,-191.026063],[0,0,0,-144.586976,213.511256,97.223534,54.926859,-145.322905,-122.732003],[-78.433951,-155.388414,133.336906,-69.46451,163.79352,139.351705,-5.666038,-156.060644,-70.539412],[-117.975363,0.621054,128.120718,-129.238278,-160.289364,330.317154,138.933044,-351.580394,171.747598],[-166.890435,188.455305,-38.020108,82.279508,-188.971369,-379.822575,-111.325236,318.572899,287.724454],[-131.747439,-180.802366,50.320221,-144.379448,-2.423611,115.470286,120.955528,125.754423,-77.127343],[-68.973164,-257.957773,132.407251,92.444892,37.937211,-19.921465,-167.232258,62.972655,10.559824],[-48.597183,-45.777352,56.449891,109.88724,84.911883,115.830231,-181.629847,-32.874196,-98.771439],[-38.997462,-120.249338,96.910465,-110.219938,77.593558,212.280825,-21.390578,-67.185871,-109.523665],[-40.864093,-160.710308,108.215114,143.724143,47.877226,-142.843955,-252.82416,153.833522,41.352126],[-116.578251,54.267929,32.304288,-368.175698,171.318869,319.666173,346.42173,-226.958561,-155.480235],[-64.473638,92.687184,41.305828,24.511049,-347.901972,-34.402053,49.287812,8.933293,224.87927],[-227.078049,119.265306,-88.254653,170.097029,-173.689581,327.487889,-92.772747,-348.675308,300.219756],[-131.865861,35.707529,-6.92246,-99.368868,-11.925617,126.498836,134.795664,-90.454762,24.102969],[-161.944676,133.710889,-40.347033,-151.328176,101.735853,39.355957,108.573275,-130.167328,56.780891],[-167.16544,8.505861,105.933642,-83.88313,-121.221824,320.089104,101.775943,-382.735028,171.197929],[-148.27712,27.843145,73.487455,-306.22333,137.233185,265.188453,357.654194,-206.690484,-158.390783],[-131.485401,403.294316,-221.76779,0.572187,369.781404,-444.300681,197.159105,144.816759,-311.073452],[-94.966896,106.680112,46.04132,42.750083,-179.944673,52.816156,36.226096,24.196302,-15.504263],[-174.762331,247.384176,-144.927357,199.129066,-369.981667,-339.255992,-117.127363,367.949291,365.203708],[-202.957224,-184.219088,276.264612,-38.251124,113.253929,-136.843172,79.191154,89.888865,-74.647263],[-204.964602,-87.861138,104.161482,132.75648,3.407657,-107.13034,-48.52072,113.382942,49.913657],[-142.556041,-88.665072,91.019292,24.196618,-74.358657,-314.257725,19.604854,265.223652,158.030955],[-166.813419,-152.280549,260.947651,84.056025,54.539058,-298.221302,89.409407,229.859257,-32.069191],[-128.935265,64.921042,46.279546,474.063748,195.548007,-52.064538,-336.83429,-207.325369,-31.84141],[-136.827612,148.979164,-118.675289,124.909676,-279.431798,387.899692,-111.942139,-295.36814,296.794423],[-80.490775,-106.991234,-28.48428,-248.652115,58.90296,125.267044,145.077496,-15.556899,-24.647114],[-129.126803,150.401579,-234.503516,-108.354208,-12.174771,103.062627,148.826221,-4.293989,2.595796],[-37.101623,96.408089,-213.255408,-168.554837,134.087599,-46.917105,29.522302,114.375768,-77.708829],[-116.450976,-54.209162,-45.576682,-2.8414,99.738101,-93.816149,77.054153,186.11529,-106.438992],[-93.685844,94.219455,-202.654474,-137.731631,71.441296,152.658507,176.161796,-178.308845,56.346334],[-171.811948,-226.979401,276.522074,34.679233,81.522003,-280.336828,108.675101,276.218488,-44.979465],[-139.619023,47.716974,-34.046891,-164.148187,58.206047,104.551464,140.798443,-62.682411,-53.603672],[-8.816813,-195.499552,120.708626,52.085154,20.972754,10.81203,-254.56755,39.993109,38.601062],[-65.235038,-39.223364,-102.571476,-130.855029,230.767419,75.510824,69.958605,35.721334,-247.806369],[0,25.95087,-51.491044,0,208.598618,24.090209,0,29.061821,-209.000211],[0,-179.541595,111.675149,0,128.836848,-87.290693,0,68.647063,-82.538588],[-69.894904,-103.528713,-30.595867,-145.349241,143.41066,-109.834917,30.648645,202.367435,-92.187834],[-123.056338,-137.610016,137.565958,-8.908233,-66.097831,-332.726471,-26.803975,319.404128,169.233217],[-206.575483,-3.885543,-28.722554,-123.376057,4.359948,132.458326,97.446781,-128.039066,119.580628],[-4.017368,-129.454982,65.660905,98.301863,128.762857,62.975789,-164.408657,-119.541495,-58.168891],[0,0,0,78.640631,221.335103,-20.053629,-131.689062,23.73917,-182.862709],[0,0,0,0,142.472978,5.066996,0,55.311934,-151.634849],[0,2.972733,-145.628643,0,218.408336,26.146673,0,34.322749,-210.458881],[-54.547581,1.47341,-180.190877,-78.337467,138.473016,-78.975184,9.420918,121.784765,-55.878857],[-159.206114,-78.231459,125.483363,91.660699,-25.982842,-137.196065,47.640583,92.86816,31.334939],[-141.489994,8.612561,103.604431,-177.613471,-45.310658,279.140949,199.049955,-377.032181,104.627217],[-78.234077,-57.483435,95.515559,-71.161826,113.971231,204.976863,-97.592823,-91.862719,-82.823333],[0,0,0,-187.595026,125.428393,137.341147,43.370257,-67.089717,-128.106975],[0,0,0,-11.530468,218.102904,35.477016,-14.065925,3.002101,-236.922117],[-74.862309,-60.48958,-14.859756,-26.043035,169.150116,83.837357,-6.957539,44.864696,-210.210805],[-1.934218,153.920559,-180.911724,-147.71493,-36.275473,81.001107,85.495529,50.656565,-23.684526],[-188.188765,-190.064978,210.571847,117.359999,54.354309,-155.385523,-1.633061,128.870646,0.579301],[-111.980483,-12.340645,-53.742673,-238.421541,-0.708932,391.837487,334.685551,-326.236477,-50.835352],[-101.122624,-178.81505,121.318182,37.020927,141.8976,-196.676031,-172.76035,147.331532,49.296466],[-127.848235,-15.247223,130.131339,-20.75307,103.279148,170.522412,-32.729736,-141.413303,-92.305557],[-45.817962,-86.00066,58.735382,13.144949,57.426057,145.306704,-109.400918,-42.955355,-77.808168],[-70.593503,-147.14345,115.957764,150.899611,10.923223,-17.301944,-201.369148,98.747624,-25.784522],[-84.921723,-169.126579,101.120047,-133.381765,18.857212,71.517144,49.831264,93.646163,-34.86395],[-158.891937,185.164381,-76.305821,77.784649,-302.58535,-352.781997,-61.163376,350.306592,320.687772],[-157.152778,502.320056,-314.418536,123.639933,257.327233,-244.17939,48.537199,-53.543478,-80.21729],[-99.640075,-12.991275,75.565228,-219.512068,38.219534,283.132503,255.512414,-267.117002,-50.30759],[-119.402298,31.582277,23.821893,-161.712256,-41.460927,235.371517,57.219153,-322.449913,215.54661],[-118.499365,83.735499,-36.802747,-63.808277,31.120317,97.078677,84.338414,-164.855864,40.892618],[-182.153382,37.452807,11.687021,-233.42271,84.453151,122.078113,205.055243,-95.45414,-25.421487],[-122.027033,108.098386,-123.990133,148.785021,-251.296884,363.277845,-89.647375,-382.818548,339.891812],[-159.728114,100.66139,40.917028,119.568043,-180.037319,72.9476,72.286582,47.555581,-55.247441]]},{"key":"late-b","minEmpties":7,"maxEmpties":12,"scale":1,"bias":471.902718,"tupleWeights":[[-31.036858,19.113876,140.176191,606.592038,200.228943,134.092287,-375.901601,-417.022408,-205.934809],[-60.793534,-280.338948,502.084023,71.475057,84.778306,-401.981019,31.495943,189.487183,-126.211737],[-65.3406,-23.180122,64.715004,41.554726,-91.363892,-428.659074,-1.225309,378.037717,114.512443],[-37.472447,-3.48819,52.226467,72.074829,42.096549,-286.372951,-120.285631,202.788031,10.261624],[-15.539745,-127.246127,127.145675,43.095712,-55.502343,-231.461141,-74.851168,136.871001,130.525186],[-104.731813,185.754524,-13.208849,150.081071,-330.267567,-228.537298,15.237551,204.220259,166.662567],[-64.637676,122.99216,26.156707,243.332253,-438.152085,13.520525,51.010717,-25.097081,106.381047],[-61.790162,-281.653274,390.325545,86.031592,64.283989,-338.058116,52.035746,215.480094,-103.489415],[-68.78968,23.920747,48.380231,-106.733763,23.360418,-40.441616,94.329282,-0.584071,-25.265186],[3.818472,-39.170244,47.297207,-27.081638,155.165721,-129.333452,-1.16052,217.566549,-184.916441],[-0.339159,-77.996218,57.608414,-9.634841,198.818101,-12.909781,29.366328,106.647782,-249.176782],[52.40669,82.797403,-180.919434,-81.285204,113.653074,124.916881,43.575976,-156.411334,-55.656148],[-43.633339,-137.081762,121.253933,-101.437151,-15.594147,27.524651,113.297323,114.534923,-93.896251],[-49.650129,120.632288,7.037272,171.549614,-311.933419,183.452685,-23.362426,-278.455409,218.01418],[-14.066442,-29.258837,86.861996,66.967873,-107.492822,-438.011217,14.546729,354.262623,103.162193],[-32.490049,-61.031695,77.011304,-30.218046,163.442931,-178.737179,69.828374,168.316604,-179.003433],[0,-184.747717,92.825063,0,170.715477,-155.638046,0,123.71707,-118.827256],[0,3.211188,-38.220033,0,229.912951,91.001685,0,-41.177025,-241.447362],[-27.857929,-42.033715,64.141684,-12.914097,242.860743,20.365162,-11.083722,49.653873,-290.41568],[-39.184318,-116.262636,147.522573,76.098794,46.844307,-82.711647,-10.856826,169.128977,-147.748443],[-79.398607,13.878566,38.29003,-80.857446,-73.736058,182.606594,119.045909,-258.044734,94.32719],[-52.717084,-32.364125,148.339944,63.261111,3.747471,-354.839078,-53.520577,186.342979,41.419806],[-24.729193,6.159205,54.562582,15.737737,223.220237,-85.390509,31.693093,48.98223,-198.258727],[0,-11.261744,9.536032,0,203.943605,97.301099,0,-37.381982,-245.174922],[0,0,0,0,225.092783,25.039652,0,19.733841,-244.922348],[0,0,0,37.948438,207.375093,-26.257435,-44.504044,80.138657,-230.401341],[22.477891,-69.34297,17.2885,-34.108036,221.659605,90.871768,-37.82495,-65.287839,-191.038338],[-52.252115,139.535318,-48.34158,-78.791769,12.99526,277.215534,124.631303,-345.647534,-3.563386],[-51.30579,-39.442948,149.228564,-33.069675,-66.667295,-274.509248,30.271124,132.689016,112.72978],[15.090745,-30.288835,-10.795516,-159.827679,24.586771,168.192679,113.81515,-63.210888,-99.901752],[29.35427,-2.290382,23.794289,13.730403,266.438648,1.426132,-17.995702,53.518826,-289.121607],[0,0,0,-56.623022,208.362857,-39.330317,39.32639,76.945221,-229.187349],[0,0,0,-233.046106,127.629476,179.139652,145.076753,-85.699461,-177.066826],[-4.63612,-94.566816,81.246253,-51.174411,114.175952,205.416263,65.36665,-140.457485,-176.11751],[-74.34392,121.39527,-105.895481,-69.296406,-102.420952,358.789233,189.236133,-484.163851,114.696844],[-66.847809,234.155921,-46.391163,118.904824,-324.170858,-197.806818,12.164053,174.904505,151.329621],[-80.576763,-60.759566,65.083557,-84.727029,-27.610839,94.321314,67.58911,85.544328,-99.834797],[10.760372,-128.536587,91.696899,50.223641,-4.116902,-50.744171,-53.790988,205.512634,-118.260596],[2.946925,-1.540714,15.921126,-11.109336,247.833149,80.627504,50.637793,-94.693389,-231.643775],[-63.970651,-41.706309,71.961062,-125.491955,148.222768,209.730994,102.10098,-148.75836,-185.624613],[-74.232855,-82.387693,86.687844,3.457296,56.5481,-31.226207,42.90586,-72.744816,-11.864969],[13.330498,54.264642,-23.591192,-314.093528,113.488081,143.386149,506.349349,-334.49492,-160.556463],[2.146222,152.981566,23.949868,154.828623,-394.880533,30.705843,5.465011,-48.851807,73.610171],[-83.599844,161.235934,-8.041882,227.645669,-330.230838,181.151339,-75.985804,-227.502427,207.150942],[-161.650487,68.536532,12.3081,-70.364288,-68.660259,173.116922,129.878421,-213.399059,80.387863],[-47.342891,104.122845,-52.824314,-55.110557,4.117188,225.181562,106.593344,-333.748364,49.272013],[-15.126318,103.933041,-37.501266,-81.046221,-91.965681,386.791116,133.496417,-436.026147,62.843433],[-78.420884,75.594395,15.363988,-339.681545,118.207059,203.290148,500.820797,-362.130189,-133.491868],[-63.119038,473.375498,-191.078636,31.102037,189.986774,-400.903164,139.42171,158.906083,-220.989291],[-63.510837,225.809136,100.746122,202.282593,-462.412901,31.059971,-8.467419,52.28003,-37.272344],[-123.089213,167.275163,-50.112088,192.724914,-337.434136,-283.819146,-14.71355,260.654053,231.315524],[-114.921287,-76.606672,166.490401,118.444501,-27.519678,-235.281252,-1.73317,118.655589,48.721148],[-74.205314,-8.336501,31.160592,111.172084,21.971998,-327.370048,-69.226556,223.165161,54.466939],[-49.72895,-34.5724,132.481488,74.251158,-20.942629,-462.68164,-95.693982,316.052426,80.154255],[-42.822952,-314.643492,340.517864,117.848163,32.533207,-302.036953,-67.146093,231.271304,-41.472386],[-4.324166,109.885692,46.811685,594.503147,26.966755,8.935603,-392.724297,-295.098302,-66.867638],[-81.013883,119.151869,13.418941,207.285227,-345.108754,220.311376,-69.979498,-241.122452,211.807961],[-32.473788,-145.708065,158.134343,-103.486894,16.651401,37.847985,112.988692,69.628384,-118.339935],[-21.394228,-9.997998,-4.950324,-123.042518,83.26254,159.694018,48.759355,-43.554786,-139.806267],[54.781715,-44.278567,-47.197996,-20.920647,251.668124,-52.262098,-39.030054,72.165321,-204.423528],[-9.142029,-94.05752,60.779599,-66.5362,113.565652,-154.051619,86.372013,216.441919,-148.464623],[30.20226,6.081366,54.291663,-135.907315,-3.103225,-25.728055,85.801038,-4.478993,-35.939193],[-21.9546,-211.615279,362.975919,85.574383,-8.542372,-377.647354,-36.559123,264.889117,-57.529421],[17.382363,59.962542,-74.223083,-29.581706,-85.774708,146.691137,116.761153,-251.947319,88.510864],[-41.316583,-67.001164,8.863376,77.659237,66.440917,-63.992681,-14.881303,122.971395,-106.892774],[-33.032275,-17.603449,-9.240385,23.032985,281.89402,25.30731,-15.219812,14.529377,-283.49187],[0,42.257113,-26.301722,0,237.817997,19.494012,0,3.6588,-235.360598],[0,-225.289696,210.914803,0,145.329597,-141.689384,0,100.991681,-108.356525],[-62.548795,-83.286485,91.649249,-25.173625,161.50763,-146.963298,36.138769,176.714431,-176.435734],[-33.769105,-55.101961,130.916035,83.992743,-55.653692,-449.1867,-19.090194,346.137793,63.300737],[38.856289,-0.787666,13.97908,34.324491,-37.946164,220.394203,25.558858,-321.878571,63.996795],[-24.477086,-51.361536,59.303672,-16.150257,211.945838,85.629486,-2.273579,-73.183925,-212.034989],[0,0,0,44.535257,246.336598,-11.369042,-5.138397,27.656757,-246.556806],[0,0,0,0,207.513652,-23.783746,0,-42.414841,-137.453739],[0,-53.996287,3.161426,0,280.733148,15.63153,0,-28.846706,-221.472384],[-20.473904,-17.796408,51.293452,-24.138407,227.926796,-57.201441,35.283014,66.713717,-232.761418],[-79.607182,42.067019,12.674026,4.665178,-37.516678,-287.027074,-17.834438,212.981376,79.224887],[-28.620081,63.766262,-57.547173,-126.698307,-7.089849,275.485675,212.964392,-460.380885,72.659652],[8.561004,-30.626021,62.633534,-115.534499,159.954296,182.304617,56.910068,-149.704882,-156.917965],[0,0,0,-199.613183,80.790766,143.483147,164.587763,-128.334457,-86.225297],[0,0,0,13.217327,230.606725,7.404873,13.458574,90.670926,-284.985044],[27.830073,-3.841315,-13.642602,-77.34431,279.644749,16.26822,62.699642,6.460883,-265.101557],[-23.242214,24.630781,-79.427647,-178.462257,76.16487,130.647584,106.183503,-52.544428,-110.70165],[5.540814,-105.54017,123.609683,14.633589,-43.815692,-246.974223,-4.08757,117.560601,103.45621],[-56.323372,119.594885,-74.88225,-238.827526,55.585746,220.387991,396.627452,-331.37612,-101.176309],[-37.152721,-112.502614,110.336217,33.732222,-9.393914,-76.797166,19.73029,-5.4922,6.433727],[-2.640093,-26.240693,36.937056,-59.378105,163.023297,214.688628,13.951007,-161.708229,-186.151488],[7.626384,20.279292,-30.916124,-0.275909,185.402176,102.024792,-4.293001,-64.240929,-203.247158],[25.852304,-152.267745,40.473707,68.326004,97.152157,-88.294022,-38.137963,111.343856,-123.47965],[-91.690042,-95.982039,150.632181,-127.979134,-20.122088,54.801532,135.720424,76.945611,-104.111641],[-98.696167,223.604538,-22.521072,46.76163,-346.454225,-228.089273,76.548802,216.086423,171.011456],[-8.000862,543.691054,-301.24053,87.545852,76.450855,-297.637157,38.400869,6.585229,-78.585674],[-55.315264,83.141425,-35.786124,-258.336837,9.353832,270.90676,391.739276,-331.347708,-100.238764],[-86.161799,95.045358,18.006954,-59.423807,-26.030425,277.524434,140.823712,-450.640821,99.991929],[-13.841913,133.155946,-68.978674,-26.038921,17.604765,219.652765,1.136247,-333.538222,64.35802],[-116.80433,-22.647036,93.364422,-111.389105,-65.811134,164.595075,187.619605,-222.521963,59.194619],[-73.333006,65.476237,27.122862,176.017509,-286.232455,198.212347,-52.612159,-251.043965,214.618605],[-6.69252,210.065634,82.086527,199.999241,-327.531053,-4.797622,-0.325994,-19.30966,-64.264502]]},{"key":"endgame","minEmpties":0,"maxEmpties":6,"scale":1,"bias":-914.935801,"tupleWeights":[[216.20573,13.877072,158.111075,797.59849,-112.606666,82.423493,-286.944251,-182.104681,-177.110093],[48.549893,-368.789064,927.423435,296.654151,-41.118167,-321.150425,27.768235,87.142636,-189.094962],[62.77641,-193.342957,618.558662,232.229906,-94.898816,-424.836254,53.432237,184.361805,13.500063],[89.072425,-134.972899,527.298059,189.959789,-20.756589,-337.919988,89.050086,121.591709,-11.220529],[41.811912,-102.790999,448.180239,192.932498,-145.542551,-284.046036,108.872077,76.254806,70.151142],[31.602119,178.799961,266.051271,322.976031,-362.28593,-187.429967,231.938385,132.224881,9.912093],[211.840424,531.880207,103.727685,498.052072,-546.788699,12.414013,58.366511,-1.982509,-165.794938],[115.740234,-336.131522,875.84474,242.712567,4.35081,-279.225029,-23.867939,82.477414,-228.665805],[107.051197,-105.393339,572.438968,90.320777,-96.78598,-123.24104,51.039962,10.375634,-51.17944],[29.583252,-212.831377,450.160976,32.044587,143.63582,-284.743413,90.575486,144.740652,-96.085286],[49.519615,-18.681309,290.509033,41.356421,160.448818,-172.548233,85.193018,75.225867,-156.096629],[89.937909,66.014257,212.198923,65.882768,-47.967797,80.570339,171.846679,-155.298122,-17.209275],[71.99118,13.265403,256.44447,3.813715,-83.958825,3.052327,227.725084,19.935641,-71.251354],[18.806416,352.765719,202.613141,268.63707,-365.634897,111.896441,297.737642,-196.796203,8.16483],[-2.948194,-209.266445,607.514576,220.289427,-16.715848,-373.904201,37.123977,184.556284,-42.437819],[-8.574436,-178.95849,379.382254,30.056707,121.516067,-220.196807,82.133413,160.622643,-157.489237],[0,-160.203012,320.022685,0,153.350274,-288.494766,0,240.837339,-154.599151],[0,30.546237,93.538439,0,264.612729,-58.075761,0,76.967026,-306.323063],[0,32.579465,107.703054,28.675917,223.472448,-0.742139,86.950692,-0.073507,-249.766844],[45.038098,60.717828,192.068499,84.018111,-68.73764,-123.225917,162.671086,97.707624,-28.593322],[23.578831,233.751817,73.924293,-92.899448,-95.405652,53.49365,431.950205,-328.337219,101.48556],[60.975949,-181.50119,527.123663,227.306729,-54.850286,-290.582248,44.520919,145.769322,-25.089387],[-22.386475,-62.44709,278.877839,69.138435,169.018418,-108.054674,73.749168,67.146717,-190.859977],[0,-15.160501,109.460374,0,233.135094,2.092498,0,89.418437,-341.101389],[0,0,0,0,343.37503,18.415573,0,36.288872,-384.289266],[0,0,0,48.407478,255.062942,82.109772,68.22403,-29.108281,-322.610829],[23.654393,48.701499,69.167855,-82.714436,152.789619,80.346411,350.380724,-152.767845,-167.903997],[177.486625,140.254483,31.551153,-84.639005,-55.94761,128.768702,495.619159,-342.322144,-5.250528],[80.073524,-34.520589,381.962619,142.176266,-155.671505,-288.484318,105.555867,85.176996,87.933127],[6.862806,117.696782,143.894425,-42.757262,-68.994711,123.216009,231.098774,-119.596664,-22.684631],[0,-20.445155,145.939404,-51.796864,244.883969,-25.924132,119.935538,-14.114483,-232.57225],[0,0,0,-13.203814,241.228657,75.005622,138.266895,-50.536908,-300.282608],[0,0,0,-118.112983,123.646356,290.131787,357.253742,-315.359586,-151.427053],[64.904349,4.953071,99.771783,-173.623939,113.239087,158.420447,430.123933,-229.855036,-151.21891],[127.567732,286.958101,-38.843191,-212.432796,-56.212176,163.923066,591.18115,-380.707098,-9.417636],[52.369559,156.801289,286.749926,302.17803,-384.712183,-163.317827,279.912893,111.732813,-0.873581],[86.785138,36.154407,204.606503,7.667926,-142.410861,68.643826,241.290904,41.783159,-101.083141],[121.803208,41.22826,121.567925,69.505879,-57.160459,-136.20282,208.920455,91.997818,-9.895144],[43.99635,0.527366,58.14827,-73.2915,164.154709,86.591159,262.246846,-162.730058,-160.45856],[5.614626,11.114746,102.177627,-141.949989,118.867299,121.031109,417.317552,-242.765888,-112.859719],[83.697622,104.95488,146.638544,-179.703923,-96.682993,-6.989529,672.704224,-134.543658,-22.664104],[77.385147,274.42549,38.261845,-336.065816,-4.521203,54.26634,872.551591,-295.645375,-210.937017],[186.74094,469.580365,158.388382,414.83568,-499.079768,22.0187,178.356476,-32.882345,-186.660121],[142.414916,336.982826,189.226346,172.280669,-361.620407,117.635449,193.592345,-124.060326,19.622503],[40.124166,193.048472,96.169245,-58.344272,-87.835628,20.440967,418.171077,-286.959172,77.486832],[126.180961,166.128167,99.368087,-120.549368,-75.5216,177.204043,466.022306,-303.417704,-32.365359],[20.89567,216.166112,14.241972,-258.723277,-34.616856,178.259269,598.11937,-421.300612,29.116773],[72.055426,277.281618,61.164425,-331.585711,0.140979,46.016026,897.8784,-321.865172,-193.758163],[225.619711,742.366964,-206.07098,-62.355849,-95.562371,-124.985893,138.884538,89.905402,-158.812556],[229.062102,467.35903,159.732946,403.868768,-459.537545,2.324747,206.397526,20.827349,-267.096638],[95.568266,162.329497,332.763594,283.952752,-361.861184,-174.469052,234.226357,156.156872,-16.450929],[80.494399,-49.988756,466.711726,173.505484,-87.440384,-284.741106,96.321273,-3.942544,92.58989],[74.737959,-161.785518,486.915454,193.510946,-63.381023,-365.290213,89.520997,106.073193,37.358223],[78.941207,-253.210155,616.633853,234.69263,-77.541304,-401.765739,52.828939,230.341838,-19.838475],[135.583235,-241.666815,808.964342,294.517475,-80.29497,-291.681067,-37.664841,93.668114,-194.657593],[166.015796,17.738234,122.369572,861.777346,-193.360688,42.54554,-283.161778,-58.783761,-132.992476],[110.018653,353.200277,175.089843,194.956107,-336.796689,135.970426,244.011133,-106.795755,-38.176364],[4.821349,29.588396,236.225252,-34.221257,-55.270468,-52.670836,255.711216,-5.602414,-6.254185],[-0.97117,62.013263,227.832793,47.34183,-18.024992,20.55042,144.940725,-107.504012,-6.024208],[-17.717336,-31.477441,315.061833,80.520217,156.968067,-140.722251,64.430816,61.93204,-165.275799],[57.151018,-123.863502,372.988016,51.597389,109.990749,-230.564066,58.147536,156.139171,-133.758485],[70.30355,-186.174887,631.279961,95.089014,-87.956624,-156.926294,142.546884,-17.294081,-27.936286],[102.959071,-329.576625,807.283225,301.881045,-18.71575,-333.96297,-52.151931,112.109971,-181.089134],[7.864822,207.900353,57.101601,-114.183875,-68.550925,37.881014,478.349583,-293.127358,59.655825],[35.695491,54.812433,116.583849,47.617827,14.911183,-141.549939,174.744852,60.627976,-24.730823],[0,20.641098,127.378839,-13.555207,258.174575,-36.060632,105.529342,-20.950473,-228.098445],[0,39.614761,85.524658,0,256.68571,-36.954796,0,104.527995,-329.229001],[0,-150.997643,366.795013,0,109.500276,-322.873456,0,271.896194,-132.838133],[26.914831,-170.613123,416.020245,41.361635,135.739198,-234.848527,81.305107,132.82259,-144.521091],[119.080788,-178.205889,616.944406,188.15525,-83.305428,-401.323449,22.574231,203.229307,-8.330306],[-1.242497,192.24802,54.385123,-77.272987,-50.179542,168.178051,448.520025,-398.236816,49.254589],[41.308876,58.909402,34.571201,-21.754527,171.258236,80.815354,267.75903,-159.470741,-157.211092],[0,0,0,6.918173,295.439556,60.443372,124.559386,-90.757868,-280.980767],[0,0,0,0,343.84438,1.975303,0,-25.766883,-328.970481],[0,10.274586,109.367283,0,251.825975,-40.594686,0,134.097012,-350.887372],[9.225497,-63.213007,293.834533,88.201716,170.365168,-172.374218,32.315962,67.498329,-153.64683],[78.262757,-212.445443,503.99334,191.110793,-59.883194,-351.626917,82.980379,144.540077,32.313317],[93.75602,196.309684,22.890568,-249.383556,-92.925519,226.470199,605.236092,-396.083918,-14.967987],[45.934399,49.148826,66.251221,-143.944398,100.794415,156.283039,376.214528,-223.595229,-139.438991],[0,0,0,-202.733987,117.041154,266.511425,358.871402,-313.077571,-113.091785],[0,0,0,-56.716237,297.023,95.189231,130.701995,-62.318206,-340.82108],[0,-47.657678,164.884608,5.768566,225.041145,-7.45079,107.548199,-21.787451,-225.080023],[50.963747,11.326187,263.035675,85.174118,-55.817446,73.362008,183.135993,-104.789836,-16.971048],[78.548432,-70.333574,489.353749,157.481603,-132.806048,-275.30635,134.997485,67.203663,30.658244],[83.78644,277.818071,-1.09194,-350.296468,-32.666374,126.354021,859.063658,-346.249042,-209.169132],[99.512192,85.56873,85.124862,-162.835539,-127.577852,41.151348,653.55112,-135.542132,-30.265479],[68.719729,-31.358046,70.564443,-198.30876,124.287794,172.802237,421.446411,-233.239437,-164.705454],[19.636321,50.487213,77.133097,-46.045375,138.054553,70.95363,325.808883,-132.179824,-175.860546],[102.264746,70.273514,186.184861,23.942504,-30.259739,-143.745535,163.179827,58.310249,22.01124],[63.852441,40.832271,242.787722,29.252922,-114.961941,5.282742,251.3913,-4.518349,-61.70931],[74.734065,211.987509,264.125054,286.01197,-324.971401,-121.286293,276.473188,78.601373,-21.003529],[237.28064,796.953373,-304.933788,63.279037,-163.12259,-162.320552,100.526298,24.619848,-89.343134],[104.152,226.718712,33.134102,-279.840066,-60.170249,107.559977,778.798724,-322.089254,-161.756937],[117.121963,207.649374,50.148579,-231.466732,-54.724581,199.35028,550.04829,-403.964847,8.64867],[85.722648,125.760314,63.440075,-178.491332,-46.191406,149.2796,507.17568,-293.749958,-11.863808],[1.747356,199.460134,128.072488,-87.842336,-126.599281,70.734153,462.935436,-238.976943,32.337801],[64.759415,349.558322,224.571101,180.222798,-356.677293,143.280605,224.410779,-132.499458,3.725776],[233.310985,456.731338,145.888375,483.686667,-423.905916,-0.343487,145.00977,-18.772749,-224.769411]]}]};
const GENERATED_MPC_PROFILE=null;
export{GENERATED_EVALUATION_PROFILE,GENERATED_MOVE_ORDERING_PROFILE,GENERATED_TUPLE_RESIDUAL_PROFILE,GENERATED_MPC_PROFILE};
export default GENERATED_EVALUATION_PROFILE;
