const GENERATED_EVALUATION_PROFILE={"version":1,"format":"compact-v1","name":"trained-phase-linear-stage60","stage":{"number":60,"tag":"stage60","file":"stage-info.json","label":"Stage 60","updatedAt":"2026-04-05T18:00:00+09:00","kind":"evaluation-profile"},"phaseBuckets":[{"key":"opening-a","minEmpties":52,"maxEmpties":60,"weights":{"bias":-1739.970763,"mobility":253.50357,"potentialMobility":486.698783,"corners":244.088907,"cornerAccess":-1.22501,"cornerMoveBalance":-7.361699,"cornerAdjacency":17.796626,"cornerOrthAdjacency":32.902561,"cornerDiagonalAdjacency":237.896852,"frontier":273.873192,"positional":383.281001,"edgePattern":883.572215,"cornerPattern":3327.041732,"stability":-460.911093,"stableDiscDifferential":137.500279,"discDifferential":67.605069,"discDifferentialRaw":-1329.972723,"parity":48.911905,"parityGlobal":0,"parityRegion":0}},{"key":"opening-b","minEmpties":44,"maxEmpties":51,"weights":{"bias":-6970.527084,"mobility":342.750349,"potentialMobility":546.905066,"corners":21.444108,"cornerAccess":28.34277,"cornerMoveBalance":-2140.140015,"cornerAdjacency":34.996655,"cornerOrthAdjacency":127.39043,"cornerDiagonalAdjacency":239.630336,"frontier":688.707998,"positional":341.053585,"edgePattern":-1248.263101,"cornerPattern":2273.279516,"stability":113.340613,"stableDiscDifferential":13065.188336,"discDifferential":544.750823,"discDifferentialRaw":-3576.35819,"parity":55.255791,"parityGlobal":0,"parityRegion":0}},{"key":"midgame-a","minEmpties":36,"maxEmpties":43,"weights":{"bias":-10620.59312,"mobility":386.914734,"potentialMobility":473.60683,"corners":197.025032,"cornerAccess":34.835398,"cornerMoveBalance":3770.351265,"cornerAdjacency":38.122815,"cornerOrthAdjacency":120.979005,"cornerDiagonalAdjacency":205.519344,"frontier":891.223071,"positional":241.619925,"edgePattern":-1267.978715,"cornerPattern":1131.273716,"stability":86.117868,"stableDiscDifferential":11368.425158,"discDifferential":322.054831,"discDifferentialRaw":-2281.349562,"parity":53.295666,"parityGlobal":0,"parityRegion":0}},{"key":"midgame-b","minEmpties":28,"maxEmpties":35,"weights":{"bias":-9886.319403,"mobility":440.324455,"potentialMobility":280.93806,"corners":118.912255,"cornerAccess":80.214499,"cornerMoveBalance":6596.880526,"cornerAdjacency":-0.670305,"cornerOrthAdjacency":71.60991,"cornerDiagonalAdjacency":90.883635,"frontier":969.574147,"positional":163.329483,"edgePattern":-661.559118,"cornerPattern":922.626759,"stability":87.292518,"stableDiscDifferential":7320.04035,"discDifferential":-262.012503,"discDifferentialRaw":-71.453156,"parity":53.256162,"parityGlobal":0,"parityRegion":0}},{"key":"midgame-c","minEmpties":20,"maxEmpties":27,"weights":{"bias":-8253.301721,"mobility":576.683718,"potentialMobility":-22.143095,"corners":101.94498,"cornerAccess":31.203645,"cornerMoveBalance":9337.338511,"cornerAdjacency":-31.308693,"cornerOrthAdjacency":54.941931,"cornerDiagonalAdjacency":30.469095,"frontier":821.537569,"positional":89.796401,"edgePattern":-266.349837,"cornerPattern":759.96795,"stability":62.475848,"stableDiscDifferential":4139.506131,"discDifferential":-731.568976,"discDifferentialRaw":978.002909,"parity":55.536395,"parityGlobal":0,"parityRegion":0}},{"key":"late-a","minEmpties":13,"maxEmpties":19,"weights":{"bias":-6825.848836,"mobility":606.374909,"potentialMobility":-279.864079,"corners":101.594705,"cornerAccess":18.311727,"cornerMoveBalance":8495.171914,"cornerAdjacency":-16.632546,"cornerOrthAdjacency":42.507997,"cornerDiagonalAdjacency":-9.982257,"frontier":642.127863,"positional":35.080366,"edgePattern":-135.716739,"cornerPattern":662.878263,"stability":13.965033,"stableDiscDifferential":3425.838517,"discDifferential":-579.967179,"discDifferentialRaw":645.114544,"parity":50.653864,"parityGlobal":16.607626,"parityRegion":47.73836}},{"key":"late-b","minEmpties":7,"maxEmpties":12,"weights":{"bias":-3999.164761,"mobility":506.24405,"potentialMobility":-319.476161,"corners":98.03629,"cornerAccess":15.447669,"cornerMoveBalance":7104.794629,"cornerAdjacency":-12.880264,"cornerOrthAdjacency":42.412662,"cornerDiagonalAdjacency":-30.408282,"frontier":455.061453,"positional":5.922032,"edgePattern":-95.564593,"cornerPattern":504.72778,"stability":-34.715014,"stableDiscDifferential":3024.178614,"discDifferential":-150.766709,"discDifferentialRaw":119.948168,"parity":40.003793,"parityGlobal":24.241676,"parityRegion":83.201252}},{"key":"endgame","minEmpties":0,"maxEmpties":6,"weights":{"bias":-3258.142531,"mobility":195.705442,"potentialMobility":-146.372944,"corners":71.703505,"cornerAccess":-92.887277,"cornerMoveBalance":13007.356571,"cornerAdjacency":16.942444,"cornerOrthAdjacency":12.064035,"cornerDiagonalAdjacency":-31.405703,"frontier":220.454457,"positional":0.42053,"edgePattern":-105.94683,"cornerPattern":274.726347,"stability":-207.201367,"stableDiscDifferential":3625.402184,"discDifferential":4495.427394,"discDifferentialRaw":-7652.907556,"parity":-10906.176659,"parityGlobal":2176.323488,"parityRegion":8825.866746}}]};
const GENERATED_MOVE_ORDERING_PROFILE={"version":1,"format":"compact-v1","name":"stage44-candidateH2-edgePattern125-cornerPattern125-11-12","stage":{"number":38,"tag":"stage38","file":"stage-info.json","label":"Stage 38","updatedAt":"2026-03-30T16:54:58+09:00","kind":"move-ordering-profile","status":"active-adopted-candidateH2","adoptedFrom":"tools/evaluator-training/out/stage44_candidateH2_edgePattern125_cornerPattern125_11_12.json"},"trainedBuckets":[{"key":"child-11-12","minEmpties":11,"maxEmpties":12,"weights":{"mobility":0,"corners":6.411028,"cornerAdjacency":-28.093532,"edgePattern":-183.444529,"cornerPattern":461.787356,"discDifferential":0,"parity":2.261603}},{"key":"child-15-16","minEmpties":15,"maxEmpties":16,"weights":{"mobility":30.294982,"corners":-3.826455,"cornerAdjacency":-1.419264,"edgePattern":-28.068467,"cornerPattern":87.712837,"discDifferential":8.814233,"parity":0}},{"key":"child-17-18","minEmpties":17,"maxEmpties":18,"weights":{"mobility":28.839259,"corners":-0.772686,"cornerAdjacency":2.923797,"edgePattern":-46.615311,"cornerPattern":115.962661,"discDifferential":5.858417,"parity":0}}]};
const GENERATED_TUPLE_RESIDUAL_PROFILE={"version":1,"format":"compact-v1","name":"trained-tuple-residual-stage60","stage":{"number":60,"tag":"stage60","file":"stage-info.json","label":"Stage 60","updatedAt":"2026-04-05T18:00:00+09:00","kind":"tuple-residual-profile"},"featureEncoding":"ternary-side-to-move","layoutName":"orthogonal-adjacent-pairs-full-v1","trainedBuckets":[{"key":"midgame-c","minEmpties":20,"maxEmpties":27,"scale":1,"bias":-276.000117,"tupleWeights":[[-23.051692,-74.889219,191.688984,194.595491,135.484282,50.547783,-149.979833,-72.859063,-336.04092],[-23.053355,-594.074194,557.46924,-270.796724,119.01306,191.266656,312.590096,-59.622217,-270.629155],[-56.262612,-31.932204,108.546544,-477.920791,6.472159,-150.225509,499.307877,194.525176,-129.358797],[-76.647589,-161.913069,243.326145,-88.712559,87.550824,123.267483,188.809339,25.295161,-268.563978],[-59.450963,-391.047876,471.335343,-83.461237,-13.517837,143.149896,183.255097,-35.427082,-194.268847],[-43.122918,-336.720862,395.540293,-457.817307,73.279199,80.860364,451.356023,35.110792,-221.421662],[-86.54705,131.553714,23.830844,-154.817793,17.141164,-43.487178,281.402737,-55.040952,-219.101585],[-137.231917,16.482376,174.377456,-356.367709,241.479696,65.874279,365.717194,-38.262992,-285.351729],[-113.14709,-12.520439,-57.607803,-42.765258,23.156884,231.742291,75.468703,-61.381094,-10.703235],[-91.9386,-79.807922,35.173367,-99.011793,-125.775375,181.126309,68.555237,-76.892761,92.194796],[-93.304372,-22.000731,-19.704401,-1.813375,-218.783714,35.716434,-46.989054,22.995344,244.898553],[-109.46376,-116.725945,95.570763,-30.792672,-94.514257,-160.247469,62.352026,155.267928,123.776143],[-136.352148,53.775134,81.60539,-38.746015,67.870294,-96.748066,12.385469,159.138566,-94.720919],[-33.17491,-474.04775,332.672979,160.02322,128.52363,-25.978043,-43.642922,66.69257,-133.543991],[-69.050164,-15.238901,82.501388,-126.103807,-181.200558,-248.96327,112.468235,148.578034,180.935444],[-154.389831,69.840856,-71.766381,-189.087735,44.143719,-79.882166,225.215275,31.13506,17.645236],[-109.309661,-138.740424,68.266159,-44.864764,162.830255,-28.191709,104.047847,66.942002,-180.62058],[-80.455427,31.574494,9.099115,50.511098,99.261976,49.21474,-50.218108,17.386351,-160.099121],[-33.59693,28.294439,-19.170341,-128.534268,136.828907,40.885554,135.936719,40.523382,-213.806641],[-60.852214,-245.246838,312.438065,133.44621,52.948143,41.018965,-179.359494,-17.328986,-43.236954],[-92.362429,-144.501523,203.768328,-124.915046,-74.188323,178.084657,173.227994,-210.72598,36.175521],[-97.228766,-277.20468,370.309752,62.128019,28.220717,-25.054408,-17.029904,-63.433112,-59.955693],[-66.30143,77.071589,-151.548136,-116.843892,-75.378658,-180.035344,181.863462,172.394966,59.285599],[0,27.683059,-14.060204,0,121.206344,-2.745225,0,22.835061,-183.84824],[0,0,0,0,115.798267,48.686051,0,7.156099,-170.802783],[0,0,0,15.294729,138.572742,-26.299301,-48.698939,10.345933,-99.572792],[-76.3508,-106.841234,170.592963,29.007893,-25.254048,172.666865,-55.62026,-184.386243,34.877802],[-92.044328,75.571021,35.065442,-187.948768,-59.650858,-44.205087,302.499509,-48.974074,-11.174882],[-75.310873,-201.5588,290.587352,61.150321,-20.557566,-83.902353,-17.765852,-63.302391,22.358447],[-75.154358,46.229326,-93.882576,-59.050553,4.001901,-239.259437,57.870936,147.863895,93.257014],[0,-8.174737,-62.554604,0,172.098948,2.604789,0,-2.285767,-150.913974],[0,0,0,0,130.805992,24.45951,0,20.535582,-171.647243],[0,0,0,20.234507,112.359261,41.87926,8.914435,54.013107,-219.13955],[12.733259,-160.683112,173.501105,135.446549,-50.76113,153.678095,-160.557035,-167.439641,29.269432],[-103.873286,118.272341,87.308741,-279.528842,-12.106197,-20.959773,371.327505,-94.590468,-75.852687],[-49.711393,-130.319376,150.077823,-165.204249,-51.464032,-224.135587,137.5717,186.593409,66.820934],[-35.148536,195.938743,-243.3462,-343.243184,36.627185,46.411755,244.540288,47.406459,-45.745478],[-84.661309,-155.508211,78.900185,110.023683,125.933765,48.021024,-101.702502,66.847799,-186.141502],[15.237663,71.884627,-125.269915,34.881877,116.695396,-9.498373,-39.352042,30.480924,-140.05653],[11.62314,-54.950033,62.920589,-88.407125,155.800744,45.279609,67.156866,-59.01699,-176.03646],[-21.12148,-111.474017,149.854759,53.757556,5.194357,24.403237,-108.370166,-27.791974,1.432836],[-54.943307,-72.658945,84.311905,-21.039828,-178.255668,191.968553,45.146326,-272.286895,191.211253],[-77.146771,199.131853,-65.586753,-461.590979,37.08457,92.210459,357.99162,115.754531,-122.762189],[-86.869071,-82.420769,-8.064617,68.75932,19.163583,271.680184,3.822715,14.557375,-126.614622],[-119.896912,-6.417743,53.530869,-73.896308,-158.832396,194.28774,105.300744,-72.072292,29.370346],[-105.419141,36.739403,-30.219619,42.731267,-209.404121,-1.716929,8.361823,-20.977076,200.502487],[-84.991063,-124.465129,140.149322,-13.910867,-132.430046,-113.232499,10.615554,158.141555,74.93363],[-99.268632,-107.243482,132.713397,-44.250966,35.909091,-109.53158,39.99756,201.162753,-51.36784],[-51.944748,-354.322025,313.183919,-24.494898,177.84949,29.868216,173.036066,5.637577,-284.487702],[-19.762426,-212.856228,277.520053,111.486548,41.709394,-82.111499,101.243638,-70.245936,-184.967602],[-54.436406,-436.200389,553.57379,-351.408705,50.353028,-24.553691,388.9824,96.742561,-266.165589],[-40.058243,-279.873008,258.065691,-320.49526,46.838401,-149.369744,458.190815,186.104529,-181.784646],[-5.111652,-116.643503,202.878885,-261.668359,105.105157,14.778906,230.639569,92.85045,-249.728665],[-66.310677,-415.828722,500.968573,-76.145161,67.14657,147.962681,96.736169,-169.347178,-69.743151],[-63.206194,-322.240141,331.063218,-540.680954,181.04423,-75.942017,522.469835,264.096821,-206.150091],[-75.096151,207.65831,-141.396854,-85.898377,257.080765,-63.818716,268.965355,-86.810278,-292.169251],[-45.157141,-67.549068,204.256414,203.214214,225.19536,-47.65465,-90.549178,-61.162499,-385.625893],[-25.61995,-517.446992,513.428459,-237.93039,162.481907,192.690301,299.335656,-146.310214,-273.41759],[-33.035728,-42.588526,179.992797,-411.6572,4.353166,-134.739888,538.355117,148.69207,-205.633345],[3.278145,-204.928125,237.333131,-177.442963,113.956218,123.559245,229.652516,-9.925733,-294.993026],[-45.660874,-310.426474,438.445878,-121.976172,18.911381,102.179943,183.903,-95.984746,-165.179963],[-7.414892,-424.529166,438.940284,-486.536559,134.626934,111.980427,462.569861,44.164388,-247.642764],[-51.347617,99.85111,59.451476,-200.979061,21.288525,-25.237574,293.067483,-33.840621,-160.29631],[-92.972057,30.485356,87.453487,-349.634931,175.708345,78.475505,253.728759,35.719328,-198.999976],[-140.961585,-19.097842,-27.734089,7.004321,-16.15412,228.138464,63.090534,-60.661099,1.772123],[-164.859159,-148.354485,170.26936,-4.014155,-142.991954,79.801562,67.375775,-54.244683,97.375111],[-120.333446,12.501659,1.716594,11.607808,-284.033442,51.8895,0.756325,88.754582,192.65752],[-126.795842,-35.28159,82.800776,-52.344492,-168.625357,-57.411012,110.172467,142.276632,66.727699],[-92.248498,25.047996,56.882235,-76.361132,34.029216,-53.015958,-32.723656,296.827829,-108.477076],[-121.372291,-444.166298,441.547085,239.746211,57.502699,8.424894,11.327037,25.202468,-196.279274],[-40.156679,-52.997235,92.181269,-167.483191,-157.434413,-294.967507,86.715613,221.724627,185.368642],[-76.946878,46.789666,-98.406196,-220.328593,61.006421,-15.515618,158.682517,35.525696,-32.31246],[-141.374544,-85.479519,34.35216,22.06057,106.770077,4.042095,67.244695,49.948978,-166.519718],[-119.321741,54.80401,-5.682485,66.676612,111.371118,-14.296017,-81.920342,32.244295,-156.697207],[-72.376898,-17.225758,0.996003,-134.843925,201.142319,32.921841,59.423782,41.498502,-206.624103],[-105.818546,-321.127746,316.74757,154.77777,94.731938,19.095326,-134.02397,-20.46764,-74.250858],[-79.010242,-123.593194,190.482294,-124.085023,-41.991743,179.306364,162.421592,-266.872762,64.481623],[-116.376532,-352.550857,382.755671,28.726613,100.694182,-35.309643,23.262978,-5.145277,-99.564067],[-71.603112,87.278928,-169.052409,-152.453189,-24.659296,-159.17114,224.275531,160.957133,30.870595],[0,-49.132854,45.902184,0,155.395412,2.637544,0,38.641833,-200.973788],[0,0,0,0,151.378029,18.75647,0,4.212146,-165.886922],[0,0,0,11.698354,129.385797,17.400509,-57.308149,-16.989255,-122.174774],[-125.266669,31.56046,68.395252,37.847408,-36.226347,164.208923,-66.521001,-210.959041,56.986021],[-46.744157,-79.581704,15.129862,-223.061432,-0.441508,-17.858401,305.600868,-91.799701,-7.722344],[-115.28991,-233.419678,318.63467,30.315055,-18.400993,-16.822918,27.400179,-11.874619,-11.799733],[-91.13491,-6.39107,-61.885275,-71.573783,-48.572593,-186.575575,120.83197,209.031998,50.648247],[0,51.111897,-73.8391,0,83.066178,38.934087,0,16.970169,-127.119041],[0,0,0,0,113.756743,-14.14758,0,23.666892,-126.983696],[0,0,0,30.76457,134.028413,16.351022,-18.308033,47.006907,-200.638854],[11.047105,-153.25192,127.468842,96.369426,1.637773,136.35246,-160.934094,-192.522736,25.84511],[-77.748627,40.520827,82.505949,-278.947718,66.661214,-41.343096,309.840174,-42.674034,-86.373526],[-66.30394,-90.285282,156.03096,-165.066405,-75.193401,-265.716876,218.757307,164.787295,47.071766],[-82.073179,170.768659,-159.828857,-246.114459,48.046361,-1.209034,315.90152,-6.622537,-76.27615],[21.663736,-178.855813,151.332429,-36.818036,179.399016,15.464804,-18.545514,56.337471,-212.371132],[-15.988226,57.374848,-90.137548,89.822475,136.376528,-16.02285,-39.042234,27.523824,-141.377504],[-69.588379,-8.482631,72.81776,26.512745,109.933338,52.836427,23.058144,-37.401246,-164.149889],[-82.66834,-177.071302,257.339296,83.866163,-8.043757,12.181744,-101.268569,-47.706849,6.639971],[-71.29643,-102.215851,152.866479,-167.494954,-114.675433,271.855033,149.479126,-304.164132,145.145287],[-95.596072,151.15601,-29.099383,-424.039797,58.275477,76.258124,395.145328,31.374263,-175.577306],[-51.440297,-53.387915,-37.511863,-3.145775,-0.8674,300.123492,10.167602,-27.591826,-83.83545],[-112.328427,-27.413983,58.86292,-75.988861,-184.366852,168.13187,127.379695,-76.890593,77.74121],[-117.565402,27.450985,1.384595,32.903831,-245.423634,9.954134,58.08881,-2.937013,193.865879],[-131.595841,6.451392,98.637589,-97.527457,-138.599448,-88.936143,144.298501,100.158109,56.949361],[-105.729689,-44.028611,99.160787,71.736879,-71.108788,-82.224235,-44.366899,251.351264,-63.32933],[-98.54088,-358.692241,435.314693,-75.678525,199.981705,74.011329,133.826405,101.909987,-300.498194],[-17.820612,-148.466608,227.809633,94.862391,49.817023,-65.472439,56.208127,-57.191223,-213.73861],[-26.702833,-477.087523,512.517756,-386.140103,165.706811,21.72166,349.612752,71.529705,-273.478082],[-68.666019,-176.096857,215.500664,-324.899845,38.421524,-110.918928,455.634606,169.593164,-190.84234],[-50.548138,-187.12531,292.88464,-239.492615,139.441262,14.95656,328.189518,22.253013,-300.783388],[-75.46137,-407.354994,533.708939,-88.44161,-17.488557,189.020891,177.847087,-102.001647,-173.844532],[-28.240516,-374.694297,324.648563,-575.335267,158.232716,-36.304295,606.697489,185.592421,-341.364938],[-45.184538,258.688275,-34.967191,-111.257181,180.712187,-152.1726,214.227085,-74.037752,-363.358965]]},{"key":"late-a","minEmpties":13,"maxEmpties":19,"scale":1,"bias":1634.392512,"tupleWeights":[[-118.594106,-29.871544,211.986058,420.257554,38.721802,98.808948,-174.196209,-166.994982,-211.35533],[-94.430719,-493.847477,606.858548,-241.709021,33.707676,91.836368,286.664222,-29.905684,-102.427365],[-63.301734,-98.009616,84.175853,-324.171733,-86.296202,-91.233526,378.215222,236.767333,52.067191],[-118.633159,-51.679647,161.661775,-66.386073,-36.702434,67.433574,124.119306,21.429647,-12.968347],[-125.023874,-208.502008,281.513581,-100.368548,-112.835775,242.251396,163.863933,-49.455406,33.618235],[-81.593712,-242.989169,288.647028,-398.676122,-29.482489,152.731458,478.549528,78.185135,-96.862957],[-115.925108,292.002812,13.275249,-68.894135,-35.199954,-126.114599,208.39009,87.773812,-122.389145],[-114.053041,-41.987823,134.237221,-198.855934,24.850436,-16.65656,229.787765,129.721669,-87.279876],[-169.058245,-13.05458,7.520515,-9.148612,-56.002602,155.183815,8.301398,104.80926,-38.823164],[-112.707682,-123.337414,42.71083,-96.683547,63.526056,-1.744797,45.392237,12.712266,27.513087],[-188.193547,53.814165,-69.081451,21.884786,-37.417902,63.629787,-9.464285,80.997465,3.365857],[-176.307941,-68.528881,88.354136,-41.572975,30.558355,30.533333,24.940443,22.930581,-7.28269],[-168.287686,0.632804,41.470045,-67.008464,-22.569568,137.429938,30.421052,154.113524,-59.097888],[-147.611323,-213.47545,253.95594,92.820526,-42.963786,88.753457,70.451167,-6.085804,-18.166915],[-153.609724,-107.993492,108.80069,-80.946033,-131.194181,-237.168235,166.031973,297.347482,114.406776],[-44.122321,-11.163201,-74.67119,-211.070503,22.953419,28.971139,185.911358,1.427856,14.172226],[-119.560742,-91.830826,73.644586,-58.800207,154.114322,-113.115315,-36.282946,153.868885,-123.858682],[-121.722859,-6.518476,-89.765831,-10.649828,240.795135,29.609137,23.178119,-15.864045,-185.897109],[-50.320078,7.550902,-31.79946,-217.81191,155.301291,161.747929,166.118768,-135.840005,-139.128061],[-95.25718,-258.382228,272.537124,-8.642745,41.533434,-2.575782,-99.750682,83.569227,-26.660664],[-106.614602,-143.474449,92.101591,-124.392845,-21.184432,235.126047,140.47596,-298.924392,139.999003],[-132.264207,-219.266994,217.76537,57.329242,69.012282,-142.803323,-101.223953,129.890323,9.735747],[-100.305299,-36.043664,-114.758606,-48.5227,119.175996,-122.642752,86.085532,167.969658,-62.687439],[0,-8.365484,-34.15754,0,198.969446,61.93808,0,11.817476,-211.983426],[0,0,0,0,129.8933,87.674047,0,-7.169082,-165.808143],[0,0,0,-134.406826,166.340836,-8.673933,-10.982035,88.066019,-165.470998],[-16.476872,-90.881531,-36.098368,-11.943033,144.703212,132.365491,-142.276851,-82.334494,-59.418304],[-107.117432,-3.197591,-44.360939,-137.269114,35.666294,161.543001,203.104138,-221.269379,47.409959],[-154.095515,-177.495513,159.439635,9.848377,9.332902,-195.62628,103.06314,197.170425,34.833008],[-74.272975,28.22486,-88.192876,-3.360268,76.305909,-83.104202,30.439513,149.515114,-103.759215],[0,-17.647191,-10.304752,0,153.736574,79.20739,0,21.270728,-214.1041],[0,0,0,0,159.058258,5.732433,0,70.912493,-209.753461],[0,0,0,-6.733181,211.762214,26.775442,-71.090159,9.354872,-202.254641],[-35.593464,-161.258207,103.688136,18.012796,132.845922,111.704557,-48.702723,-124.529491,-65.276293],[-90.843499,66.201125,28.916748,-212.95856,40.128475,136.339964,188.38144,-180.651377,18.688444],[-173.861354,-132.792078,207.519944,-99.794285,-58.06588,-268.170814,135.698959,285.118127,95.206628],[-95.515332,6.592538,-135.358337,-283.836415,29.945197,96.494396,211.522304,10.297142,11.038475],[-8.26978,-254.395354,128.503004,62.1996,133.013768,-123.503652,-59.318555,196.755998,-148.756229],[10.474138,-27.19532,10.740415,-46.513117,184.817351,52.382034,-4.74598,17.829004,-197.555042],[-81.44703,-31.822485,26.861708,-161.110923,97.925651,158.298373,119.935169,-58.496687,-136.584024],[-80.975712,-177.679267,181.049601,-31.256418,32.062385,25.251679,-36.929654,8.531033,-0.215292],[-139.371881,-84.440716,163.599943,-94.687572,-136.100299,298.667882,140.058148,-301.646706,152.919638],[-127.695615,141.195044,66.044918,-289.119374,-54.671428,-50.029958,243.357109,140.433062,-24.722516],[-140.298263,-131.149498,31.091496,38.772459,26.384481,154.925897,42.879749,126.593079,-83.104536],[-119.876858,-41.473404,35.959288,-2.828181,7.841994,-0.894078,23.440245,32.145371,13.970892],[-147.257615,29.565896,2.707001,37.319988,-13.84432,5.490773,-17.18469,47.630955,3.929969],[-148.135189,15.390969,26.523903,-71.787589,13.631111,89.577165,28.490171,-24.181563,9.984086],[-134.025966,-28.240794,27.581354,-75.467513,-2.411168,85.383921,13.120266,127.089955,-19.294311],[-172.675769,-216.132872,287.662869,-4.186274,58.002845,68.357934,130.039631,8.197287,-88.471215],[-126.157249,-62.380262,225.611592,295.834702,9.976833,68.551601,11.463861,-202.508812,-110.729174],[-119.044434,-440.966197,545.211043,-294.000033,28.024066,6.110314,319.698591,132.770246,-101.852697],[-145.340681,-118.43883,143.931585,-209.734614,-74.51541,-79.095096,345.222061,145.130049,60.87446],[-83.97726,-59.286916,129.260219,-153.801625,-12.540274,38.138107,124.047024,102.606406,2.230405],[-121.623836,-308.502107,339.62996,-60.24396,-89.833601,235.900596,136.979108,-104.696675,54.865542],[-82.986511,-253.823709,315.750388,-531.855059,57.019902,6.886349,589.543816,128.583603,-133.081323],[-132.581954,393.610821,-133.561285,-2.095398,88.229477,-240.399882,260.703852,145.906914,-296.607072],[-144.290313,12.862812,210.504237,387.271136,34.449115,146.934812,-145.655475,-200.670921,-221.029703],[-100.735746,-510.524778,585.586848,-285.133632,70.353888,104.480022,300.322268,84.226113,-129.374591],[-138.297334,-55.18915,96.838267,-301.142337,-47.113742,-99.847217,384.581814,178.549234,37.470308],[-136.348374,-126.313032,216.647589,-93.85062,-39.719154,173.26825,117.667233,-9.131555,-13.42251],[-120.158389,-265.872509,303.34155,-206.301032,-64.698966,189.468042,285.195024,-80.536593,42.837584],[-44.341228,-311.113596,317.529221,-453.62395,0.993916,113.648419,520.053095,-49.561973,-69.294384],[-86.761201,327.03265,-62.684675,-155.135847,8.702248,-185.525147,240.092995,24.838221,-53.89496],[-109.848872,-3.40548,159.813063,-197.053006,38.982717,-67.759691,226.808021,63.11656,-81.87863],[-66.755117,-50.149163,-15.870764,-86.601196,-31.053902,186.59273,31.928871,78.852466,-43.018391],[-158.88138,-23.441795,27.425704,-84.96671,-5.490513,35.592168,-13.74912,23.88651,54.529952],[-134.854351,-28.723544,-76.110069,68.726914,-21.979486,-12.837377,-39.533843,58.244928,60.396432],[-195.271384,-10.844527,92.193542,-79.19965,17.187667,39.610795,13.208926,-11.522056,10.205982],[-155.666179,-2.355235,-17.402898,-111.727613,15.011345,124.504968,24.064012,194.150695,-51.789192],[-147.99725,-236.970977,215.836129,127.957741,-20.179036,102.934977,50.021239,-45.392408,-12.35545],[-90.537879,-137.428165,127.463652,-140.85344,-74.787646,-325.250768,65.744582,314.994945,178.137875],[-86.412695,35.607136,-144.566238,-172.256642,12.518208,73.013444,196.024699,-10.5187,11.418171],[3.864552,-107.465066,55.021905,-22.25619,122.496959,-93.17525,-8.698514,164.829929,-144.606903],[-23.69327,-28.721878,-8.656044,59.456137,222.366498,-3.520792,-102.006203,20.25289,-195.924949],[-73.239224,9.372971,-11.652887,-202.627352,150.746568,169.369051,76.670405,-124.353598,-135.179159],[-87.979072,-223.795549,141.995289,53.172548,29.740226,-17.245668,-92.289585,62.201819,1.992617],[-122.298252,-86.782639,168.385534,-182.65133,-28.219769,277.703973,133.436904,-265.050641,88.209864],[-164.622842,-168.809801,236.440301,16.080758,70.965456,-173.566632,41.46228,94.266794,-11.521645],[-118.241208,36.125825,-137.70019,-153.155836,109.69091,-47.706885,95.453237,160.892662,-99.204217],[0,-15.116657,-108.154277,0,211.438823,62.297324,0,5.836195,-200.177774],[0,0,0,0,167.191063,46.783252,0,6.829008,-184.017829],[0,0,0,-33.640594,201.638394,-21.256644,17.803508,20.060405,-164.807699],[-41.59266,-52.635003,78.808756,0.381967,110.281574,129.959268,-68.007582,-105.399156,-79.335713],[-92.29923,37.186371,-3.318058,-104.839722,25.120633,93.423659,134.668197,-193.961257,74.005761],[-129.345378,-128.010375,135.831845,30.382702,41.306845,-163.965939,7.92673,135.373223,36.380997],[35.085544,-35.755779,-114.174103,-81.407786,142.889943,-75.137402,16.057391,105.453278,-87.417318],[0,-80.70368,53.286244,0,165.391829,68.695173,0,-23.675524,-165.51036],[0,0,0,0,185.092555,-71.858335,0,55.700685,-137.14634],[0,0,0,-16.923861,172.795618,63.60995,-30.419376,23.783139,-221.314875],[-41.055568,-106.083767,79.430951,-7.461141,103.443752,105.476075,-65.864086,-45.315594,-95.704323],[-125.589436,25.603809,64.588448,-220.597578,117.282264,127.876164,189.274197,-204.372274,-11.511796],[-147.227756,-135.289182,168.898935,-130.408305,-31.79489,-267.208734,174.751949,255.699532,92.278406],[-111.204694,-18.465888,-58.768215,-236.673838,33.824708,73.604886,266.584458,-4.373129,-39.50206],[-34.97992,-188.480699,135.763107,-64.019493,166.259777,-132.709621,-53.993781,147.489389,-117.16684],[-2.261345,-69.393452,-69.647424,-31.962066,218.331449,34.570324,-51.620023,43.120463,-188.102499],[10.662933,-66.304932,-16.804872,-195.383029,164.763683,156.561122,123.181443,-109.731923,-123.161557],[-77.960526,-212.865762,214.349114,-24.367532,30.649311,10.495891,-82.851011,43.448351,6.474393],[-95.279667,-110.558757,78.399379,-124.922702,-129.215637,333.799195,128.655455,-268.464243,140.276729],[-134.94579,98.76804,82.800142,-211.451161,-32.821734,-49.645989,245.626518,68.995318,-8.628088],[-150.471541,-43.605836,-10.028884,-13.566392,-9.065971,149.902199,29.991215,97.598204,-25.910352],[-142.728971,-35.712636,-13.726473,-32.985986,44.638239,-3.727125,-24.834407,21.611238,53.518013],[-131.584174,-55.556139,-11.203277,27.593358,16.023048,22.11287,28.740288,-17.743888,40.206472],[-112.525688,-64.610262,105.847255,-77.368292,1.842663,13.484325,50.385484,8.102077,19.248543],[-99.943027,-108.66739,90.811419,-69.770283,-46.228195,101.093398,-19.151916,210.061641,-49.850732],[-142.330932,-199.354599,240.198323,20.576936,39.821178,43.520701,123.061067,-20.249502,-60.03002],[-127.206127,-62.573912,206.722637,260.129462,-22.531361,91.446112,-11.04238,-115.4901,-104.037397],[-67.203992,-473.184269,500.506794,-282.423765,71.953628,0.31552,318.278203,50.762373,-64.173326],[-96.868965,-122.209655,166.876943,-217.142777,-116.725606,-80.485226,308.700993,157.794994,52.590158],[-93.673101,-74.019155,162.041756,-68.68417,-74.77201,-15.36672,93.479512,153.364203,18.048261],[-69.577458,-420.0355,425.653272,-56.54892,-71.832517,124.070184,92.370464,-56.907096,81.755496],[-99.538102,-235.849694,324.819007,-580.840842,83.452772,-2.961224,606.104026,81.311208,-122.786156],[-125.874714,421.488388,-236.338431,16.257359,80.134499,-196.602641,227.810702,119.329089,-208.979303]]},{"key":"late-b","minEmpties":7,"maxEmpties":12,"scale":1,"bias":974.300577,"tupleWeights":[[-29.977774,-12.149482,195.257679,444.20665,-56.794545,217.458787,-114.20917,-282.794119,-209.630712],[-21.337435,-495.088537,693.919522,-232.152482,-97.464324,35.342782,263.35146,28.339585,-99.732351],[-39.795005,-36.917545,73.263542,-232.583762,-232.435621,-29.544994,291.063421,161.258267,127.781594],[0.444589,-51.638411,90.804568,-52.386912,-191.394154,98.970709,50.804121,51.56022,107.737863],[-57.577438,-214.588274,269.728639,-104.444578,-223.542058,149.469099,209.162999,3.711179,79.29098],[-61.35917,-136.211356,282.103037,-420.334919,-119.675235,94.024642,511.212196,41.511663,-63.23092],[-131.707447,370.99567,-49.559085,73.457715,-159.10432,-151.104068,224.230573,102.558295,-130.366846],[-117.68082,-0.734261,194.100682,88.795368,-136.657046,-142.744905,128.735021,89.013629,-24.612683],[19.509353,-37.690382,88.903853,-38.10258,-67.27521,29.765616,67.595387,145.967939,-83.083016],[-152.614822,9.506695,71.47163,-24.985575,82.242282,-63.702056,96.89602,103.430512,-104.183156],[-55.605702,15.127181,0.470017,-39.332977,141.740712,21.505112,-10.333673,17.296431,-130.422912],[-28.933877,-85.675959,30.175485,-20.549,59.652658,157.530836,31.622469,-86.723894,-83.424785],[-123.255617,23.987385,75.087371,-37.658763,-86.006767,88.270035,155.353732,-9.146252,-62.337845],[-93.486646,93.238638,131.355597,64.063184,-171.041657,39.107299,186.01359,-234.266883,43.521561],[-101.031113,-46.34844,145.104313,12.189779,-126.571063,-358.315573,128.399026,222.112189,137.499094],[-64.360054,-35.096572,71.40444,-137.481595,37.570733,5.505715,104.122422,-8.873746,-40.767233],[32.75762,-190.118518,109.778775,-68.4741,137.140311,-122.48344,30.158636,204.867135,-166.909813],[15.128409,-34.531059,4.318054,-16.027067,270.940788,21.962394,27.999699,-5.177742,-232.396563],[-59.002684,39.957588,-0.405614,-176.790173,65.81408,239.414687,196.21208,-100.409847,-191.560362],[-17.394754,-227.895012,201.156047,-135.635498,16.580551,14.253587,111.760832,59.056729,-94.322676],[-44.786976,-18.733294,80.842447,-90.969452,-115.357622,270.008917,172.290523,-321.520251,94.288743],[13.406516,-85.29083,144.024305,61.68071,-21.592266,-326.678943,-10.862229,265.167042,6.404451],[-0.95375,-14.471697,71.609801,-36.553589,202.636522,-67.935163,53.249714,94.704667,-237.664445],[0,-32.624705,33.756675,0,254.782785,33.783659,0,-26.869319,-240.417555],[0,0,0,0,176.36014,55.057323,0,3.212619,-211.959262],[0,0,0,-45.491474,251.64025,-57.595898,14.88464,32.601166,-186.420849],[14.976625,-65.90946,24.221556,-77.805935,251.747374,63.050599,97.737465,-70.586947,-217.057831],[-38.842705,84.749046,-6.822351,-20.42082,-36.348039,274.032849,61.969296,-324.350913,42.547712],[-79.275132,-24.53259,131.235061,89.455396,-29.671483,-361.859783,-21.866082,219.880297,88.183577],[-21.071801,-95.713502,71.205247,14.036356,181.105898,-64.295293,25.278176,112.615792,-209.654432],[0,-25.527773,51.227342,0,183.752907,74.414342,0,-14.651714,-215.856233],[0,0,0,0,194.778072,-28.896984,0,37.015062,-172.386463],[0,0,0,-42.39124,258.310385,-15.894787,39.2308,24.021194,-225.789907],[-18.696564,-42.568175,44.973556,-95.969502,183.725259,131.032408,40.090849,-36.252206,-221.597071],[-47.17211,85.895163,-100.539064,-119.124374,12.587511,249.845927,157.73672,-337.789172,42.647015],[-66.802841,-112.767657,220.791365,28.102366,-77.417647,-340.401395,13.759838,227.615673,89.490941],[-29.612952,-81.927656,66.724711,-173.602268,-18.801359,83.525217,171.509566,1.987474,-49.170577],[16.42045,-195.306822,162.795397,-15.131586,134.187447,-192.607037,27.314842,223.510642,-145.32131],[-35.254442,-0.963632,31.738832,-67.696529,318.658881,1.646472,68.538275,-48.229754,-247.375454],[-13.772722,-54.303696,54.79457,-198.005319,141.896639,180.914817,123.76536,-122.544661,-168.9101],[-64.737866,-148.148563,118.275943,-72.838584,29.099721,10.375354,106.722061,-13.373898,-32.80779],[0.567734,-40.587641,78.188543,-73.126476,-134.017622,217.076649,157.547611,-355.018781,151.132699],[-105.94964,78.252116,173.09246,29.524224,-147.614295,-92.457399,220.933632,27.988753,-56.021888],[-93.025741,-87.483178,186.658741,40.986365,-46.091701,-38.813687,22.11393,156.501272,-86.83973],[-73.585053,-22.946907,30.56507,5.032311,64.85088,-65.351409,60.94805,90.812233,-79.702054],[-10.673603,8.182984,11.427232,23.005251,113.981277,-11.436688,37.444759,21.858492,-129.150595],[-49.157612,46.196263,48.610787,-80.2728,42.039896,159.285357,92.351841,-76.007298,-114.635809],[-161.55081,10.713016,72.136675,-75.879869,-49.668321,131.573152,174.852889,-24.533769,-86.076576],[-112.270492,19.601305,176.52617,51.158193,-109.540465,19.654131,243.925201,-86.9986,-104.739142],[-80.244136,13.659846,181.332258,383.45869,-167.343163,167.289046,-41.165893,-167.899623,-120.536377],[-78.409748,-354.311325,544.103889,-157.929457,-162.716975,14.289043,277.490812,103.415488,-71.425049],[-42.347385,-123.203784,213.421329,-177.666337,-201.356439,-59.55388,204.5423,130.909204,127.164144],[-49.232937,-106.095756,121.894277,-23.177318,-195.403835,2.910981,107.928603,54.66819,138.202109],[-59.347351,-198.967225,286.03399,-75.412842,-227.048254,91.705113,182.576828,-62.375423,132.618848],[-17.515826,-136.699496,222.058275,-464.042005,-75.348054,-2.028134,619.35938,0.744963,-59.719593],[-115.298199,495.794965,-114.683635,60.753678,-70.074226,-253.914229,205.674661,135.480537,-198.805086],[-70.561178,29.792908,196.808269,443.982135,-72.604379,241.154277,-178.843899,-258.210171,-188.834664],[-25.13616,-447.41873,553.140323,-170.064381,-117.414483,66.387862,261.030881,23.537387,-37.286266],[-7.408216,-82.761231,139.742421,-188.140256,-248.441638,-47.411123,293.10515,121.180483,122.554241],[44.364442,-42.130868,96.331093,-43.482763,-249.035856,107.74156,75.77245,24.519795,122.415512],[28.755834,-152.689671,200.322049,-126.575389,-225.803896,75.282369,179.634781,8.887889,118.611702],[-10.523821,-119.131949,223.547073,-378.3603,-117.60923,103.15781,514.009723,10.028574,-86.349317],[-66.797194,402.063117,-53.581176,32.623981,-144.225627,-138.576412,162.706538,121.459903,-134.139208],[-107.723756,15.374005,268.153792,107.325031,-146.413461,-196.056286,116.624606,84.209733,-46.510902],[-56.590505,-62.317646,129.180187,-9.445224,-34.980998,-47.216355,85.90898,113.499476,-71.962698],[-39.209136,20.819451,26.282045,24.394456,55.493217,-75.934255,60.882032,87.957866,-102.157838],[-27.134283,-9.199831,83.790401,38.76989,108.030408,-11.102732,-37.666341,10.02701,-118.296507],[-49.374779,-79.280227,94.661917,-59.898565,94.740726,67.683475,60.490778,-89.128451,-65.5629],[-79.241225,29.833019,21.15932,-74.607328,-76.011975,172.631396,164.049069,-2.773298,-103.676734],[-83.744188,28.56716,173.597409,48.721088,-149.790847,58.536472,169.937988,-170.355998,-3.733182],[-51.873727,-97.704371,143.956437,-18.058979,-106.6023,-371.711758,93.030476,262.274971,153.552954],[-10.515642,6.801513,-2.063975,-174.47261,7.507516,60.738491,98.533326,14.347554,-44.486312],[29.713545,-160.541394,65.546494,-9.716888,130.90524,-132.145926,8.728978,189.283837,-159.301812],[3.041688,-20.455811,27.159544,-11.940696,266.249726,23.252357,53.004528,-11.329954,-249.26276],[15.630789,-10.818519,40.744783,-177.08247,76.739422,243.729826,147.733941,-130.521601,-161.148169],[21.842066,-187.507091,127.902244,-60.084649,-10.40667,-3.168036,9.231921,86.547656,-34.773015],[-78.495053,-40.78979,90.550872,-94.891633,-102.572303,248.797132,181.997391,-278.670747,81.109127],[-42.101638,-107.973529,163.169596,60.027538,46.122134,-321.435376,-28.482173,249.779565,-3.439516],[-82.727821,-76.288077,79.358819,-36.873478,216.972902,-39.573362,58.323776,110.856884,-247.973176],[0,-41.933683,13.213209,0,263.001967,37.313173,0,-38.001138,-241.937038],[0,0,0,0,165.219292,65.42624,0,-5.172037,-200.78456],[0,0,0,-23.354067,224.210883,-62.264395,42.093485,77.35136,-213.726088],[40.138033,-53.983872,57.225867,-46.888326,214.085095,114.196443,42.67317,-75.587033,-219.859909],[-32.328817,86.063657,-30.125523,-128.609025,34.711102,217.82489,122.875525,-360.947178,76.607218],[-9.327278,-82.303849,86.661807,21.901903,22.913766,-336.978969,-103.229891,269.302148,54.675566],[-13.60504,-87.233859,22.75033,-38.579024,206.963933,-23.775324,79.019371,95.973412,-225.799818],[0,6.485792,14.383626,0,202.411485,54.785804,0,-23.040333,-207.067693],[0,0,0,0,214.303392,-32.53756,0,19.552712,-173.382659],[0,0,0,-55.115713,243.472306,1.675453,52.48019,42.39951,-246.804379],[-17.227261,-25.443796,27.534995,-3.529608,212.457751,79.524155,59.565314,-60.836161,-224.154854],[-21.272772,92.815675,-4.935354,-125.056337,-4.223434,279.423761,161.794891,-340.959312,15.50771],[-16.625988,-94.177472,158.284917,-5.615649,-109.547577,-314.930807,19.525075,200.053408,145.39315],[-14.163987,-77.120278,84.56019,-173.823247,2.618809,11.884378,178.252286,11.181444,-26.398679],[-47.33456,-156.657557,149.0985,-11.031329,136.115297,-155.563744,-9.805194,191.708266,-147.412318],[-3.092295,-28.820407,0.909064,-2.041798,271.002036,10.199252,-0.618056,8.478156,-241.406556],[-3.658678,-6.78899,13.058841,-224.748957,150.300424,180.649305,148.891474,-134.185359,-156.448924],[-83.418388,-142.811164,120.988709,-41.657952,8.173105,26.829744,48.286825,43.209801,-55.073284],[-48.099162,-102.229472,123.833738,-115.045883,-102.918165,245.849398,195.62672,-350.296851,127.746521],[-108.95083,18.332933,134.886495,107.816767,-189.141934,-100.003168,137.580178,124.553785,-13.880594],[-48.215444,-30.162985,117.889795,-52.732528,-72.577114,10.759914,104.07573,154.100692,-99.520879],[-54.823171,-97.358414,103.896699,-49.130201,101.961216,-82.146155,127.607407,118.579365,-138.142387],[-75.810966,57.937328,16.707276,22.160756,121.879302,19.874858,-30.718615,-46.173078,-109.84966],[-36.512066,-10.473509,-21.831302,-88.807484,75.81964,108.003375,126.970043,-118.666783,-61.076033],[-102.459127,17.564955,89.654177,-97.94055,-45.358581,107.890451,153.592265,-25.803596,-71.214184],[-119.641653,42.354188,161.050674,-0.794447,-91.703566,47.428784,241.527219,-137.143529,-55.379868],[-78.869704,16.314379,217.456383,395.0461,-179.27644,113.649093,-28.897147,-208.216191,-114.463578],[0.49708,-380.855798,526.83272,-179.204001,-159.583645,-3.093231,255.990749,81.391732,-35.285631],[-29.040387,-157.311721,214.57459,-164.795754,-223.148297,-69.733775,186.756934,141.4283,144.951818],[-9.822425,-38.482039,58.495464,-66.661603,-239.067621,65.751448,97.551613,92.315198,133.306297],[-73.51977,-198.721886,277.933468,-86.29517,-245.813927,146.183703,240.446763,-97.791282,107.4626],[-13.895663,-118.977775,236.467778,-433.223078,-118.925287,-46.393905,637.621471,34.149238,-100.37643],[-77.809368,477.410727,-75.06674,85.471914,-83.068948,-245.534402,155.390043,176.915648,-231.914152]]},{"key":"endgame","minEmpties":0,"maxEmpties":6,"scale":1,"bias":56.296478,"tupleWeights":[[112.474127,37.951573,157.315218,524.37113,-244.138796,205.063739,81.685476,-24.536806,-265.573681],[132.12327,-233.537627,726.476228,15.444497,-253.633073,109.64476,357.074336,-8.079966,-153.607868],[198.528109,-83.56655,414.213805,-65.662033,-281.397943,-52.283546,347.746079,139.496675,12.12882],[133.711208,-9.041307,335.998571,-71.880234,-277.542731,128.106946,332.620179,29.185087,14.928662],[115.517277,-65.860491,341.031784,-110.086467,-289.804051,142.093482,411.22111,11.69658,12.842859],[109.76107,17.917504,317.028576,-176.664948,-221.581514,-74.134689,692.6682,37.757803,-123.997447],[142.669626,503.342372,93.874838,49.102583,-250.369509,-39.705576,67.598212,127.783125,-184.00999],[150.585236,-13.58303,486.88695,447.790674,-219.974964,-104.596254,38.700071,82.170353,-159.3294],[27.664159,-179.907458,606.653872,70.748988,-85.005797,-132.970282,166.091964,68.505913,-62.882935],[114.620075,-129.330587,297.497342,41.41958,26.976527,-165.471297,173.147274,6.105224,6.802743],[28.99816,-5.310257,245.066056,-25.779259,61.949131,-62.984111,274.615502,-32.083727,-82.887443],[132.615589,38.810267,186.965741,-106.189446,39.130228,30.574056,310.857492,-160.395933,-36.555504],[129.798662,76.175856,132.185517,-221.601441,-76.412174,110.946695,598.025492,-155.281099,-89.658898],[68.323031,457.658515,85.363481,113.470001,-303.330213,98.609509,370.373154,-87.667712,-128.975984],[89.985735,-223.259696,516.33015,186.348696,-83.927348,-287.729387,6.781398,132.219466,31.556164],[26.927687,-138.795533,308.437965,-21.714438,-4.938596,-50.743665,174.126093,-65.695509,39.782029],[0,-199.204138,316.07866,35.57383,99.478883,-199.352446,74.00864,148.739387,-70.469102],[0,-16.708673,114.926903,-0.734612,238.501864,-16.55528,116.922712,-15.37709,-221.809849],[55.94304,31.152767,83.695734,-179.478711,108.144174,134.095328,353.875842,-272.28133,-28.486416],[48.930705,-28.937848,235.578513,-131.061628,-16.760115,-121.939394,318.843949,-46.925295,59.466519],[57.945189,241.064833,3.764487,-178.589161,-114.074408,138.575602,542.634961,-352.327754,55.948578],[31.141061,-221.908979,491.735783,184.4505,-9.732464,-324.2775,9.356181,168.748831,-1.663034],[-2.650877,-76.565897,242.464545,47.769979,237.165685,-160.790418,44.243898,25.584514,-139.244236],[0,-33.686673,109.664297,0,295.098374,-48.924063,0,63.129518,-300.864855],[0,0,0,0,319.862001,27.593797,0,40.424803,-363.466834],[0,0,0,-21.535986,301.741031,45.203578,120.612187,-75.965404,-265.166891],[17.522937,7.45014,93.788992,-113.836107,196.078155,58.99094,301.909982,-155.973852,-142.475103],[75.309516,162.990959,42.56811,-218.836881,-56.622604,167.398896,439.662639,-324.251664,27.64637],[67.525941,-170.433272,434.574602,147.699385,-70.35052,-347.544441,58.387023,164.58201,72.194596],[3.527596,-55.904939,265.716924,23.71324,165.005525,-134.046569,79.436381,77.192002,-150.590649],[0,-23.20566,133.082146,0,263.375304,-39.135671,0,71.108794,-286.961163],[0,0,0,0,341.967043,-30.91675,0,27.45207,-339.510366],[0,0,0,-53.720591,294.995538,94.594033,159.63662,-65.78498,-317.410738],[-3.857737,32.836597,69.576883,-92.530333,221.826893,33.471981,325.418427,-200.993425,-113.545078],[95.4598,247.538688,-4.253675,-156.695179,-74.95028,150.832598,500.308539,-320.786673,26.073073],[59.193136,-252.937785,535.350455,179.769019,-133.759471,-332.913906,56.57457,166.60489,42.880432],[62.781511,-86.081239,280.981895,-92.636394,-17.308075,-46.5675,231.381396,-117.312366,81.463937],[31.911882,-189.929381,318.459123,-53.90715,99.000849,-244.963774,99.69022,169.055648,-50.813834],[0,-94.083587,144.425001,-44.012879,271.487437,-31.336729,139.243727,-61.305608,-191.112938],[64.723002,-8.142132,98.531932,-104.476086,74.384992,139.630714,316.376592,-225.880157,-35.01715],[73.775715,0.199756,214.421672,-138.961697,-34.421215,-94.153777,354.866095,-46.038619,66.336899],[95.811264,171.475686,73.37421,-223.516325,-117.614733,140.949796,514.536789,-282.641762,32.404698],[70.887646,37.849631,467.343631,434.318224,-283.153341,-114.316061,119.931631,61.778732,-136.769655],[71.799465,-179.707379,603.167039,46.400591,-122.621683,-155.993291,174.977841,132.475904,-97.670888],[75.235767,-144.390507,328.402197,45.946323,43.125516,-200.289885,199.057681,-12.757776,-23.993927],[50.346546,21.510145,225.451063,-26.609749,38.667122,-19.264647,187.01816,-47.691166,-78.721313],[60.075739,52.769642,105.299188,-130.635291,29.599013,21.129065,357.000978,-159.809274,-24.718372],[128.056005,44.891895,170.607655,-149.704097,-104.256539,101.954352,579.751569,-117.90705,-89.574047],[105.648193,399.700641,156.146457,8.143842,-222.526437,47.742042,489.910932,-88.045155,-163.396114],[126.72126,66.278686,98.468655,465.155884,-266.296454,185.709189,97.63838,-46.482423,-193.315249],[94.534104,-170.069293,654.945985,-31.651908,-217.945268,37.618745,330.808724,-3.089947,-114.93155],[107.966472,-60.951171,347.473351,5.883485,-253.690886,-50.817731,269.675396,150.063229,35.550402],[113.898322,-33.283574,326.850022,-21.825753,-256.999796,100.347135,331.950511,80.229399,1.528672],[77.469114,-0.692414,321.361271,-85.225777,-278.723519,198.646955,389.476827,-4.717496,8.82072],[130.996382,-41.471119,309.638353,-185.601932,-222.600505,22.73871,710.886048,152.345406,-164.989484],[108.139441,536.864849,94.949222,40.118044,-210.040671,-19.146533,107.434793,178.361537,-232.911436],[109.85477,73.58006,131.924336,496.875923,-210.749984,201.291398,127.662374,-37.808176,-287.765139],[99.667179,-181.820832,692.669087,2.805108,-208.759509,115.073367,333.562978,29.391104,-196.622585],[117.640487,-41.523621,368.254792,-53.957713,-231.778217,-10.231851,326.694732,62.865995,3.338847],[124.322125,-19.707822,307.444452,-4.21664,-277.351991,133.747872,288.862732,-8.793662,38.999835],[133.608003,-45.845694,302.160807,-137.234405,-302.647452,146.39298,433.04195,15.679853,28.756416],[124.182837,29.601853,299.54573,-199.071856,-253.225192,-12.727142,671.246594,59.250391,-137.535925],[110.322539,542.90188,62.270339,50.074874,-253.80909,-16.11131,141.772142,117.046451,-202.279711],[84.857671,-5.702636,519.635668,401.38522,-230.438414,-144.525181,133.842635,67.742903,-153.160384],[110.576747,-198.343174,591.625425,58.045414,-85.003881,-135.258613,102.869002,123.201716,-100.454984],[89.250013,-128.560675,279.55245,-7.831028,64.92165,-166.32015,161.869447,29.851807,-45.992017],[59.787834,7.213209,161.125818,22.673303,66.267519,-20.606788,190.23396,-68.500322,-83.384108],[89.653613,17.728697,181.31692,-158.737326,14.035202,54.418161,339.546032,-116.66615,-72.746854],[99.279696,80.703458,131.690803,-246.028634,-118.601382,169.364664,652.222083,-161.552535,-112.55292],[140.69651,416.207668,92.991646,5.503132,-274.679708,89.809181,441.253538,-122.34625,-108.134586],[88.259119,-196.88139,533.375334,154.035276,-140.969318,-315.667868,70.00026,137.920084,82.00224],[41.147556,-112.530446,312.572721,-46.5954,-10.720511,-81.493763,194.928356,-64.085513,83.689598],[0,-164.995598,288.470854,10.553878,116.522099,-217.314601,70.0998,145.019704,-74.340198],[0,3.252599,82.75833,-46.234343,262.75795,-2.236952,154.016342,-41.504347,-212.95418],[42.324645,18.67758,81.063674,-203.479178,67.418833,178.584723,331.637938,-219.940464,-55.884238],[58.65428,-108.470558,238.783994,-125.974004,-28.085516,-101.849866,333.19497,-47.769848,75.713395],[66.817796,191.331345,57.458864,-242.860676,-102.478311,138.873233,495.978848,-322.974556,73.390022],[75.719213,-209.449723,510.909389,179.395146,-21.609165,-347.108719,73.723281,99.092249,33.015399],[64.67688,-88.256207,324.97905,20.828151,223.015827,-208.340069,71.008573,30.360841,-86.2236],[0,-26.886603,137.728609,0,271.560105,-52.056944,0,81.142963,-303.528314],[0,0,0,0,328.821455,29.039682,0,4.921673,-351.177703],[0,0,0,-100.847672,267.768039,71.209583,150.733677,-27.585432,-306.789929],[37.393372,-47.612843,91.723863,-107.99321,189.990454,76.529462,336.143239,-144.108419,-175.032805],[29.52293,198.093812,82.247429,-204.637505,-54.164708,166.8539,473.161384,-306.775578,0.80369],[96.68651,-199.528789,439.669981,192.886512,-66.86982,-336.041663,42.949317,166.118781,34.05602],[16.024103,-119.783887,349.434665,51.646585,198.728108,-151.285473,71.335269,53.530852,-149.392204],[0,4.795498,113.890576,0,280.821222,-48.303013,0,68.782536,-290.779933],[0,0,0,0,359.673369,-4.443999,0,32.684331,-356.684476],[0,0,0,-63.819472,273.945752,99.380983,159.417437,-64.13743,-312.918337],[-6.58869,-13.95267,117.653871,-98.696264,198.701706,36.841567,261.600423,-163.880535,-107.457052],[76.217986,178.117919,-6.716298,-173.966044,-52.532222,166.92736,455.240888,-293.230725,25.021021],[69.888107,-263.850017,530.595056,192.353852,-124.216557,-329.212915,68.938653,152.404459,65.641367],[68.24733,-125.106061,343.124055,-68.575987,-14.561251,-54.458625,267.350402,-102.005534,70.742819],[47.265102,-184.593263,351.709473,14.02432,98.702566,-262.127515,74.909747,147.086439,-35.871681],[0,-13.82455,108.277561,6.907366,254.824966,-35.900539,95.086317,-21.456191,-206.344478],[12.482706,27.818058,69.780611,-130.221932,68.321298,170.137909,338.014935,-235.160541,-58.074124],[73.083056,-30.693946,238.346899,-115.405194,-29.899801,-89.07538,342.269739,-49.856112,69.100418],[64.91299,178.707507,100.553521,-247.253352,-103.278912,140.989863,496.742409,-306.005344,62.992937],[124.856563,84.579775,438.698704,437.071511,-297.890427,-99.430428,69.298877,115.23987,-151.311159],[120.407594,-142.412953,533.916535,47.555232,-66.884776,-158.436965,134.930006,88.702493,-92.098487],[38.52087,-96.944841,312.643202,14.005756,44.951974,-144.438774,187.782958,8.962542,-41.985926],[8.703402,-29.78096,237.211591,-1.625434,59.261427,-50.213579,232.263524,-59.812709,-67.307424],[84.564221,31.868024,204.430086,-100.901468,12.705084,11.666738,323.426363,-139.203827,-49.545128],[140.372427,71.001895,143.614333,-159.445858,-114.412661,102.741438,592.711947,-147.145481,-81.906946],[119.936532,414.477786,131.230486,11.413463,-239.384266,73.613941,501.89939,-99.431252,-159.273774],[59.738461,80.212312,109.272135,555.951907,-282.62508,144.431231,69.277293,4.396966,-193.041477],[124.692837,-196.752779,660.227061,47.398229,-239.899612,61.696834,351.465877,1.00038,-143.634332],[136.447512,-106.270545,480.832386,-23.343968,-273.081368,-54.123682,274.91059,99.083036,37.803401],[107.3002,-2.667975,271.879227,52.856981,-296.356276,27.507963,327.940564,111.797523,40.294843],[114.028087,12.253465,347.607461,-64.573519,-271.960919,70.544154,404.624476,-28.911155,6.55038],[119.461881,-15.300346,359.247632,-198.629524,-190.894241,-10.650095,690.435384,96.315468,-186.306724],[105.186325,515.755949,100.548398,64.402362,-196.323048,-22.367394,90.305595,161.26134,-234.59497]]}]};
const GENERATED_MPC_PROFILE=null;
export{GENERATED_EVALUATION_PROFILE,GENERATED_MOVE_ORDERING_PROFILE,GENERATED_TUPLE_RESIDUAL_PROFILE,GENERATED_MPC_PROFILE};
export default GENERATED_EVALUATION_PROFILE;
