const GENERATED_EVALUATION_PROFILE={"version":1,"format":"compact-v1","name":"trained-phase-linear-stage60","stage":{"number":60,"tag":"stage60","file":"stage-info.json","label":"Stage 60","updatedAt":"2026-04-05T18:00:00+09:00","kind":"evaluation-profile"},"phaseBuckets":[{"key":"opening-a","minEmpties":52,"maxEmpties":60,"weights":{"bias":-1739.970763,"mobility":253.50357,"potentialMobility":486.698783,"corners":244.088907,"cornerAccess":-1.22501,"cornerMoveBalance":-7.361699,"cornerAdjacency":17.796626,"cornerOrthAdjacency":32.902561,"cornerDiagonalAdjacency":237.896852,"frontier":273.873192,"positional":383.281001,"edgePattern":883.572215,"cornerPattern":3327.041732,"stability":-460.911093,"stableDiscDifferential":137.500279,"discDifferential":67.605069,"discDifferentialRaw":-1329.972723,"parity":48.911905,"parityGlobal":0,"parityRegion":0}},{"key":"opening-b","minEmpties":44,"maxEmpties":51,"weights":{"bias":-6970.527084,"mobility":342.750349,"potentialMobility":546.905066,"corners":21.444108,"cornerAccess":28.34277,"cornerMoveBalance":-2140.140015,"cornerAdjacency":34.996655,"cornerOrthAdjacency":127.39043,"cornerDiagonalAdjacency":239.630336,"frontier":688.707998,"positional":341.053585,"edgePattern":-1248.263101,"cornerPattern":2273.279516,"stability":113.340613,"stableDiscDifferential":13065.188336,"discDifferential":544.750823,"discDifferentialRaw":-3576.35819,"parity":55.255791,"parityGlobal":0,"parityRegion":0}},{"key":"midgame-a","minEmpties":36,"maxEmpties":43,"weights":{"bias":-10620.59312,"mobility":386.914734,"potentialMobility":473.60683,"corners":197.025032,"cornerAccess":34.835398,"cornerMoveBalance":3770.351265,"cornerAdjacency":38.122815,"cornerOrthAdjacency":120.979005,"cornerDiagonalAdjacency":205.519344,"frontier":891.223071,"positional":241.619925,"edgePattern":-1267.978715,"cornerPattern":1131.273716,"stability":86.117868,"stableDiscDifferential":11368.425158,"discDifferential":322.054831,"discDifferentialRaw":-2281.349562,"parity":53.295666,"parityGlobal":0,"parityRegion":0}},{"key":"midgame-b","minEmpties":28,"maxEmpties":35,"weights":{"bias":-9886.319403,"mobility":440.324455,"potentialMobility":280.93806,"corners":118.912255,"cornerAccess":80.214499,"cornerMoveBalance":6596.880526,"cornerAdjacency":-0.670305,"cornerOrthAdjacency":71.60991,"cornerDiagonalAdjacency":90.883635,"frontier":969.574147,"positional":163.329483,"edgePattern":-661.559118,"cornerPattern":922.626759,"stability":87.292518,"stableDiscDifferential":7320.04035,"discDifferential":-262.012503,"discDifferentialRaw":-71.453156,"parity":53.256162,"parityGlobal":0,"parityRegion":0}},{"key":"midgame-c","minEmpties":20,"maxEmpties":27,"weights":{"bias":-8253.301721,"mobility":576.683718,"potentialMobility":-22.143095,"corners":101.94498,"cornerAccess":31.203645,"cornerMoveBalance":9337.338511,"cornerAdjacency":-31.308693,"cornerOrthAdjacency":54.941931,"cornerDiagonalAdjacency":30.469095,"frontier":821.537569,"positional":89.796401,"edgePattern":-266.349837,"cornerPattern":759.96795,"stability":62.475848,"stableDiscDifferential":4139.506131,"discDifferential":-731.568976,"discDifferentialRaw":978.002909,"parity":55.536395,"parityGlobal":0,"parityRegion":0}},{"key":"late-a","minEmpties":13,"maxEmpties":19,"weights":{"bias":-6825.848836,"mobility":606.374909,"potentialMobility":-279.864079,"corners":101.594705,"cornerAccess":18.311727,"cornerMoveBalance":8495.171914,"cornerAdjacency":-16.632546,"cornerOrthAdjacency":42.507997,"cornerDiagonalAdjacency":-9.982257,"frontier":642.127863,"positional":35.080366,"edgePattern":-135.716739,"cornerPattern":662.878263,"stability":13.965033,"stableDiscDifferential":3425.838517,"discDifferential":-579.967179,"discDifferentialRaw":645.114544,"parity":50.653864,"parityGlobal":16.607626,"parityRegion":47.73836}},{"key":"late-b","minEmpties":7,"maxEmpties":12,"weights":{"bias":-3999.164761,"mobility":506.24405,"potentialMobility":-319.476161,"corners":98.03629,"cornerAccess":15.447669,"cornerMoveBalance":7104.794629,"cornerAdjacency":-12.880264,"cornerOrthAdjacency":42.412662,"cornerDiagonalAdjacency":-30.408282,"frontier":455.061453,"positional":5.922032,"edgePattern":-95.564593,"cornerPattern":504.72778,"stability":-34.715014,"stableDiscDifferential":3024.178614,"discDifferential":-150.766709,"discDifferentialRaw":119.948168,"parity":40.003793,"parityGlobal":24.241676,"parityRegion":83.201252}},{"key":"endgame","minEmpties":0,"maxEmpties":6,"weights":{"bias":-3258.142531,"mobility":195.705442,"potentialMobility":-146.372944,"corners":71.703505,"cornerAccess":-92.887277,"cornerMoveBalance":13007.356571,"cornerAdjacency":16.942444,"cornerOrthAdjacency":12.064035,"cornerDiagonalAdjacency":-31.405703,"frontier":220.454457,"positional":0.42053,"edgePattern":-105.94683,"cornerPattern":274.726347,"stability":-207.201367,"stableDiscDifferential":3625.402184,"discDifferential":4495.427394,"discDifferentialRaw":-7652.907556,"parity":-10906.176659,"parityGlobal":2176.323488,"parityRegion":8825.866746}}]};
const GENERATED_MOVE_ORDERING_PROFILE={"version":1,"format":"compact-v1","name":"stage44-candidateH2-edgePattern125-cornerPattern125-11-12","stage":{"number":38,"tag":"stage38","file":"stage-info.json","label":"Stage 38","updatedAt":"2026-03-30T16:54:58+09:00","kind":"move-ordering-profile","status":"active-adopted-candidateH2","adoptedFrom":"tools/evaluator-training/out/stage44_candidateH2_edgePattern125_cornerPattern125_11_12.json"},"trainedBuckets":[{"key":"child-11-12","minEmpties":11,"maxEmpties":12,"weights":{"mobility":0,"corners":6.411028,"cornerAdjacency":-28.093532,"edgePattern":-183.444529,"cornerPattern":461.787356,"discDifferential":0,"parity":2.261603}},{"key":"child-15-16","minEmpties":15,"maxEmpties":16,"weights":{"mobility":30.294982,"corners":-3.826455,"cornerAdjacency":-1.419264,"edgePattern":-28.068467,"cornerPattern":87.712837,"discDifferential":8.814233,"parity":0}},{"key":"child-17-18","minEmpties":17,"maxEmpties":18,"weights":{"mobility":28.839259,"corners":-0.772686,"cornerAdjacency":2.923797,"edgePattern":-46.615311,"cornerPattern":115.962661,"discDifferential":5.858417,"parity":0}}]};
const GENERATED_TUPLE_RESIDUAL_PROFILE={"version":1,"format":"compact-v1","name":"trained-tuple-residual-stage60","stage":{"number":60,"tag":"stage60","file":"stage-info.json","label":"Stage 60","updatedAt":"2026-04-05T18:00:00+09:00","kind":"tuple-residual-profile"},"featureEncoding":"ternary-side-to-move","layoutName":"straight-adjacent-pairs-full-v1","trainedBuckets":[{"key":"midgame-c","minEmpties":20,"maxEmpties":27,"scale":1,"bias":-514.483612,"tupleWeights":[[-11.383099,-47.083806,112.276154,108.125515,90.919362,30.03347,-85.947925,-42.084368,-205.040609],[-12.212794,-342.034021,321.846067,-152.039501,76.603122,101.763876,175.101649,-28.73882,-162.214348],[-32.808508,-8.427256,55.364546,-272.530115,8.254692,-88.343823,285.079348,112.205833,-78.378562],[-45.520643,-82.679256,131.083975,-38.881348,53.997529,69.231104,99.198533,14.924013,-157.418142],[-35.379493,-225.118613,272.936695,-40.056773,-3.835441,84.799082,99.30433,-25.05121,-114.645186],[-26.333024,-183.334525,223.505471,-269.619574,55.266761,45.328456,263.654493,19.073266,-135.606686],[-50.352005,77.017044,8.11097,-82.587528,26.645521,-23.237738,162.885452,-30.38687,-141.974868],[-73.695778,8.768478,88.878333,-195.123958,144.333099,42.822351,217.255255,-30.471685,-173.874551],[-58.392372,-4.772421,-26.395878,-23.095391,19.794876,123.312345,38.955537,-36.229662,-19.779153],[-47.652782,-47.687371,23.287024,-53.041808,-63.412845,98.760243,34.312237,-36.523953,39.885187],[-48.462032,-16.25048,-8.579765,-5.117474,-114.359364,23.999798,-21.572444,10.097272,125.387002],[-60.543576,-65.153009,57.152373,-22.004765,-48.506213,-85.26391,34.354205,83.451768,63.755944],[-76.716341,30.702837,40.554345,-25.578914,45.98465,-54.239372,19.985981,81.315162,-63.207924],[-15.248872,-260.46822,186.793406,86.091185,84.788832,-23.791286,-30.912448,45.787874,-89.135497],[-37.340188,1.567489,35.865883,-75.707004,-99.940356,-136.581718,70.19198,78.808816,97.749913],[-83.301837,32.997843,-33.303481,-98.718798,29.378422,-43.538349,120.813172,12.432731,4.343897],[-59.587404,-78.062821,41.896222,-28.41094,84.024588,-11.020785,58.420863,35.649738,-99.083443],[-43.947447,10.412661,9.386548,23.983447,47.761538,28.14967,-24.08736,15.228357,-88.358774],[-19.356725,12.826542,-7.642583,-78.80273,65.989209,33.391372,77.966043,17.754049,-113.76534],[-34.222333,-135.440653,167.268349,67.378744,24.508476,15.21861,-88.961761,-2.926729,-21.888796],[-50.122097,-85.582476,122.677302,-68.800549,-38.191324,96.467576,91.961451,-115.024429,16.851369],[-50.573013,-154.837353,203.99917,36.116118,23.770048,-13.070759,-8.523105,-31.849782,-46.426607],[-34.548666,36.632083,-73.870879,-63.870312,-41.63439,-91.168104,98.01374,89.495051,26.90252],[0,9.498641,-2.152317,0,61.117982,-4.058644,0,18.770988,-100.508553],[0,0,0,0,58.395589,30.552051,0,4.980383,-95.166118],[0,0,0,2.997604,73.051189,-13.715952,-23.781626,3.288153,-51.911381],[-43.213764,-58.964629,92.529827,4.287244,-13.489258,97.104717,-19.551121,-98.698727,14.223541],[-52.350373,42.792829,21.176605,-105.232031,-24.487936,-28.426437,168.313243,-20.238759,-17.080812],[-39.795501,-111.73291,158.996826,34.069416,-7.854209,-41.429354,-11.094265,-37.7158,6.416064],[-39.897194,13.670929,-39.868012,-30.964407,1.533686,-130.950553,31.364696,79.361803,49.806946],[0,-8.771564,-28.352373,0,88.412687,-2.336425,0,2.215101,-79.679265],[0,0,0,0,67.797757,13.520357,0,12.528138,-93.62972],[0,0,0,4.986462,51.569705,32.563478,8.053209,27.548466,-118.384415],[4.385233,-87.57191,94.484639,65.551265,-30.45889,79.07473,-81.568926,-82.159715,15.251284],[-60.767403,66.292791,50.357126,-156.892563,4.786062,-11.855312,207.176449,-47.353056,-54.173368],[-27.043452,-71.110301,79.75281,-98.617984,-32.193325,-121.875071,83.281289,103.640839,38.753843],[-17.500301,98.505904,-125.873357,-186.046152,11.997652,31.268233,133.462967,20.993673,-21.247286],[-44.868115,-89.136549,49.130973,57.333105,55.507127,23.175575,-52.692306,44.183056,-96.326799],[7.990593,35.808601,-63.984558,13.795394,55.651017,-4.176576,-20.058252,15.377165,-70.127047],[3.810517,-33.436225,35.057888,-53.900849,79.923225,21.451001,37.949786,-30.612837,-89.351841],[-15.611797,-57.995158,77.551877,24.706951,3.374107,10.949569,-53.825242,-10.500885,-1.959487],[-31.652987,-47.10031,54.388811,-2.154765,-98.196628,100.68731,15.306362,-146.693352,106.162232],[-39.520517,111.50411,-41.04773,-257.007509,28.659595,58.606254,202.766254,54.050408,-82.865433],[-48.226255,-51.27208,7.611521,39.866911,18.074432,143.453273,-1.100619,9.401697,-81.672458],[-68.119796,-8.733171,34.992867,-43.401522,-87.789248,110.261553,60.777375,-31.162676,8.384625],[-59.540973,15.485947,-12.996915,19.401071,-109.677674,-3.048896,7.549122,-9.309791,105.474701],[-48.704827,-68.552668,77.0278,-10.374287,-67.70685,-60.42701,6.006138,89.841603,34.989003],[-57.371216,-57.001057,70.615644,-24.951087,30.352567,-61.477305,31.201659,105.724458,-41.852864],[-28.909196,-195.801996,184.929853,-12.010389,111.268561,7.934983,88.228806,10.978708,-173.122733],[-12.330467,-116.398863,158.298462,64.147492,39.666234,-45.180056,52.036219,-39.172899,-123.245695],[-32.216028,-254.01333,319.617104,-193.403954,42.914891,-16.720314,217.801355,55.249552,-161.024007],[-24.81366,-152.774533,143.520713,-185.359684,33.352509,-89.716323,262.668555,110.814462,-108.618139],[-4.42274,-60.450671,107.026542,-140.595667,66.59957,8.69627,123.746584,53.368881,-145.494234],[-38.850306,-236.552928,284.396654,-37.304125,45.741782,82.85166,48.357468,-100.372911,-43.070394],[-37.74597,-181.634696,188.739268,-312.241845,116.669649,-39.663914,299.73353,140.66366,-123.837669],[-45.265671,113.867414,-76.371411,-51.405906,161.2237,-37.972463,162.257991,-45.298371,-182.85921],[-26.735721,-37.363537,122.99669,111.961305,141.351636,-24.751405,-52.004568,-35.314191,-234.335488],[-15.288815,-301.450636,295.392738,-130.471802,104.127268,103.055314,169.045603,-76.947634,-163.630799],[-19.300826,-18.453459,95.789689,-235.519603,7.371777,-78.567395,307.787302,84.679192,-121.85017],[1.729987,-108.92518,128.159815,-91.425677,67.27646,69.331819,120.310491,-5.921321,-169.938107],[-26.913781,-179.927573,254.162582,-64.022367,12.000697,62.834444,98.82111,-57.685038,-96.170945],[-4.708536,-237.164276,243.210182,-283.597793,85.687728,63.758852,273.47634,21.876192,-150.881051],[-26.953142,58.486405,28.448849,-114.001313,26.986499,-14.590141,164.425803,-17.884413,-108.976912],[-45.483349,18.214528,39.2345,-198.223194,105.114377,50.883418,150.457439,11.021322,-124.387488],[-75.212401,-7.905467,-8.809019,5.220872,-0.418998,118.98347,33.134145,-36.008267,-13.458487],[-88.013639,-85.584533,97.442685,1.920052,-71.433761,40.855573,36.246739,-26.191508,42.039244],[-62.835988,6.761708,3.189935,2.874597,-152.628447,35.414192,2.448884,44.304647,97.069012],[-68.727298,-21.380101,48.1254,-32.111161,-93.316771,-26.515958,62.827878,77.820372,32.150323],[-49.575947,15.127542,28.050915,-48.854317,24.488205,-28.398198,-6.513652,159.995884,-71.343512],[-66.473726,-243.299992,252.801485,132.529664,42.387475,-6.009087,2.344741,20.924254,-124.121031],[-20.98428,-18.79529,40.087028,-98.776179,-89.458462,-160.82049,55.925043,120.04578,101.394651],[-39.962412,17.88178,-45.59701,-116.963023,36.341571,-7.014137,84.264412,19.819932,-25.34316],[-75.688848,-48.393938,22.108199,8.801475,54.0055,5.828184,39.25595,24.44065,-90.088453],[-64.130638,25.792318,0.870565,33.032947,53.949194,-7.326809,-40.165259,16.68846,-81.339756],[-37.826027,-12.523662,4.145139,-78.782264,98.061808,24.150193,39.075015,17.603192,-106.427653],[-57.012335,-173.788628,173.979924,74.491225,45.417621,4.868985,-65.860514,-4.139124,-37.848072],[-45.065176,-74.909438,113.253869,-68.961867,-21.680232,99.126499,89.520534,-147.434155,33.71495],[-63.522991,-199.206744,213.160213,16.967635,67.128642,-17.903709,13.054838,0.349692,-68.397973],[-39.517218,37.485118,-81.944971,-84.165689,-13.438451,-79.844529,121.384227,87.4472,10.264242],[0,-34.060717,29.891076,0,79.095391,0.711738,0,28.335115,-111.250812],[0,0,0,0,80.779359,11.234606,0,0.688925,-90.246178],[0,0,0,2.250679,65.38722,12.767945,-26.459976,-12.969554,-63.872558],[-68.609629,18.160293,38.219286,8.065732,-20.925965,89.715642,-26.625599,-112.899726,29.726456],[-27.169681,-44.560643,9.315272,-127.392496,4.661334,-6.624089,171.071044,-41.449765,-15.389394],[-62.37418,-132.365473,176.538079,18.613522,-4.052156,-4.045713,15.901711,-5.92377,-17.380571],[-49.252748,-16.591557,-19.718235,-38.474038,-26.044641,-101.38793,64.872333,119.3281,19.988667],[0,23.316398,-36.255265,0,40.744789,22.498296,0,11.713573,-70.188126],[0,0,0,0,59.680087,-8.732707,0,13.206131,-68.392211],[0,0,0,10.952953,64.398573,17.508312,-8.090435,24.013101,-108.163529],[4.339881,-84.922184,68.291957,42.382351,0.815418,69.456447,-79.616735,-100.671591,15.134792],[-44.084774,20.773659,45.758026,-156.787284,44.130791,-21.059118,172.47928,-16.194733,-58.842408],[-40.262279,-47.29772,87.106667,-98.470465,-42.03138,-148.293029,128.39395,91.242841,25.913262],[-49.199755,84.566799,-81.08013,-134.172976,22.407533,5.583992,172.15477,-8.275758,-37.58721],[11.44271,-106.169654,86.058261,-24.196368,89.48576,4.411256,-8.540433,39.822829,-111.221784],[-9.768199,26.241332,-46.245958,43.878871,67.634337,-4.602203,-18.646582,11.417873,-72.046061],[-39.785171,-8.005715,41.415104,9.50282,53.202059,25.579433,12.721124,-16.635773,-83.397815],[-50.102625,-93.922545,137.915848,39.23465,-1.175751,2.822588,-50.459086,-22.536964,2.120499],[-41.854413,-63.482181,89.999295,-86.022737,-60.338311,148.977769,75.767353,-166.46281,79.362673],[-52.694425,82.697211,-22.174881,-230.537665,44.207551,49.975926,228.738384,8.532958,-112.355907],[-24.305467,-34.734664,-12.680901,-0.603791,7.681595,159.29886,1.340119,-15.153547,-58.360214],[-61.572486,-18.138958,38.521086,-43.023058,-98.775163,91.583086,70.349141,-38.134937,35.092842],[-67.127679,9.550818,7.87657,14.646,-128.701397,3.507005,34.270307,3.011338,98.473934],[-75.036966,5.101355,52.50913,-56.917178,-70.438514,-44.281358,83.710777,53.938509,23.565728],[-59.512023,-21.509391,52.721734,40.916489,-32.120955,-47.260628,-18.877583,137.895594,-48.006216],[-55.366443,-202.004225,258.850156,-38.705718,122.065514,31.935646,65.699739,64.737118,-180.998689],[-10.266728,-80.711163,126.793283,55.143961,47.058096,-36.315989,24.242217,-30.136027,-137.972561],[-16.919257,-277.009883,297.619708,-212.510204,108.969648,9.152088,194.653597,42.630588,-167.93221],[-40.460128,-94.782683,118.261161,-185.340167,30.38926,-70.018161,261.794821,101.834761,-115.439297],[-31.28046,-98.07261,161.389284,-127.788387,88.273999,7.704055,178.689254,13.595781,-178.665083],[-46.17813,-234.111628,308.003006,-42.505446,-0.576411,108.836595,97.54139,-62.620793,-106.322815],[-17.806567,-206.992649,183.099061,-333.097326,103.876953,-15.576847,348.721993,100.384257,-202.45774],[-28.234973,140.901529,-16.968104,-61.48453,119.93014,-86.306138,126.703023,-37.246497,-223.099522],[-52.498079,-41.180045,160.691213,63.048171,170.108843,-64.103373,-58.341309,-49.360378,-172.829841],[-29.110869,-140.940657,149.596506,-29.233728,108.477128,-127.185871,13.407525,108.505392,-77.713607],[-48.833062,-53.782237,88.74042,-68.950088,-128.148845,-121.614923,61.004203,46.88693,133.746095],[-83.047317,-90.709796,132.721697,122.088964,5.174871,-5.080203,-65.990697,-67.630136,17.692468],[-21.381165,-88.304844,100.795552,6.988741,21.498877,-42.643579,-15.784789,46.961281,-32.674006],[-45.116451,88.032992,-11.396957,96.513843,-141.059688,-271.866171,-96.708765,214.199342,161.675121],[4.854484,-71.039997,6.689665,-56.077252,-88.566812,14.580338,38.792174,52.158803,12.068456],[-46.030932,-115.857064,146.515839,-2.138103,51.653325,-44.519941,18.388153,99.805521,-109.514901],[-37.497592,148.720475,-197.527588,-77.496877,3.843609,136.80116,47.915714,-131.218801,57.957212],[5.945125,31.378783,-87.134793,-77.797046,29.629926,-16.897325,84.223081,38.841737,-9.751308],[-44.327297,115.215214,-149.064213,-30.410116,-57.35078,-44.934056,47.771331,53.218358,62.54204],[-46.88019,87.236875,-112.778619,-38.662319,-52.889222,-64.891432,84.57253,98.850125,24.713106],[-36.816883,-78.954084,77.38199,-85.229419,-13.266499,51.598664,71.725964,29.445166,-45.262498],[-41.779834,102.653076,-143.280629,69.352734,-133.699312,250.612184,-30.265211,-262.491788,168.784379],[-61.676683,-48.203695,108.7083,-40.144746,-125.673193,-102.251275,85.815066,3.933549,122.245101],[-52.446938,6.438185,-40.571687,-29.824271,-0.072484,-34.966741,85.999556,64.46193,-28.788973],[0,-72.454616,7.58576,0,106.464594,-46.285068,0,16.413124,-59.691551],[0,51.236494,-54.539207,0,38.741382,43.060803,0,4.162739,-87.397631],[-46.381647,-0.551918,-6.598836,19.393786,77.869823,-30.899599,-26.204089,-7.305722,-45.839429],[-41.390267,-37.543653,78.682723,75.050357,-52.769488,105.14551,-81.688157,-69.71028,5.980312],[-34.174286,47.471934,-42.246286,-96.916015,-4.610433,64.807104,140.554392,-69.139097,-39.41674],[-52.966777,-70.185566,134.384744,83.52762,-10.635302,9.014879,-46.849376,-60.343451,-8.740057],[-29.930491,76.669821,-106.090443,-11.233737,-45.514554,-88.795653,0.779371,91.055388,59.533472],[0,49.482144,-40.330467,0,51.905099,7.92227,0,2.56401,-80.619351],[0,0,0,0,114.412071,-20.596392,0,-32.775569,-66.655924],[0,0,0,48.99782,53.204652,-7.959061,-30.952334,33.638981,-82.72512],[-10.84109,-20.877015,17.128218,100.69429,-51.165884,67.124817,-98.782581,-70.640373,46.509457],[-51.246225,79.326352,-27.621763,-104.001654,-20.979554,-21.060626,151.647071,-19.893124,-6.099378],[-53.790874,-78.852994,136.713801,2.615066,34.546975,-76.64904,29.66853,6.615997,-40.79033],[-55.099266,110.885677,-113.417141,-62.175138,-36.850609,-53.854469,56.814373,90.419659,29.271539],[0.808578,-56.136526,12.102385,-3.031578,89.759522,-13.008795,-35.574535,-19.718025,-54.250206],[0,0,0,41.384895,64.45123,0.858859,-37.341721,18.016145,-98.701118],[0,0,0,-27.089607,75.651846,22.423988,16.526501,-40.339602,-62.393933],[-4.741908,-40.953659,60.664582,6.570275,27.950858,73.589646,-38.2959,-43.202237,-39.856943],[-45.666974,-8.234482,69.184569,-73.920583,-134.307807,61.712048,88.54896,-99.906887,108.545224],[-35.964353,70.105365,-13.663708,91.008154,-115.947856,-270.095049,-147.141457,271.524691,146.459099],[-23.64056,-53.632815,29.834255,-116.606152,-7.382361,53.629421,77.106186,9.005015,-26.81663],[-84.888968,-51.961661,48.194142,105.940275,-40.499367,94.656555,-106.242641,-59.619155,6.639487],[-34.682992,-5.247786,-8.467494,80.66068,-46.301832,68.127063,-95.476929,-72.304404,41.376032],[-4.489301,-83.719494,87.471753,23.699771,20.837177,55.394503,-59.021043,-49.746676,-27.422261],[18.487862,-77.967537,48.813715,165.651411,-21.853426,-158.303929,-204.888516,131.99616,65.813918],[-22.58909,-17.463874,9.79962,-108.878616,57.8688,109.825216,144.671053,-103.283471,-109.439167],[-2.543516,-56.877909,52.35131,-17.976295,-157.478266,-23.206777,60.98232,41.298883,34.722499],[-58.840055,90.097428,-97.784762,80.077572,-152.716809,282.128233,-22.654542,-231.422829,123.11656],[-24.092779,-9.519156,-0.281291,-81.103228,-19.239889,67.66371,126.878326,-55.62239,-54.460457],[-30.3226,40.318706,-56.8621,-99.118397,34.537432,-61.399746,93.141543,1.365804,21.807835],[-46.495721,-33.099224,92.796177,-75.908245,-91.313195,53.87507,65.091108,-130.610221,131.035742],[-30.736164,-29.076848,42.098136,-179.743444,93.955924,148.45902,138.841567,-72.764819,-94.730631],[-27.465882,74.460954,-35.860069,-107.991921,201.505153,-10.902619,173.840422,-92.308147,-186.206613],[-13.686501,-23.157804,9.828743,-13.60577,14.013893,4.987012,16.257202,56.755528,-103.245263],[-54.212631,82.761818,-2.891568,110.105373,-211.319994,-290.015688,-148.053831,258.090991,211.833955],[-15.558928,-136.576652,129.923421,-9.237789,93.917675,-37.891202,-40.439113,48.184165,-74.23198],[-41.980274,-89.705727,106.451794,28.400599,-27.182253,17.386084,-34.956633,-15.125136,21.252422],[-58.823538,-61.211728,106.323058,-61.409759,-82.24455,-86.532827,82.5278,10.190491,102.373197],[-38.662939,-58.179439,68.052647,30.556613,-37.339943,-111.387447,45.110903,124.943289,-6.459483],[-38.89457,68.971121,8.120553,120.507063,73.282215,-113.898465,-79.617062,-11.562284,-56.780681],[-49.620464,104.236264,-130.402755,88.849467,-179.401629,226.182443,-9.744382,-271.770105,191.548896],[-61.085494,-79.82985,73.470492,-85.194758,16.966841,37.822242,85.320904,-1.642883,-25.26344],[-75.356692,85.120053,-100.964857,-62.622599,-37.443823,-72.131483,58.167606,56.629688,56.70399],[-7.841902,94.173279,-141.757692,-46.233819,-35.986037,-75.159313,56.755626,71.192017,60.445811],[-28.050537,81.570943,-86.469911,-36.666076,1.178014,-16.910065,47.361054,1.391209,16.776871],[-11.443454,161.517168,-203.495416,-81.496457,26.875237,152.843252,95.116773,-180.956836,22.645003],[-24.447807,-39.746038,76.479602,5.447723,-27.922785,-89.050142,0.504728,72.494888,-2.251844],[-41.297907,10.285774,-2.98944,-77.25061,54.240049,-11.667932,129.56915,-38.121887,-50.278487],[-60.651663,-89.599755,80.363466,79.952514,-52.064981,76.257079,-91.083466,-52.951474,39.105528],[-20.662637,-11.854747,10.493925,31.034291,64.391288,-3.42132,-21.51342,-4.854772,-88.217131],[0,41.431514,-61.005642,0,65.935032,-7.803855,0,7.098387,-65.379945],[0,-45.655163,41.530058,0,92.905754,-6.679615,0,-4.164209,-86.94163],[-18.728575,65.027464,-86.56004,-22.097832,-4.726416,-32.95741,22.981439,27.268648,29.829281],[-48.376218,-68.017914,81.960593,-12.539507,-99.312926,-61.311095,46.51289,15.404989,104.947581],[-44.562574,18.413448,-2.681115,-108.785747,-29.987718,-25.645431,151.35508,-0.799375,-4.981626],[-27.801948,-46.004225,74.051507,113.554334,-58.594889,51.455044,-135.216587,-54.873704,48.740979],[0,0,0,41.316336,53.26238,31.770123,-71.51138,29.508831,-91.475993],[0,0,0,0,68.875704,-5.461297,0,8.537633,-76.442422],[0,22.605291,-42.882475,0,61.657318,4.752099,0,21.543991,-85.071155],[-3.059434,95.082031,-129.300496,-24.317454,-34.578088,-82.502232,39.760472,77.067317,46.05499],[-31.430627,-62.107471,89.214241,60.581447,-47.669866,1.744236,-20.96235,-63.661438,35.105454],[-44.886985,11.536871,35.899284,-70.729581,-90.49236,32.379905,111.892511,-97.172026,92.423295],[-19.318337,-65.760903,34.600889,54.602147,-0.496141,48.150084,-82.83109,-30.090624,-2.661324],[0,0,0,-43.300698,114.401442,-4.310158,-3.743474,-10.828909,-70.95268],[0,0,0,50.862172,45.869305,22.090464,-73.110106,15.214278,-71.578852],[0.342461,12.343701,1.58863,-13.646648,83.385824,-4.517909,19.463487,-6.484689,-93.324238],[-3.845695,66.543045,-81.748819,-56.884849,-58.162984,-63.270894,43.61383,61.714615,38.054725],[-38.374772,-89.589113,133.393541,32.017465,32.254589,-60.208808,-10.414256,41.969591,-62.018196],[-9.02855,-27.330768,-11.779384,-70.418932,-24.539885,126.070137,62.582355,-113.495685,23.803021],[-50.115669,-87.656674,109.387672,188.95061,44.865132,-197.425895,-218.421597,178.500551,30.070193],[-29.675166,-30.842858,36.829715,61.096462,9.77009,8.64197,-70.138522,-43.10867,23.968393],[-19.648161,2.955116,17.699998,99.611007,-56.386101,86.129451,-136.248233,-73.512299,30.972412],[12.098452,-65.060094,41.264184,60.603697,-60.712231,75.706841,-87.575421,-33.981349,17.613319],[-22.369837,-110.838256,86.699783,-86.012969,27.47481,9.701715,50.527666,20.540875,-20.088196],[-59.935754,42.369786,13.664726,130.283224,-176.450762,-292.923597,-102.159687,247.088609,159.807491],[-43.919785,76.507663,-82.827241,66.766951,108.880023,31.663637,14.498512,-141.030027,-39.987549],[-10.626903,-39.774662,31.390029,-51.093891,-25.958373,101.834194,73.880972,-120.024676,-8.653913],[-44.76662,-32.307963,46.836718,-71.772743,-43.812831,-5.243307,75.066913,-124.790474,142.970499],[-35.110062,46.42229,-19.424233,-57.151702,-47.909919,-36.312835,109.211403,-28.784488,20.14055],[-36.649705,11.416741,-12.755964,-123.888924,53.967428,31.063307,131.937887,-27.472147,-61.501974],[-37.759922,126.964417,-103.453013,5.338006,-167.181839,290.26471,0.948583,-292.903559,183.105156],[-1.600521,17.191121,15.020315,-59.976245,21.82968,25.014205,-25.07581,1.521338,-33.449506]]},{"key":"late-a","minEmpties":13,"maxEmpties":19,"scale":1,"bias":1477.77482,"tupleWeights":[[-67.366892,-21.1861,126.180932,231.648905,39.891137,54.392075,-95.233585,-94.358162,-135.471681],[-53.357145,-281.194129,342.063566,-136.178412,32.461442,48.449148,164.10932,-14.81368,-70.063083],[-33.926846,-51.711733,42.751117,-181.078692,-39.562919,-53.639836,210.419109,132.194268,20.591287],[-66.668878,-23.162535,87.143607,-34.195372,-11.827795,37.554816,66.532596,9.986867,-16.839288],[-70.893139,-115.899191,158.028077,-52.499842,-55.304579,138.960784,89.649386,-29.787556,8.554612],[-47.552075,-134.598539,164.993773,-228.259557,-2.670352,86.951581,271.507975,40.909737,-67.178133],[-67.124762,163.682901,6.104826,-39.767838,-2.54675,-69.883063,123.21818,50.317954,-87.231774],[-64.789545,-17.582193,67.477594,-111.983883,25.625163,-2.204522,138.305883,63.473234,-62.570855],[-91.301674,-10.072802,8.70799,-3.020532,-23.56296,88.928442,5.995581,52.497451,-32.430236],[-58.007316,-69.889364,26.767474,-53.545194,38.125716,-4.442619,24.315198,6.884459,11.501586],[-101.411672,27.421431,-34.874353,10.700015,-21.65479,40.351447,-2.881119,44.721623,-3.418694],[-94.754465,-38.229574,50.0155,-24.940241,15.777672,17.291295,19.177337,13.45875,-8.09266],[-90.107244,3.386201,23.31083,-40.97958,-6.636232,72.35498,23.778178,85.305062,-43.500742],[-82.679698,-118.61678,152.714459,53.85101,-13.389301,42.367538,31.573834,6.33772,-24.215022],[-85.532921,-54.09413,54.77279,-48.727318,-65.879187,-126.611658,98.488832,155.268638,58.579079],[-23.737891,-9.371313,-37.72639,-112.373284,16.125784,15.610723,99.477746,2.487878,1.856822],[-63.400903,-51.535615,41.712288,-32.869744,81.306446,-55.399842,-17.8156,75.684467,-65.499491],[-65.06336,-5.371092,-45.778339,-8.602254,122.145565,15.426492,14.85302,-9.493318,-93.847231],[-26.783599,1.954327,-15.320374,-121.651504,82.223287,80.489361,93.410997,-69.420187,-72.59143],[-51.719186,-138.642072,146.684622,-5.910613,23.174734,0.394408,-50.854188,42.450033,-16.728701],[-56.947573,-83.251196,56.841286,-67.584111,-10.345013,124.177307,72.755743,-157.558359,74.186751],[-70.349183,-125.585956,120.559068,33.145822,48.493053,-73.042123,-54.151382,64.948187,-4.371698],[-54.064307,-24.962838,-54.064369,-26.681925,61.911198,-61.413678,46.024499,86.344273,-34.55822],[0,-6.537415,-17.245032,0,101.610952,30.339598,0,11.356935,-112.291906],[0,0,0,0,68.163982,47.888714,0,-2.133344,-91.309768],[0,0,0,-74.715975,85.626778,-0.136959,-3.263373,42.578865,-86.918986],[-7.539055,-49.672342,-19.525287,-10.590069,75.82651,65.973806,-71.939608,-42.142885,-29.470727],[-57.27074,-0.891943,-23.45404,-80.146868,26.710821,82.791751,111.005857,-112.932631,18.019119],[-83.810584,-100.087863,89.186723,5.826519,11.581555,-100.398024,57.805896,99.875676,12.148066],[-39.935196,10.906502,-42.635841,-1.933736,36.572446,-41.118395,16.64922,78.154924,-54.669782],[0,-11.64893,-3.512677,0,75.816793,41.062358,0,15.69947,-112.868733],[0,0,0,0,81.044175,4.427401,0,40.143975,-113.220281],[0,0,0,-6.309412,109.825013,16.606308,-35.627673,0.248305,-104.384835],[-19.21691,-87.166709,56.268664,3.385666,71.907243,52.975819,-20.201065,-62.389854,-34.980218],[-48.013473,35.501215,14.425141,-117.88764,31.550366,69.821181,101.661031,-93.196853,1.132201],[-92.83883,-70.76578,113.356606,-57.516698,-31.385854,-141.39316,81.766965,148.290899,46.368668],[-50.077847,3.404959,-69.228346,-153.471436,15.647247,49.215738,113.992922,7.902378,3.030848],[-4.578814,-139.9641,72.648866,32.118634,70.762558,-63.631353,-31.414706,101.912161,-79.725831],[5.196937,-16.204629,6.625187,-27.347493,92.294404,30.681808,0.075028,9.68518,-103.456119],[-44.121879,-18.539392,16.236706,-88.305519,51.341494,78.900587,66.948556,-22.212972,-76.383781],[-43.194972,-94.886478,97.356473,-19.435215,24.592991,14.987282,-15.48282,-0.482464,-6.412079],[-74.645389,-52.256159,97.19109,-46.454612,-70.578584,156.574731,69.453184,-160.712244,79.982352],[-66.149104,79.353592,27.581423,-163.495844,-20.671544,-16.212267,147.673183,67.867649,-29.768334],[-74.118325,-77.136171,30.701373,19.733131,19.659851,85.17235,20.428534,64.873696,-56.040524],[-66.839892,-25.807114,22.682834,-3.232219,2.935919,-1.690936,14.363494,20.126274,7.053913],[-80.666237,13.832368,2.505576,18.103764,-7.975445,3.354736,-5.424543,30.159498,-1.760021],[-77.997329,8.190472,13.860122,-40.952341,7.884338,51.397107,20.26235,-15.284185,1.179446],[-69.896171,-13.238383,15.114777,-45.665891,6.690043,39.398158,16.412265,72.534461,-23.528105],[-92.925827,-123.233546,172.043813,2.421662,44.455354,30.238575,62.807348,11.33223,-65.52334],[-70.531218,-37.160271,133.352875,165.282108,23.278228,39.345036,2.829818,-111.453568,-83.467279],[-66.965489,-253.388569,310.256451,-163.939573,30.212967,1.201158,182.732477,75.622925,-71.790225],[-83.855151,-60.196459,80.204124,-118.87474,-32.346277,-48.824265,193.929476,82.786192,24.268563],[-49.064175,-30.719563,67.395912,-81.976188,4.440241,20.893795,67.444832,58.316671,-9.392705],[-68.205378,-174.016935,190.684061,-29.973824,-38.508674,132.235833,73.182353,-62.137379,20.193587],[-47.816399,-143.05861,180.63476,-303.471872,47.507145,6.811158,334.912844,68.116174,-89.550005],[-75.412634,218.648878,-74.119776,-4.782994,67.721319,-133.487055,155.103427,82.213113,-187.035623],[-82.944782,6.08344,124.687948,214.812047,35.474067,82.502667,-78.943502,-111.606876,-141.985831],[-58.505018,-290.332501,331.757225,-158.192669,53.745219,54.075968,171.751658,48.752469,-86.184177],[-78.597233,-25.393209,50.821997,-170.014661,-14.963178,-59.50675,217.072439,100.308459,10.134486],[-77.386148,-68.171367,118.516791,-47.275133,-10.089772,96.552072,64.069821,-6.83798,-19.743825],[-66.180211,-151.078422,171.435049,-109.824192,-26.818443,106.132606,157.97733,-49.988803,12.230986],[-23.425858,-173.006851,180.577002,-259.650614,14.313043,64.384084,292.444246,-29.129029,-53.147313],[-47.740493,182.334226,-39.438522,-89.815025,22.850237,-100.978126,140.484283,14.942807,-51.725934],[-61.314766,2.545528,81.629908,-115.478521,34.398521,-30.464921,138.427414,26.674981,-59.516776],[-36.016374,-28.983309,-5.100687,-46.870183,-8.967209,105.59607,16.650708,40.433631,-34.938886],[-84.819681,-16.443817,17.151762,-44.144423,0.0925,19.597458,-6.544089,13.792796,23.847079],[-71.495912,-16.521487,-38.033936,35.368431,-10.846847,-4.738143,-19.721248,28.879863,29.416412],[-104.43828,-7.11926,51.231155,-44.026162,8.346344,21.963105,12.408725,-8.020213,3.400096],[-80.190512,-0.035508,-9.980829,-65.145915,12.905607,62.83939,23.85772,105.579516,-39.586444],[-78.081118,-133.301285,133.303098,70.934481,-0.922979,48.082489,20.567067,-15.280091,-23.804866],[-46.341709,-71.05355,62.729323,-82.206627,-38.147993,-172.962965,40.901836,164.663749,95.278952],[-46.125368,16.411912,-73.17222,-91.400663,10.467178,35.665217,104.332103,-4.334979,2.08146],[1.723152,-59.97485,32.13625,-13.444009,63.18197,-43.362186,-4.074197,83.275036,-77.739045],[-12.963513,-17.548489,-3.368813,30.114286,112.812578,-2.857764,-52.892936,9.805931,-98.959674],[-39.188571,4.050004,-5.335098,-112.261887,79.866489,84.384115,44.897409,-63.732396,-70.302426],[-47.946381,-120.078319,77.514789,26.424287,16.095132,-6.124771,-48.848627,29.728831,0.54016],[-67.93826,-52.424196,97.608552,-101.644809,-13.339476,146.594006,75.621132,-139.884693,44.663756],[-89.148206,-92.09,129.266833,8.673107,44.567159,-89.173817,24.453092,46.633318,-14.787954],[-62.483213,13.29468,-68.052127,-82.431497,56.005371,-19.971891,51.438661,83.253898,-54.473799],[0,-10.02099,-55.565115,0,108.910284,29.569907,0,7.463754,-105.42051],[0,0,0,0,86.435497,27.680863,0,3.971646,-99.836127],[0,0,0,-20.264125,106.413091,-12.090607,10.850082,7.412814,-84.65774],[-23.244987,-28.684722,42.652904,-5.130923,57.982546,68.171791,-32.961853,-56.397773,-40.918869],[-52.155237,21.209305,-1.308662,-62.089105,19.411297,46.30484,74.412618,-96.69942,33.55318],[-70.343654,-73.081595,75.27753,18.340048,25.428808,-79.840245,5.243824,70.686369,11.469466],[19.202978,-25.7808,-54.322517,-45.132038,74.854172,-39.575254,9.338099,52.554585,-44.264766],[0,-46.361024,31.298965,0,85.305863,31.723758,0,-8.237028,-86.531162],[0,0,0,0,101.055561,-40.042802,0,26.034354,-71.782431],[0,0,0,-12.053662,86.929902,38.493035,-13.271862,11.307281,-117.594474],[-22.330588,-57.687685,43.882799,-9.147479,54.205674,52.562224,-29.693314,-20.78167,-51.686008],[-67.662592,14.09705,35.979009,-125.389202,72.262324,65.718349,104.979867,-104.170369,-16.069466],[-79.163149,-75.551183,91.843549,-74.256136,-15.104668,-141.440111,102.913457,137.682751,43.893116],[-60.482103,-11.0634,-26.97595,-127.7056,18.992287,38.201414,144.421525,-0.560966,-25.534478],[-18.546284,-105.136965,76.40349,-35.62338,88.676462,-68.582251,-27.639084,72.228731,-60.283995],[-0.383366,-39.283455,-35.456251,-19.63705,110.328551,17.781326,-25.609912,21.938356,-94.732828],[6.101879,-37.538997,-7.36712,-107.806041,89.843265,73.923335,69.425028,-52.559193,-65.969818],[-41.458646,-113.666064,114.987135,-13.836979,21.012707,9.158764,-40.381466,16.584596,-1.464507],[-49.626066,-63.70908,49.131789,-66.510877,-68.055916,175.16049,65.663038,-140.543922,72.982036],[-75.096074,56.859962,40.215957,-118.913375,-7.468132,-18.819134,147.753502,31.27319,-20.059521],[-80.462373,-28.288004,1.867114,-5.146794,1.32421,82.723286,15.280952,48.803379,-23.327344],[-75.046229,-21.34948,-5.257004,-18.162577,24.925633,-4.682944,-13.089238,11.66565,27.634706],[-68.846581,-31.598267,-4.528756,11.751441,12.262941,8.206893,16.989873,-7.45431,18.029662],[-59.407677,-35.958793,57.215232,-44.141526,6.064156,8.096386,30.877818,2.08358,4.607893],[-51.935304,-59.011999,49.878893,-39.142621,-15.997126,49.168648,-3.821811,117.750507,-41.21222],[-77.456141,-113.260614,147.489693,15.847855,34.851491,16.704557,59.902928,-4.262253,-50.947557],[-73.943808,-34.730585,122.259657,145.729072,4.638563,52.93918,-8.435733,-64.381746,-76.019822],[-40.673251,-272.116038,285.164784,-157.066228,54.778684,-2.619579,181.289294,30.918686,-47.864877],[-55.947188,-62.96704,88.470755,-124.014714,-55.204476,-48.938777,174.297316,91.814697,21.036294],[-53.428276,-38.27352,85.278104,-31.984026,-29.743853,-11.075992,47.075728,85.13547,0.376093],[-38.30005,-237.276501,238.424172,-27.039336,-28.618277,68.581332,45.893513,-35.920803,36.679522],[-56.21711,-133.343136,184.55565,-330.397382,61.777155,-1.067305,343.894586,41.60627,-82.12826],[-70.150745,235.0407,-134.047216,4.356649,63.761899,-110.608287,134.596287,65.292757,-135.745687],[-43.758267,-33.971386,90.72165,153.594155,146.691803,42.653122,-104.929058,-129.16086,-118.789777],[-62.057531,-177.429191,216.151436,28.272412,77.70467,-169.822316,-17.19123,175.15198,-73.965563],[-53.414438,-69.019076,53.595878,-14.997124,-52.009905,-171.043523,-2.90807,158.50253,107.075194],[-57.108003,-51.604451,70.885141,22.760697,48.696528,-87.732011,-24.694103,27.715459,15.69385],[-75.651196,-62.228962,68.844977,14.422714,20.157022,-75.233527,-8.329135,57.973664,34.404474],[-62.929791,73.880847,-40.19978,49.568579,-133.167341,-130.487688,-68.240184,163.174005,155.319357],[-35.390433,17.246548,32.676664,22.919818,-158.206085,8.330328,12.38228,32.804025,72.615639],[-54.974064,-178.621353,181.914711,27.4605,48.80692,-119.46004,4.49567,187.989682,-82.753688],[-35.738989,74.78403,-105.466928,-66.122486,12.113243,60.416214,74.287563,-70.743117,35.918266],[-79.77999,2.420425,-47.491626,-52.173927,56.904942,-36.221236,48.152772,87.715857,-48.966429],[-31.181049,57.681755,-120.054674,-21.555183,34.147909,-17.916601,24.579919,65.65011,-29.053161],[-37.811376,47.021663,-95.494552,-62.069992,8.067786,43.467346,49.445291,-9.166929,-8.869916],[-74.547836,-98.902081,69.838763,-71.186048,13.28665,45.836605,52.347778,65.85307,-45.192735],[-54.831383,73.815748,-96.366928,51.587573,-112.640949,172.391509,-11.942352,-184.052609,173.13065],[-98.725662,-46.410474,52.780483,-27.138164,-45.854853,-130.52789,36.031169,118.551351,97.105513],[-21.956804,1.36072,-45.678144,-67.068171,57.40188,-52.375036,51.727689,91.34348,-48.162018],[0,-41.380857,17.765745,0,81.476481,-63.222743,0,49.211944,-48.009656],[0,-19.673068,-44.7189,0,93.548562,47.547093,0,-22.638576,-73.047711],[-30.083666,-4.225224,-3.437573,-74.857153,118.998329,17.760463,11.33877,4.819585,-100.847126],[-0.471662,-75.833126,45.545057,29.449904,12.298594,-10.240285,-109.930707,40.283695,7.13892],[-74.80135,6.279185,-5.187883,-26.638794,1.301521,45.844039,73.469439,-91.907296,39.451917],[-73.598993,-52.84059,53.796505,74.964099,1.670098,-37.558068,-33.101472,52.520226,-10.742685],[-35.850372,16.267768,-97.732657,-10.270819,41.162528,-47.796596,12.005096,80.783295,-20.894314],[0,-7.554193,-19.013097,0,86.791319,41.4356,0,6.23749,-108.17521],[0,0,0,0,130.071939,-24.229693,0,-11.827074,-84.651573],[0,0,0,-9.108931,82.286905,-17.542213,-36.615319,38.224244,-71.537506],[-40.587459,-37.442217,-12.519987,35.126908,40.970728,76.79074,-38.250827,-48.942539,-33.804638],[-85.730482,50.926163,-44.496912,-48.285235,29.23104,49.858978,64.124255,-87.176132,31.139372],[-107.934087,-62.430158,77.926676,-5.085495,-10.691892,-63.920613,22.062968,88.498011,37.663184],[-34.69571,52.232724,-77.291904,-108.697727,-4.815091,51.058127,52.308889,-3.868559,-11.310928],[-10.553686,-41.661262,23.037853,-24.992271,121.094834,0.023314,19.415811,1.36398,-104.956153],[0,0,0,-1.858981,66.903423,22.733476,-28.037655,32.039336,-95.242193],[0,0,0,-65.793281,98.285924,47.863382,23.880403,-74.603974,-50.594843],[-36.605554,-72.32003,62.631175,-30.453545,79.812461,70.674296,-5.401312,-79.383983,-32.813655],[-54.931986,3.120112,57.951072,-67.813942,-75.349167,156.577584,74.255957,-165.284632,79.628246],[-83.440142,86.539248,-13.541807,56.314651,-101.020758,-183.671771,-72.363112,153.001462,157.20691],[-62.845482,-84.294501,21.079653,-64.006504,-1.000102,56.338327,57.130364,63.364491,-39.475962],[-30.653325,-121.157389,61.609455,47.780143,17.102244,-13.468684,-80.206139,31.658413,7.836661],[-22.100283,-21.128826,26.951781,58.071418,37.553333,59.310002,-91.114953,-15.561807,-46.350206],[-18.239351,-56.336388,45.416526,-50.125867,36.260994,107.505122,-13.56458,-29.094966,-56.050444],[-19.221677,-76.167301,51.49306,70.456774,7.462581,-62.937635,-126.172326,72.719993,35.740382],[-54.915918,25.189183,14.478996,-179.917026,74.421429,166.189525,173.455723,-121.7422,-69.202168],[-28.348667,43.079845,17.767265,13.344484,-180.283017,-17.281018,21.730847,2.728437,125.086621],[-109.653339,74.149465,-64.691395,81.845551,-96.251348,155.433787,-38.139925,-169.599753,162.576454],[-57.895384,17.528718,-5.4208,-38.726385,-14.90421,68.522235,59.744718,-51.805688,17.737417],[-72.947116,60.83403,-17.310887,-66.156433,40.683361,23.846617,49.402678,-74.664713,37.611492],[-78.857456,5.966154,49.355299,-41.903331,-58.288774,151.416781,53.070517,-181.000195,81.321869],[-71.962357,12.131469,37.501761,-146.370848,57.387132,142.264678,175.821461,-111.077544,-72.161262],[-66.645511,189.597453,-98.76788,2.511895,147.398938,-193.868714,95.115193,55.581522,-117.963512],[-40.615685,47.547483,21.202915,18.884244,-104.269237,26.526589,17.725477,10.617986,10.20966],[-81.493357,118.89862,-68.121354,118.019456,-193.447946,-159.833478,-79.411106,173.799736,190.785716],[-99.907218,-87.91053,134.198141,-15.728475,45.857186,-73.10277,40.292042,51.933623,-28.610153],[-94.996778,-37.766651,48.223552,62.736959,-7.48039,-55.993572,-23.848126,57.584512,32.733599],[-65.744095,-41.769646,44.423137,12.29746,-33.249086,-151.793103,6.577627,124.211138,76.8006],[-79.634701,-70.202942,126.484049,39.531966,20.321758,-149.994797,41.70847,114.527628,-9.76072],[-62.124961,31.283367,25.73985,223.395969,72.820791,-38.372848,-158.450859,-86.371051,6.147024],[-60.538127,88.681151,-78.69491,57.560632,-148.475879,184.52409,-51.235755,-140.944764,158.663611],[-36.302954,-47.265474,-17.827994,-118.024916,25.999526,60.85399,70.397484,-11.603694,-6.608766],[-61.193693,77.492861,-115.454064,-49.377185,-12.460355,52.822265,69.159083,-1.968601,5.208924],[-17.111495,52.28062,-106.398787,-79.649922,65.85194,-24.010588,14.391992,55.79699,-37.397116],[-55.007793,-22.677882,-25.682929,0.06285,47.843518,-44.75153,36.013021,94.327303,-52.848739],[-43.052107,49.40825,-102.365336,-66.953895,24.0602,70.590166,84.568292,-81.991604,38.687762],[-80.497215,-105.868651,136.563917,16.427291,32.606966,-144.404282,51.488802,139.708833,-19.910522],[-62.318057,22.081985,-17.294262,-73.456191,11.591461,60.199755,64.988946,-35.684266,-14.766529],[-2.88253,-91.497251,55.944145,28.335267,7.543913,1.466856,-124.260739,19.684017,24.556234],[-30.354037,-16.823703,-49.497492,-60.374637,113.128604,38.658351,33.124373,19.353624,-123.607194],[0,14.192197,-25.452089,0,100.54243,17.198902,0,9.804103,-100.438529],[0,-80.839361,49.998163,0,58.923131,-41.832259,0,31.709444,-34.623274],[-32.207499,-46.894436,-15.803645,-67.788742,68.841667,-51.47443,14.265285,101.518245,-47.923598],[-56.167654,-67.048918,69.9308,-3.118905,-29.819166,-158.06357,-15.833698,151.208003,78.013645],[-96.393619,-2.753077,-14.505509,-52.965393,-6.989436,66.33302,43.436682,-65.165621,65.947164],[-1.110192,-60.198268,31.135493,51.43259,64.826954,30.495524,-82.212926,-59.712063,-27.387346],[0,0,0,39.26711,108.522518,-15.421043,-63.66611,14.562932,-85.972713],[0,0,0,0,62.677786,5.731209,0,32.350076,-73.799662],[0,2.704779,-68.850718,0,103.768777,19.158201,0,15.224333,-103.167414],[-24.993723,4.597393,-87.89978,-36.202296,67.307051,-39.966906,4.273427,62.198563,-28.268097],[-75.595225,-32.818858,60.523332,43.495384,-24.344325,-69.070604,24.332223,48.488995,23.448878],[-67.344636,6.729045,48.18191,-88.840917,-19.160269,137.015555,96.04135,-180.312189,49.999497],[-36.141005,-26.712578,44.303242,-31.791049,57.408564,100.234406,-50.065891,-43.304558,-41.793039],[0,0,0,-85.111301,56.029545,68.703221,18.02431,-30.688444,-59.878685],[0,0,0,-4.323459,104.267279,15.173513,-6.507675,4.475496,-112.528556],[-35.615748,-26.202878,-8.154534,-10.165298,82.990138,44.023678,-5.018692,24.496908,-106.617548],[-0.471442,77.652032,-89.350298,-68.436628,-28.086249,45.38638,39.005114,24.493102,-5.758867],[-89.744558,-86.991204,101.453905,58.073487,14.08342,-81.982342,-2.497013,69.394589,10.040228],[-54.73053,-4.719015,-25.727732,-113.124437,-3.700723,197.687339,161.131958,-163.932882,-21.220381],[-47.533636,-85.71277,59.343165,17.251896,61.315182,-89.394101,-88.655982,64.857688,37.755451],[-59.545018,-5.858153,60.734873,-5.337451,50.302197,80.735444,-16.859138,-64.380237,-46.689715],[-21.078159,-40.256853,27.252362,10.805769,27.886666,73.167261,-52.770653,-20.094294,-40.525192],[-33.619265,-68.864127,54.557043,75.839417,-2.763893,-10.886615,-98.585426,52.776976,-6.17506],[-40.731795,-76.889736,45.030109,-60.885854,5.336213,33.795842,20.165374,49.13009,-13.954587],[-75.831883,86.385767,-30.885229,57.412275,-159.702595,-164.780029,-53.259263,164.92822,169.715998],[-80.241401,236.648235,-144.623583,61.161172,100.887898,-102.943064,27.651264,-39.841554,-12.701653],[-45.251569,-4.736361,35.899533,-100.101005,11.671835,143.777547,118.643908,-135.477348,-19.25818],[-51.670834,14.212274,8.556681,-77.266466,-16.955882,110.409828,28.065661,-156.217337,103.22778],[-53.624408,39.01251,-19.384638,-25.057329,5.21985,49.021616,40.399046,-85.383524,29.072665],[-86.699605,17.261843,4.660292,-104.677071,29.592888,67.698418,97.803634,-56.01173,-3.131575],[-56.360021,70.37329,-84.238449,67.889175,-135.233455,171.936349,-38.472446,-181.582174,182.02611],[-73.01266,46.27098,22.070832,56.419845,-107.568968,33.152183,35.237924,22.338226,-7.783279]]},{"key":"late-b","minEmpties":7,"maxEmpties":12,"scale":1,"bias":759.593818,"tupleWeights":[[-17.937632,-9.043493,112.020694,242.16929,-15.832558,117.926276,-62.534877,-157.639556,-129.22882],[-14.643932,-279.209239,387.981184,-130.047386,-41.002323,18.079006,148.928193,18.693107,-67.812522],[-23.973071,-16.94148,36.862931,-129.019308,-117.947351,-18.843355,162.885842,91.5004,59.545378],[-1.185523,-26.578263,48.897979,-26.641796,-94.563868,56.019349,24.862771,28.524113,47.41065],[-34.60072,-118.833387,150.086625,-54.748415,-113.481142,85.502656,113.991829,2.521686,31.89491],[-35.710732,-75.999778,158.205304,-234.852193,-52.935374,52.345392,285.226913,20.239609,-47.641648],[-75.062527,205.585823,-25.98598,40.869379,-74.139936,-84.448879,129.239283,55.547674,-88.651116],[-65.792411,3.636714,102.596303,44.107859,-64.694956,-76.143701,78.945758,45.282624,-24.494306],[11.882878,-24.804439,52.500898,-19.457913,-32.078925,22.754863,35.667969,75.020596,-53.064974],[-83.318629,3.263362,42.035753,-14.527866,43.747644,-34.7073,52.173438,57.80274,-58.69292],[-30.104094,6.76502,-0.125608,-22.112512,76.181719,12.652629,-3.887675,10.757627,-73.162444],[-15.690348,-46.212127,17.160977,-14.874651,32.048569,87.537356,17.339503,-45.891827,-47.910008],[-70.602221,13.454712,40.835303,-21.00332,-40.736947,41.669937,88.183113,-1.216178,-40.125649],[-54.22234,48.513705,80.765628,39.063306,-83.407107,16.459642,100.200256,-126.190421,11.653908],[-57.290368,-23.298875,79.259625,3.272727,-64.638576,-190.396195,73.172525,112.983372,70.719305],[-35.539137,-20.606266,38.233313,-73.010261,22.930142,-0.64354,55.409173,-2.40314,-24.502924],[17.307746,-102.847905,59.260514,-37.184576,71.313293,-58.848586,16.619104,106.61363,-92.312677],[7.700607,-19.27873,3.031082,-9.810996,140.415269,11.363864,15.112949,-3.898064,-120.801377],[-32.675706,20.42972,-0.02225,-96.404825,31.758632,126.07326,106.016154,-42.929332,-108.264785],[-10.159938,-122.652205,107.974529,-77.189859,13.225953,12.342036,63.092007,26.735244,-55.452957],[-25.464956,-14.305573,47.567645,-48.70667,-59.069968,140.546374,93.677584,-168.743254,45.896885],[5.029149,-47.319389,79.852204,32.057593,-7.956966,-169.488841,-6.834192,141.15899,-4.757466],[-1.410657,-11.6161,38.647612,-19.620698,104.539881,-30.17916,28.687611,48.535619,-128.103789],[0,-18.467011,18.582124,0,133.200778,14.119853,0,-13.04048,-125.385273],[0,0,0,0,90.790612,31.020543,0,1.786175,-113.635717],[0,0,0,-25.666834,132.671756,-32.127512,8.758385,12.63352,-94.417015],[7.206231,-35.943356,13.627835,-46.072414,133.015583,29.865483,53.983525,-36.482179,-113.553532],[-22.543385,44.257921,-3.852133,-10.464306,-16.425089,141.712402,33.118558,-168.266328,18.266887],[-44.312422,-12.689996,71.608553,48.0423,-16.055164,-186.780979,-12.206096,115.72073,41.424449],[-12.087398,-54.950058,39.768728,7.252762,93.152558,-32.005106,13.729846,60.875479,-112.794732],[0,-15.229429,28.209772,0,93.434799,40.423688,0,-6.141088,-115.06247],[0,0,0,0,100.99007,-15.643516,0,18.571031,-90.028377],[0,0,0,-23.962682,134.544604,-9.138561,21.889942,9.71672,-116.130588],[-10.135582,-23.124817,24.18082,-54.379274,94.780071,67.615686,23.683142,-15.742463,-118.249643],[-26.224896,46.275237,-53.651123,-64.521684,10.854766,128.851244,84.689347,-175.818797,17.283644],[-38.247261,-59.140689,120.027857,12.144499,-40.914061,-178.711441,9.820965,119.585695,43.603679],[-17.247096,-46.887632,36.455279,-93.46462,-9.764697,44.084585,91.910576,6.633289,-31.379751],[8.408053,-107.323125,88.537151,-9.064602,70.336364,-97.044517,14.758095,114.220991,-78.41322],[-18.906115,-1.675525,17.169173,-37.925435,166.606789,-2.28939,37.607678,-29.133161,-125.084536],[-7.600165,-29.790195,29.480686,-107.886622,74.357813,91.173121,66.820694,-58.178269,-92.01495],[-36.212455,-79.357516,63.18505,-42.530252,18.700654,9.618277,58.325532,-11.966453,-20.634259],[-2.107693,-25.608878,45.102219,-35.837543,-70.266175,109.727035,83.338534,-186.158516,78.955188],[-61.678641,47.139431,91.986469,11.614362,-72.110265,-44.957714,131.078773,12.260405,-43.466438],[-53.509295,-53.716463,108.953804,21.788116,-18.116706,-18.13961,11.579398,80.622233,-54.105507],[-41.364385,-15.978155,17.005579,1.508459,35.745598,-36.285586,33.489296,51.82006,-45.165534],[-6.995265,2.558202,6.960684,11.143662,63.451153,-6.493726,19.083621,12.58124,-72.432068],[-27.929784,24.192022,24.777294,-45.322515,21.976318,90.914547,50.191927,-41.615707,-64.38162],[-90.670286,6.909787,39.120924,-44.63346,-22.872715,66.625197,101.339867,-8.364927,-53.258093],[-64.303298,8.276528,105.950037,33.831622,-52.823967,6.736669,130.726725,-43.856596,-68.575166],[-48.136775,6.398305,108.173524,210.030752,-79.867573,93.118825,-21.485494,-92.490808,-82.022922],[-47.492033,-198.644796,302.431721,-87.846271,-78.14756,5.6533,158.983737,61.023652,-51.197724],[-25.196425,-65.62503,114.9763,-98.318004,-100.117646,-35.444938,112.107058,73.652557,59.90552],[-30.105284,-57.640119,66.678786,-10.493503,-96.757151,2.416528,56.231362,31.264104,64.965002],[-35.689907,-110.831218,158.021107,-37.875034,-114.596706,49.892855,98.062601,-36.195654,63.653405],[-12.319843,-77.894475,127.005902,-260.128862,-29.536449,1.049278,343.293197,-1.707393,-44.098684],[-68.256308,272.55017,-60.802425,32.784008,-26.169647,-140.504602,120.95346,73.38771,-123.142108],[-40.487904,15.023785,112.614732,243.56448,-27.028549,133.638172,-97.625194,-145.659278,-117.103393],[-15.106829,-250.02853,307.193126,-95.575469,-53.93703,33.973137,148.37838,14.882253,-32.031264],[-5.412444,-42.437139,75.700765,-104.510539,-127.990912,-26.525421,162.391439,67.728943,57.057404],[23.16487,-21.10342,50.975447,-21.055409,-129.308944,62.456456,40.019167,13.784401,57.221739],[15.291074,-84.0883,110.595912,-65.877733,-118.22251,43.686589,96.075104,5.63168,56.129578],[-7.720367,-66.385358,127.778715,-213.161868,-54.667103,58.053594,286.310511,5.018511,-58.734728],[-39.813805,220.743012,-28.144189,16.664491,-67.204693,-76.61131,96.550371,67.294616,-89.394342],[-60.399079,12.343936,142.447795,53.007076,-68.844249,-102.193268,73.215337,40.94453,-37.980428],[-32.065491,-36.661948,74.626352,-5.01456,-12.445353,-21.306677,45.46938,54.362099,-44.984995],[-24.231163,9.107434,15.469077,11.926902,30.153931,-41.347496,31.9419,50.232777,-57.241644],[-16.15411,-7.214839,44.193491,19.671573,57.905548,-2.744188,-20.37637,4.294161,-65.111823],[-28.131158,-43.846919,50.989172,-34.647718,50.302823,36.233448,33.007153,-47.00234,-35.785682],[-45.095576,16.008911,11.134496,-46.829506,-35.537597,90.930855,96.26947,3.007785,-64.210278],[-49.969325,10.832776,106.261712,30.056844,-71.564029,27.475034,89.662256,-89.602105,-13.114255],[-28.394295,-52.951237,76.034948,-13.926456,-54.871213,-195.338414,56.176426,136.505252,78.764061],[-5.7126,4.661289,-0.76645,-93.347976,5.020341,30.192017,52.258552,10.807692,-27.673445],[15.830478,-87.131818,35.714047,-5.851039,67.257165,-63.227798,4.884854,97.107587,-87.196373],[1.366026,-11.762729,14.949233,-7.689017,137.545877,10.467522,29.006867,-5.187083,-129.831728],[7.672802,-6.617981,22.282814,-97.320928,38.153687,129.605695,80.337072,-62.297048,-90.750589],[10.802549,-101.097388,68.427741,-34.888133,-3.58531,1.89955,4.11027,44.074565,-21.753649],[-45.89067,-26.169578,52.581222,-51.901551,-51.043504,128.571061,99.588661,-145.471,39.101602],[-24.351904,-61.75354,91.65884,31.757273,30.461202,-165.673997,-14.938454,130.01339,-11.09358],[-45.053647,-43.897424,43.784876,-20.239127,112.972301,-17.04403,32.133955,58.113666,-133.962599],[0,-23.187794,7.628016,0,138.489183,16.984805,0,-19.969837,-127.069518],[0,0,0,0,83.919646,37.478885,0,-1.706656,-108.563308],[0,0,0,-13.901828,116.113652,-32.648755,22.944992,37.942864,-110.261399],[20.980883,-29.556837,30.579794,-29.023318,112.964636,56.494015,25.114382,-36.562193,-117.004366],[-18.365477,45.548011,-16.26365,-72.905169,25.31943,113.298682,67.196479,-188.954363,33.748753],[-4.564206,-46.889085,46.563376,11.822911,16.908457,-174.096321,-55.173055,141.405204,21.514464],[-7.897941,-49.35208,15.195062,-21.201908,108.34341,-9.061805,42.027274,48.631455,-121.511019],[0,1.957854,7.983678,0,103.362371,28.438055,0,-10.642992,-108.892395],[0,0,0,0,112.655725,-18.861186,0,8.039145,-89.406617],[0,0,0,-30.991294,124.639696,2.251735,28.856616,20.9222,-128.566879],[-9.658017,-14.283457,14.977749,-4.639984,112.287335,37.210848,31.87665,-28.157533,-118.966554],[-13.883184,49.066144,-2.520899,-69.203201,3.209097,147.582175,86.886836,-177.684267,0.939424],[-11.033592,-49.088684,84.390741,-7.739397,-54.281113,-165.412009,13.503732,100.718691,74.66493],[-9.37364,-44.277723,45.505808,-93.21238,4.752096,3.248853,95.878731,11.051111,-19.329237],[-25.666785,-85.972101,80.936079,-6.989105,73.640827,-76.958134,-4.52534,95.1892,-80.20776],[-1.842448,-16.697004,1.303228,-2.053821,139.535736,4.272891,0.287978,3.451899,-124.235787],[-2.44926,-3.979167,7.198421,-122.57188,79.95876,90.552171,80.699977,-65.637366,-84.97245],[-46.284559,-76.418812,64.650128,-23.442145,4.743502,20.363097,25.293462,21.04663,-34.120999],[-27.754924,-58.993763,70.00578,-60.847365,-52.584095,125.562725,104.261298,-183.396016,65.889462],[-62.585826,14.740231,71.473521,56.793854,-93.751661,-49.233534,83.754288,63.135108,-21.30234],[-28.386584,-17.971715,67.837468,-29.459339,-34.587381,11.792615,58.211626,77.976656,-61.40633],[-31.141279,-57.114081,59.877537,-28.460092,54.515226,-43.436631,68.711817,65.484663,-76.382265],[-41.766926,28.85485,8.869985,11.494196,65.523904,9.670503,-16.118371,-24.17738,-59.826556],[-20.841523,-5.678838,-11.340373,-52.188024,40.857703,59.726485,70.202049,-65.675967,-33.805292],[-58.516111,8.997777,48.936541,-55.456213,-19.875668,52.464094,88.800261,-9.275122,-44.48653],[-69.97328,21.523116,99.176333,4.074211,-41.957781,21.703668,128.516539,-70.110671,-41.878586],[-45.891192,8.351905,125.94343,217.914326,-85.319098,62.656491,-14.283754,-117.208892,-79.330545],[-1.262029,-213.626497,293.471056,-100.322519,-76.918933,-2.615079,144.621255,48.09376,-32.315641],[-17.209098,-84.384786,117.329578,-89.175992,-114.214352,-40.555628,102.246468,79.198458,69.856157],[-6.51726,-18.813771,30.33082,-34.062454,-122.797847,36.303199,50.905445,52.990646,63.101568],[-43.359771,-109.121997,154.97077,-43.794976,-126.899492,82.383689,131.070328,-53.702951,48.395325],[-9.899789,-66.917026,134.685685,-240.431831,-55.902982,-22.644711,353.976069,17.246665,-66.752205],[-46.199207,263.545159,-38.153063,45.525591,-35.253734,-135.761003,91.649369,98.226192,-141.910983],[-17.695069,9.070336,66.096664,288.319499,76.505559,52.475918,-174.479951,-184.48474,-76.315467],[-30.279293,-137.057434,241.207607,34.549024,37.458299,-201.041245,15.848237,100.790915,-53.299169],[-28.315011,-12.571559,33.345845,21.204445,-44.893975,-203.875428,-1.869526,179.244206,57.330106],[-17.40843,-0.561319,23.626653,33.542748,13.496399,-143.069823,-55.934231,99.8386,16.412597],[-3.768404,-58.843516,59.693064,23.742778,-32.499477,-117.015157,-36.539215,72.039056,68.40089],[-48.876062,87.508756,-5.938442,80.774787,-167.884468,-107.94891,-4.645277,99.103473,92.150888],[-29.010181,58.777711,10.837905,113.145815,-219.879767,6.156544,21.774472,-7.883531,65.783698],[-27.285334,-138.000483,187.746427,41.14082,26.83707,-166.045166,24.671311,113.391159,-46.142796],[-31.814195,11.977166,20.300383,-50.178285,2.464111,-21.109975,45.064865,3.541263,-2.232631],[1.548318,-19.237782,22.031753,-12.180196,74.441407,-60.65586,-0.653713,105.83302,-88.388271],[0.137446,-35.041874,27.8497,-3.651524,92.897215,-7.437624,14.07825,56.09647,-118.551336],[25.780088,41.594197,-87.356969,-37.660393,50.869396,59.39733,20.690932,-80.088182,-17.200865],[-18.6704,-62.311095,58.455885,-44.394782,-8.308281,13.040299,51.011141,54.867608,-43.394652],[-22.927724,66.8085,-8.513909,80.945847,-157.718148,87.300199,-12.778561,-130.169807,116.659328],[-3.627271,-18.263195,42.102027,33.324107,-51.459594,-208.421761,6.540145,167.454857,53.912795],[-15.019789,-27.434555,37.479388,-13.850126,80.917858,-87.548007,32.756772,81.424026,-85.144244],[0,-85.746027,43.750754,0,78.975506,-76.854395,0,60.042823,-50.96551],[0,1.727693,-17.794735,0,110.879672,44.421156,0,-19.580841,-114.714322],[-13.02059,-18.651581,30.327206,-4.952519,119.042914,9.71847,-5.544501,24.767952,-139.86057],[-18.763049,-54.266253,70.23777,38.82856,15.747977,-41.187186,-4.780274,86.208203,-65.910623],[-36.723601,10.875181,15.498189,-38.952935,-38.890623,92.5854,57.251426,-127.7543,50.057235],[-23.929366,-16.86018,70.176679,30.192326,1.275597,-176.841059,-23.159498,90.577594,27.949785],[-11.138567,5.864914,26.625546,7.666162,106.592714,-45.343836,14.992434,24.125902,-90.169142],[0,-4.861977,4.579317,0,99.160782,49.102382,0,-18.323938,-117.919577],[0,0,0,0,106.259419,12.016399,0,12.270686,-115.736513],[0,0,0,18.163711,99.945175,-12.244714,-20.791055,41.583796,-111.421066],[11.268424,-32.246408,8.171672,-13.262818,106.064312,46.839552,-19.22858,-33.632045,-90.299862],[-23.463335,67.394451,-21.827496,-40.436312,1.977406,137.181023,62.223271,-169.674426,4.016685],[-23.730632,-18.267633,68.344111,-12.932825,-33.443772,-134.660763,15.528552,65.885135,58.895532],[7.926669,-12.375734,-4.356458,-74.427403,8.588756,83.410952,54.227144,-31.904893,-44.577438],[14.071501,0.210082,10.537598,7.856908,128.917851,0.309479,-8.794158,27.895468,-138.833172],[0,0,0,-25.947507,100.490731,-18.476153,18.650264,40.635129,-111.339917],[0,0,0,-107.929031,54.671135,93.115559,68.679408,-40.946918,-83.194142],[-1.485323,-44.629674,38.295438,-20.777394,54.58302,101.164179,30.57495,-64.706398,-86.770962],[-33.839246,58.461937,-50.837203,-38.766521,-48.366167,173.019318,92.95441,-230.694403,56.765032],[-31.311749,110.222297,-24.230417,69.285186,-163.1813,-93.048598,-7.617943,82.787169,85.698679],[-36.037453,-24.82868,29.819136,-35.916555,-14.663271,45.627847,32.266444,41.438445,-47.44349],[5.350934,-59.643475,43.997216,26.37725,-8.325038,-22.406464,-25.832378,100.535342,-52.466663],[1.551521,0.001571,7.838312,-3.224041,117.133489,43.825337,25.025821,-49.459085,-108.758434],[-29.643213,-19.212154,34.060282,-58.583125,71.541843,104.023601,50.428551,-69.628997,-91.98323],[-33.40938,-39.06956,41.678371,1.058553,19.792692,-13.325078,18.569496,-36.55751,4.676261],[8.085311,25.44158,-9.413858,-158.437854,53.56172,81.708286,243.414551,-168.310633,-72.311839],[6.352521,71.644603,5.667873,73.270039,-197.332781,14.325362,-1.028419,-21.54731,50.597037],[-36.701448,88.283434,-18.592281,109.07489,-168.44493,87.26214,-38.171352,-108.479551,112.98025],[-74.200517,35.9997,6.314785,-29.896244,-39.922028,89.518939,60.93043,-107.407911,43.426397],[-21.154864,50.40328,-24.789681,-26.473096,-3.747195,109.612172,53.661067,-163.789121,31.29569],[-4.841434,50.247563,-17.652839,-43.924354,-45.184583,184.160158,68.007346,-208.162892,33.93959],[-35.390276,35.443452,9.509574,-165.842092,53.201777,108.796082,242.243623,-181.793884,-60.539303],[-32.410041,222.51417,-85.78145,15.237295,74.090851,-178.816914,66.246256,65.260597,-85.736722],[-32.282151,108.548967,47.069347,98.82934,-235.360081,15.916015,-4.350999,31.066979,-4.932863],[-57.878776,80.64139,-22.750892,107.324976,-171.748828,-133.729163,-24.32899,123.669557,122.471913],[-55.592713,-33.354219,76.84846,57.856629,-19.437518,-120.063995,-2.597192,64.23215,32.536224],[-33.242674,-2.4848,15.367889,53.350203,4.720165,-161.669142,-32.282331,108.681287,34.754202],[-22.629581,-20.379231,66.306001,35.895039,-10.926926,-223.3846,-46.40537,150.757567,44.069581],[-16.624925,-153.655033,164.073102,55.844094,10.265655,-151.510492,-31.80608,122.481575,-15.314112],[-4.116856,52.368054,19.526113,280.215052,-3.705233,-1.562926,-183.236304,-128.34621,-12.002529],[-38.295629,69.934992,-8.423687,98.293909,-175.425971,105.700649,-35.067158,-110.550343,112.829511],[-16.022824,-69.027899,74.138872,-45.596153,7.969182,18.503754,53.371757,34.044831,-55.238305],[-9.299389,-3.128514,-1.589938,-57.164854,34.351001,78.596381,23.106674,-20.920347,-62.187618],[26.687089,-18.582927,-24.012428,-9.960105,120.361664,-29.105046,-18.346062,35.753902,-93.45488],[-3.720298,-41.61501,30.209502,-30.649463,54.794836,-73.686408,40.826301,104.877882,-71.69708],[15.64791,0.476301,25.413138,-64.485848,-11.154698,-11.322561,40.452527,2.138652,-7.975446],[-9.204485,-105.45098,174.112986,41.22739,-6.56577,-184.597471,-17.46578,135.672896,-23.312964],[11.04511,31.262522,-37.437856,-12.36974,-45.694327,75.827463,51.237574,-123.936747,48.745309],[-18.546901,-30.931095,4.415379,39.622694,26.342493,-30.933909,-6.201496,60.08469,-45.795608],[-15.60982,-7.539181,-4.679692,11.59617,137.752885,10.813473,-7.345378,8.054463,-135.644929],[0,20.52528,-11.791507,0,114.049101,12.307418,0,-0.040506,-111.457679],[0,-104.806208,99.248624,0,66.78309,-73.082008,0,51.725373,-45.662672],[-28.828207,-36.025602,41.754699,-11.217568,77.256394,-69.977939,16.768898,87.461511,-85.001375],[-14.37001,-30.636381,64.188741,41.417517,-27.068776,-214.913352,-8.534589,167.094466,33.156853],[20.777239,1.08677,7.444301,15.194832,-20.368877,103.675582,10.378397,-155.614764,38.558846],[-11.084454,-24.128051,28.136732,-4.467114,103.995168,41.560106,-1.415944,-38.375185,-99.769284],[0,0,0,21.479475,117.492027,-6.464877,-2.390043,14.957016,-115.647302],[0,0,0,0,102.110654,-13.39802,0,-22.125225,-62.616919],[0,-24.806552,1.743248,0,137.308705,8.40745,0,-15.800712,-105.497395],[-9.702826,-5.050985,24.094919,-11.56741,109.757651,-30.422735,17.281556,34.20987,-109.682394],[-36.179159,20.500577,5.415853,2.636339,-21.483799,-139.904915,-8.373919,103.467351,44.368997],[-12.060056,31.27449,-26.460624,-67.046652,0.778025,131.893195,104.290551,-223.946159,38.177752],[4.541509,-14.155719,29.404893,-52.071792,76.709451,87.039236,28.075882,-71.228996,-74.32287],[0,0,0,-92.059502,36.738843,71.205301,77.414259,-63.684965,-37.735421],[0,0,0,6.836549,110.775216,4.386895,6.738178,46.895363,-138.057051],[13.052655,-0.997335,-6.737031,-35.705556,137.395061,7.796846,29.688777,3.774642,-128.273902],[-10.023943,13.824712,-38.310422,-83.067263,31.488441,65.543224,50.762199,-27.289706,-47.481616],[5.582295,-49.777604,57.678089,9.587016,-24.623925,-124.060373,-3.459859,62.956066,54.673494],[-24.229945,56.672173,-33.972454,-116.256478,23.986552,112.290002,189.16831,-165.164503,-42.553201],[-16.153272,-53.577936,53.10655,19.725266,-12.849225,-34.532563,4.673063,-3.683801,13.050026],[-0.193692,-12.061838,17.527093,-25.481735,77.532068,106.106054,8.774444,-76.231602,-91.496343],[3.770579,10.125156,-14.332604,3.024562,88.177011,53.357107,-2.912979,-34.680379,-95.366385],[12.972423,-70.9061,20.133017,33.797051,42.385482,-45.102299,-16.554945,51.951284,-50.739382],[-42.067468,-41.858392,70.473362,-58.553141,-9.121558,27.154731,64.852751,37.003851,-50.181127],[-46.013252,104.210198,-11.375622,32.685259,-172.771662,-106.040013,23.628437,102.968859,92.675443],[-5.071351,258.06164,-141.841921,40.199287,21.578224,-131.368218,17.439109,-4.979728,-18.253074],[-22.305795,40.004785,-16.9592,-125.849839,0.661517,138.492453,188.562808,-162.593259,-45.812606],[-39.760024,46.104291,8.922472,-30.292611,-15.102419,132.181671,69.483048,-215.722593,52.724873],[-3.826744,63.154894,-31.813025,-9.062045,1.119141,105.219107,0.120437,-162.687542,40.281124],[-54.750476,-8.221328,44.922835,-50.608527,-36.392885,85.768612,90.162291,-112.376454,32.247472],[-32.04396,41.811636,-1.733499,82.761946,-144.998544,94.497325,-25.552621,-118.757342,114.604575],[-2.210781,95.571611,36.201689,95.160052,-166.469858,-0.607974,-0.06775,-7.531604,-15.015407]]},{"key":"endgame","minEmpties":0,"maxEmpties":6,"scale":1,"bias":-361.112148,"tupleWeights":[[60.592355,22.262441,88.514489,284.908094,-128.142867,110.849002,47.811435,-16.003176,-153.76754],[67.898801,-123.885009,397.138375,8.032595,-134.287529,59.86234,196.882214,-0.375893,-93.276406],[105.874531,-41.663618,221.517685,-34.46311,-148.872151,-24.493956,189.719152,82.250599,-4.019461],[70.70217,-1.67831,181.479357,-36.549505,-145.748987,74.328863,179.037047,18.377264,-2.368021],[60.189753,-35.107903,185.818385,-56.709378,-153.034101,81.156554,220.685443,8.947812,-2.421104],[55.720906,8.610984,175.556855,-94.554756,-115.410395,-39.677822,377.936722,18.724733,-75.877158],[76.838632,270.938088,54.140575,26.44615,-129.62357,-24.904477,38.111487,67.381161,-107.818038],[75.169945,-0.856187,264.705774,234.936984,-110.855983,-59.736373,21.342007,38.622993,-91.773036],[10.860956,-102.309177,323.719637,38.86842,-41.831407,-67.87236,90.208553,34.479929,-39.015843],[60.209781,-69.18564,159.506961,21.625518,19.964492,-96.338712,91.90112,-2.645729,3.951592],[14.153229,-4.256789,131.169371,-14.113725,35.257067,-34.690073,146.926577,-22.164988,-45.639805],[69.612067,20.283738,100.223026,-58.668048,22.468122,12.623774,166.088733,-89.008119,-19.504463],[65.847972,40.968056,70.397409,-126.290809,-36.567307,56.10424,319.684248,-82.8774,-50.335436],[29.159384,239.49236,47.88878,68.458916,-158.92389,49.408057,198.966475,-45.137863,-75.474707],[47.540534,-116.289708,277.379473,98.319199,-41.557136,-152.10916,4.957638,62.739499,13.108326],[12.831872,-74.291455,165.035583,-12.054268,0.544859,-32.312535,92.520992,-37.091088,21.135],[0,-107.782306,168.539827,19.077583,53.178315,-105.434489,39.62644,71.887543,-35.430923],[0,-9.349401,61.859508,-1.048405,124.125986,-13.074221,62.497938,-10.731892,-113.044589],[29.424981,16.274811,44.540651,-97.438978,61.191223,62.484507,189.493461,-147.352426,-11.966759],[24.914341,-16.048184,125.995075,-70.409282,-3.37439,-68.8432,169.209158,-32.367537,33.409772],[28.99182,127.115587,2.944446,-92.62148,-59.053346,68.216853,292.539521,-186.802672,26.023346],[15.998318,-115.610902,263.156735,98.319237,-0.695635,-171.449237,5.349017,83.167948,-5.894308],[-1.760449,-41.349279,129.696514,25.489154,126.711272,-86.166431,23.768171,6.5921,-71.104623],[0,-18.458832,58.948895,0,151.245737,-27.019769,0,30.861463,-155.022469],[0,0,0,0,163.259239,13.153672,0,21.196701,-188.913699],[0,0,0,-12.399471,158.423941,18.905401,64.503862,-44.382145,-134.463171],[8.82416,3.6277,49.907224,-62.08487,103.81067,26.195041,161.944932,-83.20536,-73.964454],[39.722512,86.297583,23.228033,-113.456745,-28.374104,84.896963,234.541836,-169.429311,8.957519],[35.628549,-87.97348,232.687255,78.165654,-31.710089,-186.61796,31.669282,78.159811,36.58298],[1.678375,-30.955354,142.422987,12.477634,86.24787,-70.968415,42.23487,37.214218,-79.159168],[0,-13.007126,71.207179,0,135.516082,-21.814863,0,35.125064,-148.698962],[0,0,0,0,175.870736,-17.709704,0,10.498835,-173.745802],[0,0,0,-29.22958,150.245513,46.880873,85.751492,-34.779923,-163.450827],[-2.435104,17.537087,37.344897,-50.941576,119.851959,10.048955,173.874382,-109.038249,-56.349286],[49.753599,131.831514,-2.525771,-80.301802,-37.447448,75.624301,267.53585,-168.194156,8.184142],[30.03788,-131.879004,287.296519,94.187827,-66.639371,-179.475183,31.308632,82.309463,19.681948],[32.517396,-46.384267,149.133826,-50.00749,-2.031614,-31.245022,123.824116,-68.511491,44.740783],[16.573855,-102.853815,170.727271,-29.126291,54.098963,-131.116887,53.423732,83.029192,-25.132689],[0,-50.897692,77.426244,-24.305721,143.453932,-21.282424,74.729641,-38.164904,-95.307575],[34.507159,-4.760403,52.602887,-56.560517,40.261609,67.041897,168.402129,-120.140288,-16.438139],[38.176327,-0.463106,114.269088,-75.084636,-14.761964,-52.586178,189.440096,-29.167942,34.904176],[50.251423,90.029299,40.067358,-116.892276,-60.535831,70.091185,276.617362,-148.680475,12.262446],[31.45825,27.208061,253.135601,227.775323,-145.020342,-64.504673,66.834602,29.971254,-80.830369],[33.853571,-102.470774,323.137403,24.794367,-60.028783,-80.791393,93.575575,67.434603,-57.716947],[38.956926,-79.044876,175.048576,23.804171,27.660401,-112.507071,106.868234,-12.587493,-12.772036],[25.908224,11.238461,120.347516,-14.05925,21.338714,-11.057207,100.039842,-27.076691,-44.403638],[31.047202,28.700773,56.197494,-71.064898,18.144298,7.608404,190.906545,-89.799541,-13.437038],[64.642604,24.076433,91.791084,-86.904099,-53.802874,53.923038,307.997019,-58.144843,-53.009211],[49.081371,209.240758,83.669106,10.390377,-113.789998,22.081746,265.774012,-47.056835,-94.968871],[68.205724,36.640327,55.537361,250.411555,-138.966802,99.482934,55.452049,-27.301595,-113.835796],[47.759353,-92.18686,357.816827,-18.226132,-113.007605,18.259325,183.324644,-1.041122,-71.292158],[57.27139,-29.756158,185.791381,4.571504,-133.067098,-26.436521,146.589329,85.267918,9.641736],[59.704421,-15.241899,176.528305,-9.761828,-134.296478,58.16582,178.743152,46.780377,-9.742693],[39.792217,1.274045,173.71139,-41.976079,-147.275021,112.875058,209.058602,1.268466,-5.602415],[68.832526,-23.759403,171.628635,-99.349118,-116.223268,14.428703,386.281072,82.687037,-98.996782],[56.066958,290.644895,55.159403,21.823776,-108.929168,-11.246952,60.191462,95.863272,-135.371318],[58.595072,41.18654,75.461081,269.06487,-109.402675,108.031663,73.135975,-22.606585,-166.198681],[51.206356,-96.317504,378.128262,1.104456,-109.742003,63.930176,185.53523,20.412345,-117.464048],[61.759062,-17.985829,197.884139,-28.312799,-121.681053,-1.584096,177.970791,38.545873,-8.807355],[65.250398,-7.663701,165.459931,0.152651,-145.354984,76.10474,156.180647,-2.990986,11.039116],[70.621607,-23.50146,164.420498,-70.90752,-160.016399,83.221927,233.377089,10.189131,6.004287],[64.555584,15.557322,166.388021,-106.920494,-133.489161,-3.898167,365.857518,33.405291,-84.321711],[58.144928,293.832871,37.078999,27.283655,-132.230461,-10.736019,80.512679,61.432584,-118.993409],[39.023455,4.291706,282.748142,210.337425,-118.129887,-80.269863,72.998772,33.095747,-89.273332],[56.089019,-113.717875,316.701816,31.830692,-43.522377,-66.701233,55.760984,64.040351,-59.180439],[46.834507,-69.658306,150.277855,-4.443477,36.109898,-93.456449,86.779635,13.805732,-25.00426],[31.038199,3.864918,86.104899,11.489763,36.211345,-12.400812,101.976744,-39.370942,-45.941049],[46.67404,8.917008,97.378365,-87.036667,8.280482,27.08201,182.125501,-62.339721,-41.220592],[49.621181,43.805496,70.197512,-139.770159,-58.151076,88.185521,350.51599,-83.56352,-66.294582],[69.95288,218.11569,51.269025,7.354397,-140.335751,46.389945,239.912753,-68.897902,-65.812057],[46.454349,-101.318671,284.630649,80.921821,-72.159836,-168.021412,39.322789,68.188464,39.593448],[21.052074,-59.675119,166.96151,-25.541639,0.092055,-49.189638,103.556437,-38.829253,45.044111],[0,-89.411559,153.717407,5.383941,62.395012,-115.109327,37.645381,70.014003,-37.598801],[0,1.280678,44.602963,-25.310867,136.926827,-5.063716,82.422594,-24.84114,-108.38796],[22.058957,9.717686,43.24054,-109.69016,35.612823,89.727445,177.453017,-116.100148,-29.259859],[29.805628,-58.475192,128.014191,-68.327554,-8.067604,-59.856721,176.861865,-31.526776,41.394561],[33.801687,99.956618,31.384236,-128.519559,-49.533948,67.915131,266.803122,-173.837525,35.626568],[39.538617,-108.503036,274.259399,94.607119,-6.355669,-184.28033,39.473923,47.197659,11.375185],[34.139678,-48.849712,173.717334,11.428072,121.59608,-112.035227,37.949633,6.876651,-42.14475],[0,-14.980559,74.185928,0,137.326327,-27.563929,0,41.813867,-157.495913],[0,0,0,0,169.167389,12.775403,0,1.126382,-181.253613],[0,0,0,-54.539164,137.973897,35.053055,80.856157,-15.772411,-159.1886],[19.49832,-25.739434,49.238548,-59.602718,101.129253,35.570786,180.677676,-76.412065,-92.29102],[14.669901,105.66495,44.173583,-106.168213,-24.222854,82.410636,253.558813,-162.256692,-4.893197],[51.303431,-104.210034,235.284088,102.614227,-33.011446,-176.701539,22.983963,82.663107,13.613689],[8.110856,-65.592326,187.570935,27.235068,105.370198,-81.593306,38.016046,23.93544,-77.56517],[0,1.766904,60.958664,0,145.469527,-27.039328,0,33.263807,-150.435989],[0,0,0,0,185.683254,-3.93055,0,12.950626,-182.620591],[0,0,0,-35.205905,139.424613,49.085193,85.737657,-34.317822,-160.642972],[-3.749053,-7.738178,62.81239,-53.472914,106.233057,12.92945,140.332191,-88.116258,-54.186526],[40.380974,95.405776,-3.65635,-89.987171,-24.742128,83.305619,242.970475,-153.606168,7.788679],[35.459416,-139.090486,284.419977,100.727211,-61.222119,-177.530295,37.773594,72.969282,33.473165],[35.119128,-67.536846,182.222735,-37.082087,-1.505796,-36.116999,142.884353,-58.788866,39.14004],[24.548999,-100.02805,188.261236,7.085335,54.809375,-140.540675,39.877577,69.989678,-16.462097],[0,-8.080582,57.759638,3.151577,133.654086,-23.257658,51.326487,-16.007487,-103.869897],[6.389161,14.851883,37.335154,-70.553487,35.992939,84.365376,180.210126,-124.063871,-29.708838],[37.704007,-16.676573,126.863684,-62.155982,-12.663412,-49.681687,182.318918,-30.658777,35.977944],[33.977643,93.810211,54.370093,-129.007531,-51.310136,68.209516,266.011859,-162.89799,30.129893],[61.537979,50.554475,238.473204,227.943731,-154.376148,-54.077189,37.794873,57.256034,-87.189533],[60.661924,-82.934697,284.598842,25.906737,-33.073596,-82.463718,71.915748,44.688316,-51.918416],[19.254067,-53.008223,166.699513,6.691483,25.476124,-81.445855,101.082303,2.056655,-22.345846],[3.150166,-16.297771,127.07964,-1.476666,33.573398,-30.571285,123.824783,-35.243151,-36.508065],[43.6336,16.440475,108.993265,-54.815992,8.201925,3.948055,172.950448,-77.522324,-27.317094],[71.503649,38.238254,77.226837,-92.271261,-59.646145,54.635092,314.96591,-73.195457,-49.085763],[56.917679,216.320302,70.92318,12.175669,-122.454499,35.283649,272.424629,-54.550794,-92.001546],[28.521596,44.159772,62.987839,301.596987,-148.114179,76.898667,40.161563,0.826157,-113.482969],[64.910627,-107.091182,358.724442,25.465008,-126.036001,33.907488,194.699196,3.183486,-86.833469],[71.928087,-54.085137,259.675596,-11.344761,-143.996589,-28.561813,149.185051,57.290918,11.209094],[55.821806,1.724075,145.925103,31.399869,-156.111949,18.148355,176.26756,63.733675,12.056731],[59.002596,7.920986,188.799952,-30.788773,-143.035298,40.988772,217.856913,-13.546031,-5.96483],[62.136772,-9.267693,198.796087,-106.954588,-98.878073,-4.127768,375.790314,53.262822,-110.817683],[54.587745,279.006587,57.877423,35.243855,-100.980315,-12.994015,50.650018,85.804806,-136.133927],[99.617582,0.152909,71.36954,378.950581,-61.995741,40.564348,-127.375613,-76.36462,-73.911729],[19.336456,-189.844116,438.381642,140.422082,-18.794634,-153.796784,14.97514,50.590402,-83.301652],[28.400541,-100.563988,293.520601,110.430166,-48.027272,-199.087633,25.363488,93.033281,11.105637],[40.137157,-70.362108,247.245631,89.534367,-12.565017,-162.80253,41.970909,65.080272,1.737355],[17.771648,-51.988362,209.672602,92.84723,-73.384271,-134.046123,51.431707,45.043718,37.202364],[12.636892,82.916617,123.034613,161.464765,-177.97896,-85.881998,108.47757,67.506256,10.263785],[89.82012,252.602841,43.447148,235.948193,-265.101604,11.660491,26.335265,3.913531,-67.479915],[51.668652,-173.294711,413.842902,114.215532,1.985633,-135.3636,-9.20356,50.830615,-102.620552],[50.700833,-51.617267,275.848723,42.472047,-54.054961,-55.035054,24.760289,14.90076,-23.2631],[13.470427,-103.212059,213.06375,14.452433,72.105761,-138.206947,42.636108,71.591484,-43.756837],[23.331894,-8.543745,136.840006,19.527358,77.361709,-84.849141,40.068293,39.101872,-70.463053],[41.742619,30.935495,99.314265,30.611822,-24.394241,42.071004,81.242012,-71.7464,-5.759382],[33.778368,6.487926,121.470638,1.91907,-40.470725,4.416594,107.997174,13.379392,-33.22647],[4.407821,175.928595,95.356757,124.179088,-177.507142,55.492783,136.299781,-92.081376,11.370269],[-2.859964,-108.73758,287.902672,103.75547,-11.237688,-177.108727,17.711945,95.239546,-14.802527],[-4.11043,-86.658425,179.643333,13.670995,60.075948,-103.818502,38.665549,80.462317,-75.493323],[0,-74.522038,150.691055,0,74.237778,-138.880768,0,119.720595,-72.611971],[0,14.107903,43.570481,0,130.710946,-26.285775,0,36.98835,-146.40983],[0,15.35753,50.678342,13.712027,107.391304,2.907254,40.975497,4.056762,-121.027629],[21.006742,28.588932,90.280517,39.527861,-35.676051,-55.032978,76.021056,50.871029,-11.684041],[9.418216,111.908311,34.915106,-47.927159,-46.442089,31.435201,202.616344,-158.529016,54.016425],[27.516299,-91.630446,248.133153,107.212262,-32.143765,-136.829739,20.687525,80.084771,-7.892155],[-10.36423,-29.995807,131.056726,32.245104,81.834312,-53.260996,34.806626,35.365071,-88.10747],[0,-7.339437,51.298236,0,111.527339,6.420834,0,47.53757,-166.561035],[0,0,0,0,166.1684,12.244017,0,22.438586,-187.731842],[0,0,0,22.504366,124.151783,41.64136,31.850533,-11.108047,-155.420924],[11.101123,22.828426,32.85683,-39.165189,74.404603,41.791563,165.26287,-74.076926,-77.981925],[82.352952,66.509992,14.467909,-45.915355,-28.287686,66.281442,233.014488,-164.698735,5.011557],[36.17558,-19.921593,177.895335,68.850564,-78.379767,-135.618636,49.444704,47.629871,46.848617],[2.773482,55.44232,67.107471,-20.195848,-37.098042,64.832459,108.843322,-51.349081,-10.952797],[0,-9.562463,68.565751,-24.222103,119.352631,-10.51108,56.34408,-5.131958,-111.021827],[0,0,0,-6.042254,117.591151,38.327833,64.826258,-21.017413,-145.083632],[0,0,0,-55.077097,59.798426,145.241278,167.906234,-150.610003,-73.324556],[30.33271,2.047133,46.724235,-83.459385,54.662214,80.593934,203.809707,-107.892296,-72.67279],[59.011396,135.576208,-17.767729,-109.246144,-27.970513,83.451048,279.704956,-181.492641,1.465965],[20.726252,71.243212,132.665676,150.219717,-189.213497,-72.783058,130.89532,55.383924,7.434925],[40.843446,17.583768,96.493526,3.864677,-72.233937,38.859356,114.840463,26.128408,-47.628285],[56.944579,19.563282,57.087091,32.666496,-29.599546,-61.225873,97.792206,46.358698,-1.990396],[20.625401,0.25837,27.332697,-35.1626,80.708266,43.101805,123.243481,-79.633576,-73.129181],[2.795394,5.221823,47.970984,-68.245667,58.820453,61.399488,197.614328,-115.922929,-53.226282],[39.309768,49.460132,69.227347,-87.225292,-52.585736,5.592055,325.94677,-61.308633,-10.379066],[34.071838,129.428779,20.501966,-171.657995,-2.16807,35.295488,413.634112,-144.716081,-92.81575],[76.891616,220.314666,72.992091,195.337123,-241.45364,15.203956,82.472084,-10.270854,-77.426632],[65.540576,166.059395,87.615226,80.931772,-179.866477,58.954947,87.469122,-53.55167,16.969103],[16.803512,92.343775,46.629608,-31.135817,-47.057837,17.789373,194.880077,-136.19086,42.872575],[57.986324,78.1605,46.892021,-62.110617,-40.294502,90.952484,219.449958,-144.432764,-8.626319],[8.57013,101.604358,6.92841,-130.853382,-17.304623,89.715223,284.085851,-201.234961,19.733585],[31.280189,131.126292,31.560679,-170.012507,-0.353784,31.90938,425.360623,-155.373966,-85.820691],[107.871764,351.704757,-90.320282,-34.949923,-53.559696,-49.929519,65.288016,43.25563,-67.770536],[94.816824,217.764688,72.395848,188.712227,-222.103259,7.400365,94.697344,14.430499,-113.883135],[43.11285,72.911553,154.52627,141.283455,-177.520118,-78.992745,109.695557,76.926971,-0.523992],[35.285655,-28.051297,217.170717,82.225841,-44.349553,-137.406487,44.66579,4.73022,51.779338],[34.329334,-80.940924,228.539947,92.283856,-33.290675,-173.571253,41.938675,54.269789,25.533191],[35.719206,-127.947322,293.554062,110.64924,-37.678023,-190.566107,24.869688,115.76015,-5.898073],[62.257141,-125.926373,381.65225,139.842138,-40.443849,-137.257655,-15.436091,56.515406,-88.638342],[77.135465,2.868544,57.912631,411.522001,-98.31201,19.936399,-127.297153,-18.523015,-55.962708],[49.050916,173.48634,82.530139,89.595613,-167.534069,69.285528,110.923129,-46.975582,-10.191881],[1.704446,13.395604,110.394572,-16.865861,-23.893413,-26.389058,120.121085,-1.961735,0.717202],[-0.203801,29.380184,107.314449,22.98733,-10.868266,10.834627,68.369383,-48.661878,1.574261],[-8.315352,-14.978737,147.610542,37.108009,76.372706,-67.089161,30.284517,34.289722,-78.590004],[26.757797,-59.029676,177.144155,24.170704,53.634654,-108.992141,27.558958,77.353201,-62.851756],[32.789807,-89.828698,305.013086,44.305431,-48.552767,-70.0796,67.550012,0.415305,-13.417452],[47.313214,-167.879046,384.341702,142.503544,-8.469793,-161.122618,-22.1875,62.695402,-81.686266],[0.963699,98.588911,26.610266,-57.918573,-35.067102,26.133876,224.053037,-142.078656,34.559033],[16.976884,26.001238,55.519757,21.812055,6.283468,-66.381834,82.013511,29.573839,-7.086371],[0,9.530397,59.330255,-6.417594,128.858784,-17.213253,49.294558,-10.41786,-108.466708],[0,18.786707,40.171029,0,124.488828,-15.75256,0,53.776117,-158.718836],[0,-69.932755,171.57715,0,53.163943,-154.685246,0,133.661085,-61.59564],[12.634955,-81.371035,197.54505,19.289399,67.146572,-111.655282,38.673409,65.791155,-68.138099],[54.593925,-92.822714,290.576552,89.596398,-39.930517,-190.171357,10.08444,101.397599,1.405451],[-1.756205,90.875484,25.233461,-41.159271,-26.848849,84.92568,210.026831,-188.970047,29.876151],[19.211369,27.440479,16.167143,-10.460627,84.198238,41.589883,125.583057,-77.640628,-73.224256],[0,0,0,3.411441,146.488086,28.906007,58.36291,-44.852177,-132.882919],[0,0,0,0,167.026579,2.440641,0,-10.584481,-157.372597],[0,5.289378,51.291919,0,122.200653,-16.588939,0,69.43797,-171.104552],[4.203354,-29.94428,137.912466,41.066573,83.441348,-83.793198,15.123601,35.398886,-71.175872],[35.809772,-105.729236,237.57028,90.538984,-30.249664,-168.511716,39.361708,73.312933,22.104989],[42.813701,93.130022,10.388518,-126.829703,-47.378454,116.658345,286.901403,-184.93308,-5.154565],[21.444741,22.782957,31.435643,-68.431244,48.948519,78.219471,178.351009,-106.986299,-64.783091],[0,0,0,-94.747625,57.15885,130.616221,168.25554,-150.055324,-52.41339],[0,0,0,-26.528949,145.525497,48.879411,61.321578,-29.767416,-163.88133],[0,-22.565723,77.116022,3.032495,110.921787,-1.853691,50.25628,-8.475325,-108.519375],[23.869146,5.183016,124.132559,40.234958,-28.992006,38.334887,86.261036,-46.629845,-5.897879],[34.637728,-37.521669,229.158127,74.858406,-65.058534,-132.549046,63.951405,38.427757,20.882148],[37.490369,131.724595,1.981268,-180.010422,-17.378642,70.764207,408.177894,-163.94454,-94.672063],[46.907231,40.123502,39.954254,-79.590575,-69.855846,31.903513,313.984786,-60.466329,-14.194301],[32.039593,-14.579033,33.171217,-94.967648,60.111572,85.867901,201.264361,-111.832122,-76.593477],[9.10783,23.5775,36.417151,-21.543334,66.347864,39.154879,152.586918,-63.790116,-82.502445],[47.537648,33.176726,87.871211,11.241494,-14.158638,-68.108747,76.147258,28.176544,14.968645],[29.337959,19.019557,114.451493,13.571464,-54.757059,5.48057,118.701716,0.65276,-27.713535],[33.110524,98.484324,119.821845,141.837856,-160.085998,-55.171399,132.493417,40.214094,-2.265357],[110.34819,377.969257,-137.514756,25.041651,-85.688329,-69.949026,45.277217,14.731978,-32.673262],[48.192656,107.319465,18.269278,-142.719235,-30.732834,59.996042,367.371267,-152.108787,-71.277846],[54.535835,97.758273,23.341022,-116.911872,-29.210074,101.19768,261.094185,-189.865042,8.214115],[39.265448,58.495964,30.257362,-90.159263,-24.705772,76.805982,238.43447,-142.015684,2.174964],[-1.458067,95.021498,60.538993,-45.39921,-64.398248,42.410376,217.316972,-114.404419,20.719805],[29.387767,172.930662,106.552308,83.694139,-176.263318,72.273119,101.764555,-59.510451,8.464802],[99.489722,214.23232,66.907816,226.203665,-205.952239,2.828296,66.4198,-4.772958,-92.763353]]}]};
const GENERATED_MPC_PROFILE=null;
export{GENERATED_EVALUATION_PROFILE,GENERATED_MOVE_ORDERING_PROFILE,GENERATED_TUPLE_RESIDUAL_PROFILE,GENERATED_MPC_PROFILE};
export default GENERATED_EVALUATION_PROFILE;
